tree
version=v4
num_class=4
num_tree_per_iteration=4
label_index=0
max_feature_idx=16
objective=multiclass num_class:4
feature_names=hour minute day_of_week hour_sin hour_cos minute_sin minute_cos is_morning_rush is_evening_rush is_rush_hour camera_id signaling_encoded time_segment_id time_afternoon time_evening time_morning time_night
feature_infos=[6:17] [0:59] [0:6] [-0.96592582628906831:1] [-1:6.123233995736766e-17] [-1:1] [-1:1] [0:1] [0:1] [0:1] [1:4] [0:3] [0:4986] [0:1] none [0:1] [0:1]
tree_sizes=3365 3308 3297 3298 3442 3403 3391 3364 3441 3370 3429 3367 3422 3402 3409 3387 3426 3395 3405 3395 3410 3403 3430 3401 3419 3413 3410 3399 3407 3399 3413 3425 3439 3408 3404 3420 3419 3397 3411 3411 3434 3399 3383 3409 3429 3396 3411 3422 3429 3412 3395 3386 3437 3399 3416 3407 3430 3387 3408 3381 3438 3413 3418 3399 3428 3421 3420 3401 3413 3414 3409 3397 3444 3422 3415 3408 3433 3398 3399 3395 3430 3420 3409 3408 3433 3401 3415 3396 3434 3381 3423 3396 3442 3434 3418 3408 3434 3424 3416 3409 3437 3410 3394 3427 3423 3413 3414 3424 3425 3422 3408 3409 3434 3414 3422 3432 3416 3402 3411 3412 3418 3412 3411 3434 3440 3412 3412 3418 3418 3412 3420 3408 3419 3391 3413 3405 3422 3402 3411 3401 3437 3427 3397 3423 3437 3433 3421 3434 3424 3409 3415 3430 3432 3440 3429 3426 3415 3431 3408 3428 3442 3423 3419 3428 3441 3421 3403 3427 3440 3422 3408 3423 3452 3431 3419 3407 3430 3424 3402 3420 3435 3386 3428 3413 3413 3423 3413 3430 3450 3421 3397 3420 3447 3426 3424 3408 3432 3427 3402 3421 3403 3387 3424 3410 3436 3398 3417 3397 3438 3415 3421 3422 3432 3435 3410 3401 3427 3420 3417 3405 3422 3416 3422 3423 3442 3415 3414 3428 3432 3421 3401 3411 3433 3418 3399 3412 3419 3432 3403 3424 3434 3422 3401 3403 3420 3427 3432 3438 3410 3423 3419 3422 3430 3383 3425 3431 3396 3434 3404 3398 3423 3415 3427 3437 3436 3403 3414 3428 3435 3407 3413 3434 3427 3415 3413 3447 3442 3429 3411 3446 3407 3414 3411 3395 3408 3383 3416 3409 3421 3427 3421 3418 3435 3416 3411 3412 3406 3418 3418 3412 3408 3420 3439 3405 3446 3433 3414 3420 3408 3408 3435 3431 3437 3401 3406 3421 3434 3412 3419 3426 3423 3397 3407 3419 3402 3409 3463 3437 3423 3428 3459 3425 3406 3419 3438 3417 3435 3401 3443 3418 3443 3434 3402 3450 3443 3392 3412 3420 3418 3424 3406 3423 3418 3417 3421 3437 3400 3422 3421 3438 3417 3411 3414 3448 3424 3406 3424 3427 3429 3429 3425 3431 3433 3421 3437 3421 3432 3403 3420 3423 3441 3395 3412 3438 3408 3416 3437 3418 3419 3415 3429 3406 3446 3439 3430 3408 3423 3458 3414 3434 3425 3425 3386 3424 3416 3424 3385 3430 3416 3436 3427 3426 3428 3429 3423 3425 3411 3422 3418 3428 3431 3428 3409 3412 3430 3409 3388 3404 3427 3432 3403 3382 3430 3400 3414 3422 3444 3436 3405 3448 3430 3405 3427 3438 3450 3403 3425 3432 3434 3410 3407 3448 3441 3431 3437 3432 3425 3431 3416 3412 3420 3418 3420 3418 3433 3416 3405 3423 3422 3397 3436 3415 3439 3395 3426 3434 3421 3404 3407 3426 3439 3415 3419 3420 3422 3425 3408 3414 3442 3411 3414 3407 3429 3428 3438 3416 3424 3428 3424 3445 3437 3434 3420 3442 3424 3431 3412 3434 3412 3426 3413 3437 3455 3397 3413 3439 3425 3429 3453 3438 3419 3421 3423 3408 3411 3424 3425 3417 3422 3435 3436 3433 3413 3413 3415 3445 3434 3448 3436 3444 3429 3417 3390 3438 3437 3414 3395 3424 3423 3416 3395 3426 3421 3432 3398 3437 3445 3422 3433 3417 3410 3392 3459 3417 3451 3415 3465 3405 3449 3411 3415 3416 3430 3406 3441 3414 3423 3409 3424 3431 3429 3430 3425 3430 3417 3409 3434 3440 3445 3412 3414 3425 3416 3421 3430 3437 3441 3414 3417 3429 3420 3419 3427 3410 3419 3407 3415 3421 3409 3412 3417 3423 3421 3433 3427 3429 3407 3448 3423 3420 3452 3404 3431 3409 3432 3429 3415 3422 3440 3423 3412 3422 3410 3404 3411 3385 3424 3418 3405 3425 3426 3421 3426 3413 3431 3411 3400 3420 3417 3411 3426 3423 3422 3416 3449 3412 3433 3425 3426 3447 3416 3412 3409 3430 3428 3386 3425 3430 3434 3406 3420 3432 3424 3411 3434 3439 3436 3406 3419 3430 3442 3433 3426 3413 3416 3428 3417 3421 3433 3431 3415 3415 3437 3419 3423 3449 3414 3437 3403 3432 3432 3406 3427 3443 3418 3431 3460 3446 3410 3398 3417 3450 3414 3408 3396 3435 3418 3426 3435 3461 3442 3418 3428 3409 3407 3420 3430 3431 3432 3410 3418 3436 3442 3419 3426 3418 3411 3413 3417 3412 3429 3431 3434 3419 3426 3449 3417 3426 3409 3434 3402 3422 3420 3425 3431 3422 3418 3446 3423 3411 3409 3414 3404 3384 3434 3427 3431 3408 3396 3422 3412 3389 3410 3445 3435 3402 3380 3401 3415 3404 3448 3417 3417 3431 3433 3447 3422 3424 3448 3416 3420 3429 3426 3420 3435 3407 3402 3412 3431 3456 3427 3443 3441 3422 3416 3437 3415 3414 3395 3420 3438 3412 3425 3398 3420 3426 3425 3390 3428 3414 3418 3410 3429 3412 3403 3411 3446 3432 3425 3436 3438 3416 3424 3424 3383 3424 3419 3394 3409 3428 3445 3413 3442 3432 3437 3427 3426 3433 3433 3439 3439 3432 3428 3439 3420 3422 3441 3414 3388 3440 3430 3411 3425 3428 3429 3439 3436 3426 3436 3438 3417 3404 3427 3425 3442 3421 3434 3426 3463 3434 3419 3438 3419 3432 3419 3420 3432 3411 3422 3434 3431 3438 3431 3397 3427 3430 3445 3445 3439 3448 3432 3434 3450 3417 3412 3426 3394 3427 3439 3409 3450 3414 3416 3423 3441 3417 3424 3423 3459 3423 3434 3439 3409 3411 3445 3431 3404 3413 3409 3434 3425 3431 3427 3416 3443 3387 3426 3434 3428 3416 3405 3425 3441 3429 3428 3411 3436 3440 3421 3421 3418 3429 3441 3423 3404 3427 3443 3434 3438 3432 3411 3440 3404 3399 3426 3445 3395 3420 3432 3436 3386 3415 3422 3435 3414 3414 3433 3418 3414 3421 3416 3405 3428 3422 3409 3401 3411 3450 3424 3401 3420 3435 3420 3414 3412 3472 3414 3419 3440 3424 3380 3437 3439 3424 3435 3430 3426 3415 3444 3428 3448 3430 3401 3454 3446 3410 3379 3405 3438 3439 3418 3453 3433 3438 3417 3449 3426 3410 3428 3427 3438 3437 3413 3417 3420 3436 3421 3441 3456 3429 3439 3435 3399 3450 3438 3436 3442 3430 3434 3436 3398 3457 3448 3419 3425 3439

Tree=0
num_leaves=31
num_cat=0
split_feature=11 0 0 2 2 10 10 0 12 12 0 12 11 0 2 12 0 10 4 12 12 0 12 5 11 0 12 2 0 1
split_gain=2563.91 419.135 260.695 119.836 77.6043 61.8478 33.638 32.503 27.5921 20.0671 19.4667 16.6663 17.3136 13.176 16.4967 13.1559 13.4904 11.735 11.534 23.3044 18.5569 14.5446 9.12018 8.57602 8.56012 8.46628 8.26357 8.08333 16.5784 7.92813
threshold=1.0000000180025095e-35 10.500000000000002 9.5000000000000018 5.5000000000000009 5.5000000000000009 2.5000000000000004 3.5000000000000004 16.500000000000004 1375.5000000000002 1697.5000000000002 12.500000000000002 1790.5000000000002 1.5000000000000002 11.500000000000002 1.5000000000000002 4631.5000000000009 14.500000000000002 1.5000000000000002 -0.9159756150367534 1982.5000000000002 3230.5000000000005 12.500000000000002 3942.5000000000005 0.54389262614623668 1.5000000000000002 15.500000000000002 3927.5000000000005 4.5000000000000009 12.500000000000002 20.500000000000004
decision_type=2 2 2 2 2 2 2 2 2 2 2 2 2 2 2 2 2 2 2 2 2 2 2 2 2 2 2 2 2 2
left_child=1 -1 -2 5 6 9 8 15 10 13 -3 -11 17 14 -4 -5 24 -13 20 -20 21 -7 27 -18 -17 -19 -22 28 -8 -12
right_child=2 4 3 7 -6 18 22 -9 -10 11 29 12 -14 -15 -16 16 23 25 19 -21 26 -23 -24 -25 -26 -27 -28 -29 -30 -31
leaf_value=-0.41086032318338778 -0.40924372928400793 -0.49462318942567013 -0.53597886543178774 -0.41345653159362938 -0.43137993701111726 -0.56159968242915215 -0.54107966038510402 -0.52549701206618193 -0.47590661001028711 -0.55540965289609268 -0.45715282416276909 -0.49844147906543657 -0.53114945335765462 -0.49594302116559985 -0.44926535122541211 -0.47030764729769675 -0.46960420827760108 -0.5127142640593455 -0.51671437841337298 -0.54309755728971254 -0.50464880785139565 -0.52930859510822037 -0.53649196314898528 -0.42088638293968916 -0.51329994633165876 -0.54316223347255266 -0.54178845571360446 -0.43835036342321093 -0.4852380931260516 -0.43037514566906931
leaf_weight=1144.3814063072205 52.159305363893509 18.739870190620422 44.975688457489014 11.868584454059599 155.85325375199318 155.22859141230583 15.928889662027357 26.235818266868591 209.26188379526138 35.918084532022476 42.789370268583298 106.50492891669273 183.33839669823647 146.48331865668297 6.2466233968734732 30.296123474836349 19.052201360464096 76.833467781543732 133.99007186293602 223.00445526838303 30.920785814523697 44.975688457489014 12.180915623903273 17.178214341402054 18.739870190620422 32.482441663742065 29.046798795461655 6.8712857365608206 80.269110649824142 78.082792460918427
leaf_count=3664 167 60 144 38 499 497 51 84 670 115 137 341 587 469 20 97 61 246 429 714 99 144 39 55 60 104 93 22 257 250
internal_value=-0.46909 -0.428798 -0.518961 -0.523128 -0.461907 -0.527769 -0.472158 -0.476115 -0.464421 -0.516785 -0.447206 -0.522787 -0.519851 -0.503576 -0.525404 -0.462777 -0.469643 -0.510253 -0.53903 -0.533195 -0.547037 -0.554346 -0.495578 -0.446505 -0.486738 -0.521762 -0.522638 -0.490742 -0.494485 -0.439855
internal_weight=3189.84 1764.36 1425.48 1373.32 619.977 1249.95 464.124 123.371 348.874 632.783 139.612 435.077 399.159 197.706 51.2223 97.135 85.2664 215.821 617.166 356.995 260.172 200.204 115.25 36.2304 49.036 109.316 59.9676 103.069 96.198 120.872
internal_count=10213 5649 4564 4397 1985 4002 1486 395 1117 2026 447 1393 1278 633 164 311 273 691 1976 1143 833 641 369 116 157 350 192 330 308 387
is_linear=0
shrinkage=1


Tree=1
num_leaves=31
num_cat=0
split_feature=0 11 0 11 10 0 10 12 12 12 12 1 0 12 5 5 10 12 12 12 0 10 6 12 6 10 5 12 5 6
split_gain=511.598 100.82 36.788 35.8847 31.5955 26.9828 16.6724 16.4932 19.2731 13.8912 12.105 11.5187 11.2898 9.98929 11.5451 9.73587 8.727 10.2003 8.9661 10.0039 19.8646 8.52885 8.41685 7.36538 7.19427 8.51257 9.69435 7.14642 6.81156 6.66949
threshold=10.500000000000002 1.0000000180025095e-35 12.500000000000002 1.0000000180025095e-35 2.5000000000000004 9.5000000000000018 1.5000000000000002 2804.5000000000005 4944.5000000000009 4121.5000000000009 2510.5000000000005 20.500000000000004 11.500000000000002 3942.5000000000005 -0.25846434259635315 0.98633474805103971 3.5000000000000004 4735.5000000000009 2836.5000000000005 4204.5000000000009 14.500000000000002 1.5000000000000002 0.88978543071352001 4928.5000000000009 -0.88978543071351968 1.5000000000000002 0.93230098696887742 1054.5000000000002 -0.35787681872537386 0.15622007704270638
decision_type=2 2 2 2 2 2 2 2 2 2 2 2 2 2 2 2 2 2 2 2 2 2 2 2 2 2 2 2 2 2
left_child=3 9 4 -1 6 -5 12 21 16 13 -6 -7 -3 -2 -15 23 18 -18 -9 24 22 -4 -21 -11 -20 26 -26 -8 -10 -19
right_child=1 2 7 5 10 11 27 8 28 15 -12 -13 -14 14 -16 -17 17 29 19 20 -22 -23 -24 -25 25 -27 -28 -29 -30 -31
leaf_value=-2.1663241485506366 -2.121382515233591 -2.1338710257161688 -2.0879048809066383 -2.1681741188576096 -2.1437885275813651 -2.1681741188576096 -2.0283658365406025 -2.1454027038360572 -2.0600674010785234 -2.1523184669166771 -2.1050321421016833 -2.0888958591529465 -2.0825535983765735 -2.0152803322843309 -2.1161477609264243 -2.0662449278087571 -2.123738795357665 -2.0152803322843309 -2.0413289033301485 -2.0349866425537755 -2.1295113222528723 -2.0651339829471893 -2.1324989019905112 -2.1027695546012626 -2.0906192995813089 -2.0699943667165486 -2.1681741188576096 -2.0762113376002005 -1.9713453361425839 -2.1066651242591639
leaf_weight=513.52175951004028 184.86222729086876 21.863917708396912 56.061327457427979 23.405604213476181 55.360560864210129 5.3258261084556571 10.371345579624174 6.5872059762477866 4.6250595152378082 69.375892728567123 31.674650013446808 32.795876562595367 21.022997796535492 4.9053661525249481 6.7273592948913556 3.9242929220199576 39.383082538843155 3.9242929220199576 12.613798677921293 10.511498898267744 28.451123684644699 154.30880382657051 2.803066372871398 8.409199118614195 22.564684301614765 51.43626794219017 4.9053661525249472 31.534496694803238 4.0644462406635267 4.0644462406635284
leaf_count=3664 1319 156 400 167 395 38 74 47 33 495 226 234 150 35 48 28 281 28 90 75 203 1101 20 60 161 367 35 225 29 29
internal_value=-2.12552 -2.10103 -2.08913 -2.162 -2.10852 -2.12592 -2.0868 -2.08092 -2.09136 -2.12576 -2.12968 -2.09997 -2.10872 -2.11855 -2.07361 -2.14309 -2.09474 -2.11329 -2.08846 -2.08564 -2.10592 -2.0712 -2.05552 -2.14696 -2.07639 -2.082 -2.10447 -2.06437 -2.01857 -2.06177
internal_weight=1431.39 856.337 578.132 575.049 171.828 61.5273 84.7928 406.304 195.934 278.204 87.0352 38.1217 42.8869 196.495 11.6327 81.7094 187.245 47.3718 139.873 133.286 41.7657 210.37 13.3146 77.7851 91.5201 78.9063 27.4701 41.9058 8.68951 7.98874
internal_count=10213 6110 4125 4103 1226 439 605 2899 1398 1985 621 272 306 1402 83 583 1336 338 998 951 298 1501 95 555 653 563 196 299 62 57
is_linear=0
shrinkage=1


Tree=2
num_leaves=31
num_cat=0
split_feature=11 0 0 11 12 10 12 2 12 12 12 12 5 0 1 0 5 5 12 0 5 1 10 1 12 12 12 5 12 1
split_gain=727.639 134.105 74.6527 59.33 28.3877 21.8553 20.1926 20.4557 17.0217 15.6242 11.7661 18.1595 13.6286 11.5179 11.1569 10.9617 10.8967 11.1623 12.0589 10.5544 9.6691 9.33397 8.80758 8.38493 18.3202 7.9852 16.7356 8.70633 16.3167 13.8041
threshold=1.0000000180025095e-35 11.500000000000002 9.5000000000000018 1.5000000000000002 4236.5000000000009 1.5000000000000002 643.50000000000011 5.5000000000000009 1327.5000000000002 4735.5000000000009 2557.5000000000005 2686.5000000000005 -0.9323009869688772 13.500000000000002 46.500000000000007 12.500000000000002 0.98633474805103971 0.25846434259635342 415.50000000000006 16.500000000000004 0.77608090992617107 46.500000000000007 1.5000000000000002 8.5000000000000018 3435.5000000000005 3890.5000000000005 3435.5000000000005 -1.0000000180025095e-35 2819.5000000000005 18.500000000000004
decision_type=2 2 2 2 2 2 2 2 2 2 2 2 2 2 2 2 2 2 2 2 2 2 2 2 2 2 2 2 2 2
left_child=1 -1 -2 5 8 -4 -7 15 -3 10 16 20 -13 -10 -9 -8 17 -5 -19 -11 -12 -6 -14 24 -24 26 27 28 -25 -29
right_child=2 4 3 9 21 6 7 14 13 19 11 12 22 -15 -16 -17 -18 18 -20 -21 -22 -23 23 25 -26 -27 -28 29 -30 -31
leaf_value=-1.9742324394656763 -1.9763194235894588 -1.9409149307301665 -1.92535048198398 -1.8902478046738804 -1.9732186257900732 -1.9354354046045592 -1.9036835850032052 -1.9526596903806048 -1.9330559114361259 -1.941905266194762 -1.8318858522467931 -1.9143739402790048 -1.8857952269642781 -1.9016619115634288 -1.8836118975466023 -1.8814217512951867 -1.9392364131723163 -1.9317834551963218 -1.8545973234795989 -1.8686413488967188 -1.7340437555307937 -1.9306070333897107 -1.8248971310527931 -1.9036367231718594 -1.9426700252479776 -1.8248971310527931 -1.9148041172464385 -1.8213756823891498 -1.7890339565046354 -1.9199762449711646
leaf_weight=646.8664445579052 27.571897968649864 91.796259105205536 101.0419254899025 94.107675701379776 48.374647334218025 33.02023708820343 85.357312873005867 21.132951736450199 45.072623625397682 14.528904318809511 10.731577053666113 14.528904318809508 30.378618121147156 83.045896276831627 8.0899580866098386 157.01122735440731 8.0899580866098386 5.6134403049945822 51.346468672156334 7.4295533448457709 3.3020237088203421 17.500725656747818 5.9436426758766157 4.1275296360254279 7.4295533448457718 25.425582557916641 10.566475868225096 7.0993509739637428 12.547690093517302 7.0993509739637375
leaf_count=3918 167 556 612 570 293 200 517 128 273 88 65 88 184 503 49 951 49 34 311 45 20 106 36 25 45 154 64 43 76 43
internal_value=-1.93211 -1.96163 -1.89557 -1.8925 -1.93311 -1.9052 -1.89852 -1.89403 -1.92448 -1.87641 -1.87342 -1.8628 -1.86885 -1.91271 -1.93354 -1.88926 -1.8827 -1.87967 -1.8622 -1.91712 -1.80886 -1.9619 -1.86287 -1.85418 -1.89033 -1.84696 -1.86049 -1.8419 -1.8174 -1.87068
internal_weight=1686.18 932.657 753.522 725.95 285.79 405.654 304.612 271.591 219.915 320.296 298.338 139.18 125.147 128.119 29.2229 242.369 159.158 151.068 56.9599 21.9585 14.0336 65.8754 110.618 80.2392 13.3732 66.866 41.4404 30.8739 16.6752 14.1987
internal_count=10213 5649 4564 4397 1731 2457 1845 1645 1332 1940 1807 843 758 776 177 1468 964 915 345 133 85 399 670 486 81 405 251 187 101 86
is_linear=0
shrinkage=1


Tree=3
num_leaves=31
num_cat=0
split_feature=11 10 0 0 12 0 10 0 0 12 12 12 12 10 12 1 0 1 10 12 0 0 12 12 6 4 0 12 11 0
split_gain=614.898 214.697 212.662 184.871 203.391 57.4876 49.3756 101.672 56.3957 48.8748 95.0281 46.8306 38.0752 32.3128 32.6858 32.3403 23.2617 35.4354 21.9172 23.2359 21.3827 20.8396 40.0584 24.9286 19.6579 26.6447 17.122 17.0459 16.3962 15.7322
threshold=1.0000000180025095e-35 2.5000000000000004 12.500000000000002 10.500000000000002 2473.5000000000005 10.500000000000002 1.5000000000000002 11.500000000000002 9.5000000000000018 4683.5000000000009 3334.5000000000005 3807.5000000000005 3245.5000000000005 3.5000000000000004 4105.5000000000009 45.500000000000007 9.5000000000000018 35.500000000000007 3.5000000000000004 4569.5000000000009 16.500000000000004 12.500000000000002 3351.5000000000005 2527.5000000000005 -0.70613771591812613 -0.98296291314453399 11.500000000000002 4236.5000000000009 1.5000000000000002 10.500000000000002
decision_type=2 2 2 2 2 2 2 2 2 2 2 2 2 2 2 2 2 2 2 2 2 2 2 2 2 2 2 2 2 2
left_child=5 6 3 16 26 -1 7 8 -2 10 -4 29 24 20 15 -15 -3 -18 -7 21 -12 23 -23 -20 -6 -26 28 -16 -5 -10
right_child=1 2 9 4 12 18 -8 -9 11 -11 13 -13 -14 14 27 -17 17 -19 19 -21 -22 22 -24 -25 25 -27 -28 -29 -30 -31
leaf_value=-2.2456948037677207 -2.2463203545845905 -2.24632035458459 -2.1877987802958283 -1.9297288005272375 -2.0112415655578975 -2.2248278865992295 -2.2176956849127403 -2.1993562057340323 -2.1090380148990802 -2.2415453166824855 -2.1768652578267038 -2.2463203545845905 -2.2042649748963288 -1.998353474054241 -2.1849270101289582 -2.1537135589074081 -2.24632035458459 -2.0990420771220837 -2.0216126886031924 -2.2432146388759042 -2.0779800353239501 -2.215565873181204 -2.0836153594017635 -2.1784087044213232 -2.1938885658555973 -2.0398322290881707 -2.0186884107582292 -2.0476787778570347 -2.0039743449293841 -2.0260412338451617
leaf_weight=479.57734513282776 5.7591165900230399 11.387344166636469 108.50699211657047 19.109795957803726 5.1046715229749706 195.41729702055454 146.72658403217793 119.23989121615887 8.3768968582153374 20.94224214553833 18.717128917574886 3.5340033620595923 14.266902461647986 14.921347528696066 7.3297847509384138 4.3193374425172797 6.5444506704807308 10.863788112998007 4.4502264559268934 16.099348649382591 7.7224517911672583 30.889807164669037 7.0680067241191855 5.8900056034326553 6.6753396838903454 4.8428934961557379 19.109795957803726 3.2722253352403641 12.172678247094156 17.931794837117195
leaf_count=3664 44 87 829 146 39 1493 1121 911 64 160 143 27 109 114 56 33 50 83 34 123 59 236 54 45 51 37 146 25 93 137
internal_value=-2.20495 -2.16722 -2.13696 -2.08189 -2.04332 -2.23543 -2.19691 -2.17722 -2.10307 -2.1696 -2.16045 -2.07542 -2.14434 -2.10773 -2.07207 -2.03323 -2.19076 -2.15441 -2.21649 -2.19119 -2.14798 -2.17385 -2.191 -2.11093 -2.09292 -2.12911 -1.9814 -2.14257 -1.95862 -2.05247
internal_weight=1336.77 597.377 295.809 110.078 81.2821 739.392 301.568 154.842 35.6018 185.732 164.789 29.8427 30.8898 56.2823 29.8427 19.2407 28.7956 17.4082 259.815 64.3974 26.4396 48.298 37.9578 10.3402 16.6229 11.5182 50.3923 10.602 31.2825 26.3087
internal_count=10213 4564 2260 841 621 5649 2304 1183 272 1419 1259 228 236 430 228 147 220 133 1985 492 202 369 290 79 127 88 385 81 239 201
is_linear=0
shrinkage=1


Tree=4
num_leaves=31
num_cat=0
split_feature=11 3 3 2 2 10 12 3 3 12 10 12 11 10 12 3 10 3 2 10 4 12 12 3 5 1 11 6 1 3
split_gain=2237.79 386.638 224.745 101.547 69.6615 49.124 30.1209 28.4824 27.6922 17.9854 15.8286 14.2166 14.3878 13.0009 12.3191 12.0135 11.78 11.2406 14.6165 9.93755 9.09585 19.5448 14.9279 11.5652 8.07508 7.80658 7.67062 8.94892 7.53635 7.52412
threshold=1.0000000180025095e-35 0.37940952255126054 0.60355339059327384 5.5000000000000009 5.5000000000000009 2.5000000000000004 1375.5000000000002 -0.91597561503675318 1.0000000180025095e-35 1697.5000000000002 3.5000000000000004 1790.5000000000002 1.5000000000000002 2.5000000000000004 4631.5000000000009 -0.60355339059327329 3.5000000000000004 0.12940952255126059 1.5000000000000002 1.5000000000000002 -0.9159756150367534 1982.5000000000002 3230.5000000000005 1.0000000180025095e-35 0.54389262614623668 46.500000000000007 1.5000000000000002 0.35787681872537364 20.500000000000004 -0.78656609248549259
decision_type=2 2 2 2 2 2 2 2 2 2 2 2 2 2 2 2 2 2 2 2 2 2 2 2 2 2 2 2 2 2
left_child=1 4 3 5 6 9 8 -5 16 17 -8 -11 19 -10 -9 24 28 -2 -19 -13 22 -22 23 -7 -16 -6 -17 -28 -1 -21
right_child=2 -3 -4 7 25 20 10 14 13 11 -12 12 -14 -15 15 26 -18 18 -20 29 21 -23 -24 -25 -26 -27 27 -29 -30 -31
leaf_value=0.011355929915443951 -0.024352797695402439 0.056159696653811042 0.057793685645584153 -0.051760654960707468 0.042705042350293869 -0.054733530111389039 -0.0064368300388781916 0.054571354296718146 -0.001974756865750573 -0.079115898563347067 -0.034164376471321888 -0.027187971594554224 -0.056886067262516472 -0.074768981267439791 -0.00047696821964992789 -0.00053518835505983096 -0.0024553619348896757 -0.061032925188844338 0.020355214132732679 -0.06840802405432507 -0.043311513877266228 -0.067196386512002562 -0.048722620261036631 -0.083149732103259807 0.04697832244088699 0.016884402585668805 -0.071981037156370151 -0.0030459798615618261 0.037562061500421746 -0.040012969062000761
leaf_weight=42.572284013032913 148.40843948721886 1113.5247735977173 50.732274770736694 26.786274403333664 113.84893715381622 46.068836063146591 209.62153002619743 11.708774387836455 12.851109117269518 36.939735531806946 68.221804022789001 107.6959815621376 187.51580145955086 11.734248280525206 19.042900323867798 30.409460186958313 42.285989075899124 46.107839465141296 6.2661697268486014 33.253540456295013 136.7182112634182 229.29641726613045 61.282062739133835 160.73581457138062 16.937583893537521 39.40474945306778 10.479779273271562 8.5480577349662763 77.153554856777191 78.175444960594177
leaf_count=137 469 3664 167 84 371 144 670 38 41 115 216 341 587 37 61 97 135 144 20 104 429 714 192 497 55 128 33 27 250 246
internal_value=0.000159788 0.0385609 -0.0455909 -0.0493309 0.0068353 -0.0535197 -0.0028101 -0.00611359 0.0127276 -0.043797 -0.0132451 -0.049417 -0.0467192 -0.0367184 0.00647529 -0.000117551 0.020231 -0.0313808 -0.0512954 -0.0380188 -0.0633997 -0.0582746 -0.0703969 -0.0768196 0.0218623 0.036066 -0.0161145 -0.0410127 0.0282436 -0.0484869
internal_weight=3184.33 1731.22 1453.11 1402.38 617.694 1278.46 464.441 123.913 186.597 644.363 277.843 443.581 406.641 24.5854 97.1266 85.4178 162.012 200.782 52.374 219.125 634.101 366.015 268.087 206.805 35.9805 153.254 49.4373 19.0278 119.726 111.429
internal_count=10213 5649 4564 4397 1985 4002 1486 395 600 2026 886 1393 1278 78 311 273 522 633 164 691 1976 1143 833 641 116 499 157 60 387 350
is_linear=0
shrinkage=0.05


Tree=5
num_leaves=31
num_cat=0
split_feature=3 11 11 3 10 3 12 12 10 12 12 12 1 3 5 12 6 1 1 3 1 6 5 2 12 11 12 12 10 1
split_gain=456.103 80.7794 34.7613 31.1783 27.6475 24.0938 14.0863 13.9329 13.2321 12.4105 11.3442 10.9905 10.2512 9.78976 8.91141 8.86049 14.7611 9.66856 7.75709 9.14061 8.01747 11.3605 10.1606 9.12657 7.66559 7.4376 8.97358 9.76153 8.77881 7.84922
threshold=0.37940952255126054 1.0000000180025095e-35 1.0000000180025095e-35 1.0000000180025095e-35 2.5000000000000004 0.60355339059327384 2602.5000000000005 4944.5000000000009 1.5000000000000002 4121.5000000000009 2587.5000000000005 2510.5000000000005 20.500000000000004 0.12940952255126059 0.98633474805103971 1392.5000000000002 0.20791169081775937 5.5000000000000009 13.500000000000002 0.12940952255126059 28.500000000000004 -0.25846434259635348 0.96460205851447978 4.5000000000000009 2068.5000000000005 1.5000000000000002 2068.5000000000005 2014.5000000000002 1.5000000000000002 6.5000000000000009
decision_type=2 2 2 2 2 2 2 2 2 2 2 2 2 2 2 2 2 2 2 2 2 2 2 2 2 2 2 2 2 2
left_child=1 9 -2 6 8 12 10 -8 13 15 25 -6 -4 -5 -11 17 18 -1 -17 20 22 23 -20 -22 -18 -3 27 29 -28 -27
right_child=2 3 5 4 11 -7 7 -9 -10 14 -12 -13 -14 -15 -16 16 24 -19 19 -21 21 -23 -24 -25 -26 26 28 -29 -30 -31
leaf_value=0.047701609266609379 -0.040279983865609215 0.039171777010831882 -0.04243493253785275 0.038620020007368312 -0.018405162111874134 -0.042217982683551473 0.029883246592816794 0.091093006791486353 0.053651541694921527 -0.020596464989410149 0.13881997451997014 0.01805796137335151 0.03289021921886532 -0.0085153119252799146 0.055304772971502318 0.10479080301089388 0.027410281410098204 -0.010878139543311767 -0.009285284155704154 -0.014773220540752691 0.054726072358363555 -0.009938337639263245 0.075195988673373501 0.14510952417176065 -0.017875301885602379 0.10896985293881228 0.086249927137585947 0.13285665530151605 -0.014734455197899884 0.054789693141914078
leaf_weight=7.7501229792833319 486.20699882507324 92.489406928420067 5.201718032360076 22.07422611117363 55.73246856033802 22.102802813053131 242.46111808717251 9.6676334887742978 44.966507151722908 75.662435486912727 3.5747305750846854 32.844282850623131 34.306109130382538 21.989439561963081 4.07542760670185 3.3914515972137442 12.849222704768179 77.287399873137474 14.989006578922274 10.76063723862171 22.596401214599613 6.1083758473396328 4.6673286110162726 3.1869045943021765 34.262057766318321 7.568057879805564 3.0962957143783552 5.1152851581573477 7.0576212853193283 57.274946704506874
leaf_count=55 3664 622 38 150 395 167 1652 62 299 555 24 226 234 156 28 24 91 552 106 76 160 43 33 21 241 51 21 34 47 386
internal_value=4.77093e-05 0.0222731 -0.0357965 0.0325063 0.0148931 -0.000414455 0.03981 0.0322303 0.0345701 -6.38194e-05 0.0506575 -0.00488463 0.0229727 0.0150977 -0.0167171 0.00664786 0.0158346 -0.00553932 0.0311501 0.0271419 0.0358916 0.0513725 0.0107745 0.0658978 -0.00552402 0.0488316 0.0599838 0.0663591 0.0160593 0.0611133
internal_weight=1431.32 883.499 547.818 605.912 177.607 61.6106 428.305 252.129 89.0302 277.587 176.176 88.5768 39.5078 44.0637 79.7379 197.849 112.811 85.0375 65.7001 62.3087 51.548 31.8917 19.6563 25.7833 47.1113 172.602 80.1122 69.9583 10.1539 64.843
internal_count=10213 6110 4103 4125 1226 439 2899 1714 605 1985 1185 621 272 306 583 1402 795 607 463 439 363 224 139 181 332 1161 539 471 68 437
is_linear=0
shrinkage=0.05


Tree=6
num_leaves=31
num_cat=0
split_feature=11 0 0 11 12 1 12 12 12 12 0 1 12 1 0 11 12 0 0 1 12 1 1 5 1 1 5 12 5 0
split_gain=630.655 129.014 62.8698 47.47 25.8415 19.4816 14.7992 14.1919 12.9171 12.0333 10.2909 9.21287 9.21198 11.3687 8.79544 8.66795 7.63778 7.7478 7.40591 8.69252 7.21205 7.15014 9.44179 7.10253 7.05771 7.0203 6.91429 8.2246 6.90893 6.73915
threshold=1.0000000180025095e-35 11.500000000000002 9.5000000000000018 1.5000000000000002 4236.5000000000009 36.500000000000007 1327.5000000000002 4487.5000000000009 1151.5000000000002 4735.5000000000009 13.500000000000002 46.500000000000007 384.50000000000006 42.500000000000007 16.500000000000004 2.5000000000000004 1087.5000000000002 16.500000000000004 12.500000000000002 24.500000000000004 4188.5000000000009 56.500000000000007 48.500000000000007 0.8897854307135199 42.500000000000007 51.500000000000007 -0.62845792932566569 1886.5000000000002 -0.3090169943749474 12.500000000000002
decision_type=2 2 2 2 2 2 2 2 2 2 2 2 2 2 2 2 2 2 2 2 2 2 2 2 2 2 2 2 2 2
left_child=1 -1 -2 5 6 7 -3 8 -4 12 26 -6 -5 15 -11 -14 24 20 -10 -20 21 22 -18 -12 -7 -24 -8 -28 -29 -23
right_child=2 4 3 9 11 16 10 -9 18 14 23 -13 13 -15 -16 -17 17 -19 19 -21 -22 29 25 -25 -26 -27 27 28 -30 -31
leaf_value=-0.041205267801781256 -0.043372059459480507 -0.0079407907329421875 -0.00211449626979402 0.0092791726456329642 -0.040229698851655338 -0.035904742091682339 -0.027867654274502558 -0.024254116615827697 0.010605641352674892 -0.0091930802186353435 0.022575293119517784 0.0025531824970258482 0.064749149400369979 0.038934465514458408 0.056325616526205019 0.03883936953635006 0.034647095877844862 0.065845348563726966 0.041752940979506027 0.012769636068761135 0.0073732779272784521 0.052568315588334469 0.10244659321693005 0.063275808899300748 0.027674977991226764 0.051444660107203527 0.074285834959671296 0.065416943879343409 -0.0089249625515387468 -0.028982192740910295
leaf_weight=613.92325359582901 26.064909845590591 90.757653132081032 54.813579112291336 12.156629309058188 46.283873155713081 6.1040820181369808 15.597947865724562 20.580906376242638 55.659309357404709 14.446964263916017 72.746660098433495 17.281745418906212 174.7899172604084 91.779569149017334 7.9361824542284003 39.591265976428986 62.097002774477005 26.773010015487671 82.516287118196487 37.683869600296021 18.484012514352798 4.1318024098873121 10.221364930272104 12.571306243538855 15.318719446659086 19.850832924246788 4.653362080454829 3.6585775464773205 21.438439399003983 6.5482533574104309
leaf_count=3918 167 556 324 71 293 36 94 127 325 88 429 106 988 524 45 224 360 154 477 218 110 24 59 74 90 115 28 22 129 38
internal_value=0.000319814 -0.0282994 0.032986 0.0355996 -0.000497623 0.0243663 0.0075694 0.015529 0.0190785 0.0494733 0.0183424 -0.0285982 0.0519651 0.05366 0.0140373 0.0599642 0.0374638 0.0415001 0.0256842 0.0326664 0.0361282 0.041296 0.0457837 0.0285724 0.00955896 0.0687799 -0.000904193 0.0132326 0.00191241 0.00256732
internal_weight=1686.46 898.913 787.548 761.484 284.99 420.783 221.424 251.254 230.673 340.701 130.666 63.5656 318.317 306.161 22.3831 214.381 169.529 148.106 175.859 120.2 121.333 102.849 92.1692 85.318 21.4228 30.0722 45.3483 29.7504 25.097 10.6801
internal_count=10213 5649 4564 4397 1731 2457 1332 1471 1344 1940 776 399 1807 1736 133 1212 986 860 1020 695 706 596 534 503 126 174 273 179 151 62
is_linear=0
shrinkage=0.05


Tree=7
num_leaves=31
num_cat=0
split_feature=0 0 12 10 10 12 2 10 0 12 12 0 1 2 12 12 6 12 10 10 0 4 12 10 1 6 6 2 5 6
split_gain=403.571 246.369 243.088 230.911 78.6394 75.253 127.372 73.0025 70.0116 41.9034 36.1658 32.0808 63.8718 52.2354 30.2685 22.8578 21.2281 20.1552 18.1929 24.3579 17.8167 17.417 16.1856 23.2725 13.3777 13.3038 13.245 16.9845 18.9223 13.0616
threshold=10.500000000000002 12.500000000000002 3215.5000000000005 2.5000000000000004 1.5000000000000002 2068.5000000000005 5.5000000000000009 3.5000000000000004 11.500000000000002 2473.5000000000005 3334.5000000000005 9.5000000000000018 37.500000000000007 3.5000000000000004 4105.5000000000009 4250.5000000000009 -0.54389262614623657 3454.5000000000005 1.5000000000000002 2.5000000000000004 11.500000000000002 -0.98296291314453399 4236.5000000000009 1.5000000000000002 35.500000000000007 -0.20791169081775954 0.15622007704270638 1.0000000180025095e-35 0.25846434259635342 -0.70613771591812613
decision_type=2 2 2 2 2 2 2 2 2 2 2 2 2 2 2 2 2 2 2 2 2 2 2 2 2 2 2 2 2 2
left_child=11 2 3 4 8 -3 7 22 -2 26 25 -1 -13 18 17 -16 -11 -12 -14 -20 -4 -18 -7 -24 -19 -9 -5 28 -28 -25
right_child=1 5 20 9 -6 6 -8 10 -10 16 14 12 13 -15 15 -17 21 24 19 -21 -22 -23 23 29 -26 -27 27 -29 -30 -31
leaf_value=-0.041832073366475167 0.14128764496885568 -0.019313522752289026 -0.037647142516363849 0.18745224168159114 -0.017297543958314551 0.014943762504572775 -0.037124613563570746 -0.0096749571887806696 0.0072474111024578673 0.15730637694559663 0.075413595380259324 -0.038157253077529867 0.21273572600019444 -0.010735907271854299 0.017171051496652517 0.17120848113848908 -0.010890740895586977 0.19687943096598881 -0.016357829945452478 0.1395572075334508 0.01088730330698804 0.10830593252553189 -0.028436741900994655 0.2130246621512078 0.10756712296901089 0.059924824142299472 -0.012740360497755347 0.16438089392116906 0.15808416879311937 0.077238288522802623
leaf_weight=413.29546459764242 22.490828171372414 227.56353090703487 34.147412076592445 41.977984353899956 38.170873478055 188.82180668413639 81.938201040029526 10.727538496255876 17.185762256383896 6.7313444614410427 8.8594247400760668 66.182417348027229 3.7185275927186003 17.471731245517731 11.703508034348486 3.0323721021413794 6.3306390643119821 12.486491665244104 3.8610780984163267 7.1321642100811005 42.372223302721977 5.9404709786176655 3.6110265105962736 2.7399026453495026 6.3123428523540488 19.073485761880875 3.2628901749849346 21.640143036842346 3.2218185216188431 5.0082516670227051
leaf_count=3339 147 1736 266 262 290 1420 642 80 130 44 59 526 26 133 83 20 46 80 29 50 321 39 27 20 43 142 21 136 20 36
internal_value=-0.00083504 0.0207939 0.0630252 0.0968486 0.0339377 0.00312318 0.0175335 0.0339761 0.0832286 0.151811 0.0770796 -0.0357242 -0.010061 0.0477162 0.10675 0.0488691 0.0859534 0.137588 0.117134 0.0847963 -0.0107715 0.0468126 0.0184309 0.0763972 0.16689 0.0348708 0.169663 0.143111 0.0721309 0.125255
internal_weight=1337.01 825.35 243.472 166.953 77.8475 581.878 354.314 272.376 39.6766 89.1053 72.1952 511.661 98.3659 32.1835 42.3941 14.7359 19.0025 27.6583 14.7118 10.9932 76.5196 12.2711 200.181 11.3592 18.7988 29.801 70.1028 28.1249 6.48471 7.74815
internal_count=10213 6110 1722 1135 567 4388 2652 2010 277 568 507 4103 764 238 285 103 129 182 105 79 587 85 1503 83 123 222 439 177 41 56
is_linear=0
shrinkage=0.05


Tree=8
num_leaves=31
num_cat=0
split_feature=11 3 3 2 2 10 10 3 2 2 11 3 3 3 6 5 4 2 11 5 3 1 5 11 6 10 10 3 11 3
split_gain=1969.09 357.065 195.259 86.441 61.7824 42.2486 26.7672 24.8141 21.2149 14.5191 14.623 12.5596 10.3727 10.9097 8.58409 7.59289 7.43675 8.84852 8.61253 12.4339 7.50869 7.31438 7.08848 6.9847 8.20831 6.96674 6.69678 9.91054 6.25247 6.18597
threshold=1.0000000180025095e-35 0.37940952255126054 0.60355339059327384 5.5000000000000009 5.5000000000000009 2.5000000000000004 3.5000000000000004 -0.91597561503675318 1.0000000180025095e-35 1.0000000180025095e-35 1.5000000000000002 -0.78656609248549259 0.12940952255126059 -0.60355339059327329 0.4533683215379003 0.54389262614623668 -0.9159756150367534 2.5000000000000004 1.5000000000000002 -0.35787681872537386 0.12940952255126059 46.500000000000007 0.77608090992617107 1.5000000000000002 0.54389262614623657 3.5000000000000004 1.5000000000000002 0.12940952255126059 2.5000000000000004 0.60355339059327384
decision_type=2 2 2 2 2 2 2 2 2 2 2 2 2 2 2 2 2 2 2 2 2 2 2 2 2 2 2 2 2 2
left_child=1 4 3 5 6 9 8 -5 22 11 26 -2 13 15 -13 -9 20 18 19 -18 25 -6 -1 -15 -25 -7 27 -11 -12 -3
right_child=2 29 -4 7 21 16 -8 12 -10 10 28 14 -14 23 -16 -17 17 -19 -20 -21 -22 -23 -24 24 -26 -27 -28 -29 -30 -31
leaf_value=0.032231781690636917 0.025984788176938736 0.044627869903554523 0.055856210651636054 -0.047842914953666389 0.040888220849751633 -0.048084781374775086 -0.023179063969110032 -0.00054957474755687615 -0.0029646222679182849 -0.021958249113515245 -0.054631736855985574 -0.040546673526586322 0.049457406958481866 -0.00014484531382651621 -0.00052416061772910406 0.045664670298684457 -0.058024737453109466 -0.060906117086313154 -0.057175716603020781 -0.019682413203099623 -0.075489985637285886 0.015731218856597642 -0.0015314767236579148 -0.063520644596267981 0.004418343204029669 -0.068233652130576167 -0.043105779645955092 -0.052433505015303077 -0.029686915050466514 0.055723827710525212
leaf_weight=72.560926795005798 12.44239881634712 145.11219075322151 49.127445727586746 27.205176621675491 111.40652045607567 84.449006825685501 117.09522905945778 19.033279627561569 255.49288359284401 122.9268687069416 231.03236711025238 45.88470271229744 12.124768435955046 29.779913067817688 18.922650039196014 16.673918396234512 34.699250370264053 201.73398813605309 81.39446347951889 54.12655371427536 101.23641449213028 39.011083364486694 19.7840416431427 12.225122123956682 6.9866771697998038 87.199448376893997 160.06436175107956 34.071479856967926 28.18528738617897 934.54837036132812
leaf_count=237 39 492 167 84 371 259 369 61 816 385 712 143 40 95 59 55 107 617 251 168 307 128 64 38 22 267 496 105 87 3172
internal_value=0.000169976 0.0369074 -0.0421469 -0.0455318 0.00650975 -0.0493414 -0.00250171 -0.00565157 0.00445906 -0.0403822 -0.0431108 -0.020027 0.0062032 1.13012e-05 -0.0288608 0.0210307 -0.0584213 -0.0538221 -0.0454267 -0.0346606 -0.0646902 0.0343637 0.0249983 -0.0153085 -0.0388135 -0.0583206 -0.0359091 -0.0285719 -0.0519194 0.0542325
internal_weight=3166.54 1695.01 1471.53 1422.4 615.351 1298.37 464.933 124.029 347.838 653.53 576.28 77.2498 96.8237 84.6989 64.8074 35.7072 644.839 371.954 170.22 88.8258 272.885 150.418 92.345 48.9917 19.2118 171.648 317.063 156.998 259.218 1079.66
internal_count=10213 5649 4564 4397 1985 4002 1486 395 1117 2026 1785 241 311 271 202 116 1976 1143 526 275 833 499 301 155 60 526 986 490 799 3664
is_linear=0
shrinkage=0.05


Tree=9
num_leaves=31
num_cat=0
split_feature=0 0 2 10 10 0 2 12 12 12 6 6 3 1 12 10 1 12 10 6 6 1 12 0 6 2 6 6 12 12
split_gain=408.236 52.8134 15.9862 15.5722 15.8354 16.5436 15.831 10.3589 17.5496 10.704 9.19671 16.1876 9.85266 7.91375 7.91207 12.6375 7.55085 7.37367 7.21696 6.38504 6.21119 6.17622 9.43548 6.86107 6.00746 9.75294 5.9888 5.80721 9.64305 9.2287
threshold=9.5000000000000018 11.500000000000002 5.5000000000000009 2.5000000000000004 1.5000000000000002 10.500000000000002 1.5000000000000002 4204.5000000000009 4735.5000000000009 1311.5000000000002 0.15622007704270638 -0.10452846326765376 -0.91597561503675318 22.500000000000004 2602.5000000000005 3.5000000000000004 2.5000000000000004 2725.5000000000005 1.5000000000000002 -0.5 -0.98633474805103949 16.500000000000004 431.50000000000006 14.500000000000002 0.4067366430758001 3.5000000000000004 0.10452846326765323 0.93230098696887731 4914.5000000000009 4822.5000000000009
decision_type=2 2 2 2 2 2 2 2 2 2 2 2 2 2 2 2 2 2 2 2 2 2 2 2 2 2 2 2 2 2
left_child=-1 2 3 4 -2 13 -7 9 -9 21 11 12 19 -6 16 17 -11 18 -16 -10 -18 22 -3 -23 25 -8 -20 29 -29 -12
right_child=1 7 -4 -5 5 6 24 8 10 14 27 -13 -14 -15 15 -17 20 -19 26 -21 -22 23 -24 -25 -26 -27 -28 28 -30 -31
leaf_value=-0.041430564430495531 -0.0058651840695267228 -0.019451573442779528 -0.03394054504362614 -0.012686118527551594 -0.028434752180669126 0.10910530906532696 0.088008639044907577 -0.013044457569915891 0.088284769641859828 -0.0078918389796731932 0.030232635360592348 0.10467264688537981 0.0067560116506357182 0.029689832750891515 -0.031517607356260323 0.0061553043629441221 0.083870191329792398 0.034427988888907995 0.076719260200962494 0.004257755897546781 0.03840871169814556 0.021340518068212001 0.037521155339376951 -0.0018156942248340746 -0.0060628924711815507 0.0046571665708437472 0.0064074788242570492 0.008045015423599514 0.11292148549255787 -0.024337592285985546
leaf_weight=419.00971671193838 46.333864793181419 8.479457348585127 36.775586038827896 93.564805701375008 11.104064196348192 10.13776056468487 7.9801487028598803 48.852356597781181 7.9568939357995987 8.4705561250448209 13.050779417157171 8.1260543763637525 22.232552334666256 12.390438154339789 8.6712403446435946 68.068453967571259 7.86401243507862 182.26959632337093 4.166150137782096 3.1581532061099953 168.44129440188408 64.508197084069252 50.834737151861191 63.455299437046051 6.6983146220445624 6.2645847052335739 11.090214416384695 6.9209643155336362 3.2075941860675812 19.066521197557449
leaf_count=3339 334 57 284 669 88 62 50 343 50 55 94 55 157 85 58 455 51 1196 27 21 1104 436 337 442 43 41 73 50 22 135
internal_value=6.15477e-05 0.0172726 -0.00370948 0.0020073 0.0156313 0.0338816 0.057816 0.0235021 0.0107704 0.0261136 0.024667 0.0413925 0.0259726 0.00221876 0.0302236 0.0248356 0.038221 0.0310022 0.00490595 0.0644099 0.0404365 0.0160396 0.0293764 0.00985768 0.0329888 0.0513521 0.025608 0.00824724 0.0412581 -0.00216313
internal_weight=1429.15 1010.14 231.25 194.474 100.909 54.5753 31.0808 778.891 132.572 646.319 83.7195 41.4737 33.3476 23.4945 459.042 274.266 184.776 206.197 23.9276 11.115 176.305 187.278 59.3142 127.963 20.943 14.2447 15.2564 42.2459 10.1286 32.1173
internal_count=10213 6874 1656 1372 703 369 196 5218 927 4291 584 283 228 173 3019 1809 1210 1354 158 71 1155 1272 394 878 134 91 100 301 72 229
is_linear=0
shrinkage=0.05


Tree=10
num_leaves=31
num_cat=0
split_feature=11 3 3 11 12 12 10 6 2 5 12 12 3 1 12 1 6 3 12 11 5 12 3 6 5 5 5 10 12 4
split_gain=549.152 124.365 53.5538 39.0054 23.6487 16.7979 15.9968 13.965 14.2714 14.3986 12.9708 9.61379 9.18843 8.90876 7.76295 9.37465 7.66949 7.5931 7.41399 6.95939 6.41634 7.18226 6.33483 8.6883 8.19749 6.13196 6.10641 5.97955 5.93164 5.91872
threshold=1.0000000180025095e-35 0.12940952255126059 0.60355339059327384 1.5000000000000002 4236.5000000000009 1087.5000000000002 1.5000000000000002 -0.83752119907969302 5.5000000000000009 0.25846434259635342 1327.5000000000002 4735.5000000000009 -0.3794095225512602 46.500000000000007 384.50000000000006 42.500000000000007 0.77608090992617096 -0.91597561503675318 1263.5000000000002 2.5000000000000004 -0.62845792932566569 1886.5000000000002 1.0000000180025095e-35 0.93230098696887731 0.70613771591812635 0.74314482547739436 -0.3090169943749474 1.5000000000000002 3366.5000000000005 -0.60355339059327384
decision_type=2 2 2 2 2 2 2 2 2 2 2 2 2 2 2 2 2 2 2 2 2 2 2 2 2 2 2 2 2 2
left_child=1 4 3 5 10 -2 17 -8 22 -10 -1 14 25 -6 -5 19 -13 -7 -19 -16 -14 -22 23 -9 -24 28 -23 -21 -12 -27
right_child=2 -3 -4 11 13 6 7 8 9 -11 12 16 20 -15 15 -17 -18 18 -20 27 21 26 24 -25 -26 29 -28 -29 -30 -31
leaf_value=-0.0074150151717417003 -0.00059358660788014184 -0.040674318808705021 -0.042935937586935646 0.0075885269377977535 -0.039694874933160089 0.044034627547870714 0.0073808331827248403 0.052047507822147746 0.036680415010790592 -0.039123083905140132 0.029107105300889943 -0.0064350535105787967 -0.027396943811451857 0.0026942782480297855 0.057418641181475764 0.034671258495063799 0.056600642060254308 0.055114031815751356 -0.0026044334253830081 -0.011432605144930327 0.067715334367440913 0.059593345668007017 0.039067107916496459 0.015196947874287301 -0.0031033791378548888 0.017705791574643592 -0.0088337702600604726 0.042570913795377301 -0.0033930018505901648 0.076173740425681535
leaf_weight=89.685656428337097 69.875005260109901 582.09738045930862 24.621722906827927 12.488895639777182 44.122339129447937 12.436618670821188 47.204797029495239 125.28287065029144 13.607749953866007 11.608438938856123 49.741597637534142 15.875716447830202 15.306355386972426 17.237465396523476 186.09770520031452 96.130275830626488 6.9325347095727912 6.0375765562057486 70.883231490850449 5.9939937591552725 4.905161157250407 3.846618756651881 43.551220461726189 18.3360805362463 15.670578956604002 7.2355403751134881 21.393510654568672 35.389960706233978 19.559983640909195 10.773174196481705
leaf_count=556 406 3918 167 71 293 71 267 681 80 74 288 93 94 106 988 524 40 35 413 33 28 22 241 101 88 41 129 191 113 61
internal_value=0.000309381 -0.0274432 0.0296863 0.03194 -0.000305641 0.0218641 0.0261678 0.0321348 0.0372586 0.00178377 0.00727472 0.0441379 0.0171982 -0.0277867 0.0462696 0.0477624 0.0127246 0.00778655 0.00192594 0.0532946 -0.00103286 0.0123536 0.0416687 0.0473427 0.0279084 0.0266888 0.00159458 0.0347491 0.0199341 0.0526825
internal_weight=1683.93 865.905 818.025 793.403 283.807 434.494 364.619 275.262 228.057 25.2162 222.448 358.909 132.762 61.3598 336.101 323.612 22.8083 89.3574 76.9208 227.482 45.4516 30.1453 202.841 143.619 59.2218 87.3103 25.2401 41.384 69.3016 18.0087
internal_count=10213 5649 4564 4397 1731 2457 2051 1532 1265 154 1332 1940 776 399 1807 1736 133 519 448 1212 273 179 1111 782 329 503 151 224 401 102
is_linear=0
shrinkage=0.05


Tree=11
num_leaves=31
num_cat=0
split_feature=11 15 10 10 2 0 0 10 2 2 0 2 2 1 10 2 2 6 1 0 2 0 0 1 0 2 2 2 6 10
split_gain=475.489 153.649 107.282 80.6265 69.9536 67.3191 54.1881 46.0349 27.0536 37.615 23.4433 22.6562 30.5562 20.8297 18.3897 18.3485 16.9567 17.6751 16.7302 16.6261 29.0826 15.6326 15.3342 19.9816 13.6441 21.5391 11.0026 10.3103 13.0835 10.1024
threshold=1.0000000180025095e-35 1.0000000180025095e-35 2.5000000000000004 1.5000000000000002 4.5000000000000009 10.500000000000002 10.500000000000002 3.5000000000000004 2.5000000000000004 5.5000000000000009 11.500000000000002 5.5000000000000009 2.5000000000000004 35.500000000000007 3.5000000000000004 5.5000000000000009 2.5000000000000004 -0.77608090992617063 6.5000000000000009 11.500000000000002 4.5000000000000009 9.5000000000000018 10.500000000000002 37.500000000000007 12.500000000000002 3.5000000000000004 3.5000000000000004 3.5000000000000004 0.052264231633826638 2.5000000000000004
decision_type=2 2 2 2 2 2 2 2 2 2 2 2 2 2 2 2 2 2 2 2 2 2 2 2 2 2 2 2 2 2
left_child=6 7 3 19 5 13 -1 11 -9 27 18 12 29 -4 -8 24 -12 -18 -7 20 22 -15 23 -3 26 -26 -16 28 -10 -2
right_child=1 2 4 -5 -6 10 14 8 9 -11 16 -13 -14 21 15 -17 17 -19 -20 -21 -22 -23 -24 -25 25 -27 -28 -29 -30 -31
leaf_value=-0.040835996909843575 -0.02451284679680105 -0.023125438480338916 -0.041887496548144228 -0.021579914091355634 -0.0074650952133344583 0.080911013228416109 -0.019704535933158268 0.0055591490021280887 -0.013217660319856332 -0.031783889172622086 0.11716897823019895 -0.038822186138907165 0.020060961196883782 -0.041521596245960933 0.11491499189752218 -0.038287103765748468 0.12212758617704567 0.0044335510606682968 0.15643114867605565 0.026722455692609798 -0.041730862376002452 0.085068882093067441 0.11985900686602402 0.10613935442340386 -0.010369135395631952 0.07547746433008426 0.019724687410741178 0.08648584934103859 0.077423357075462662 0.0075830352853715468
leaf_weight=428.53653098642826 76.564236409962177 5.207441717386244 7.3580795526504543 50.965758860111237 15.842645443975924 8.7301634252071363 188.687469817698 38.615483283996582 6.8202370107173946 9.9726985767483693 26.834870964288712 32.270989671349525 153.39730256050825 3.0324507802724812 6.5910485088825208 14.771412461996077 5.1089175641536704 8.49310654401779 45.842519462108612 20.269089266657829 4.2390863075852385 12.456522792577744 24.04271374642849 7.019418977200985 29.879137501120567 9.671884283423422 5.6275017708539963 41.815177388489246 9.5640964731574041 36.065681308507919
leaf_count=3664 586 39 59 388 121 47 1493 286 49 81 146 257 1108 26 38 123 30 60 241 150 35 80 137 46 228 62 41 258 66 268
internal_value=-0.00085976 0.0297412 0.0609588 0.0248001 0.0911796 0.10444 -0.0299733 0.0108264 0.0389975 0.0579384 0.12297 0.000741362 0.0055407 0.0273794 -0.0117344 0.0108662 0.0941172 0.0486394 0.14435 0.0636925 0.082191 0.0602848 0.0966746 0.0510852 0.0248911 0.010624 0.0710732 0.0733126 0.0396926 -0.0142353
internal_weight=1334.29 650.529 245.443 111.744 133.699 117.857 683.765 405.086 106.788 68.1722 95.0096 298.298 266.027 22.8471 255.228 66.541 40.4369 13.602 54.5727 60.7778 40.5087 15.489 36.2696 12.2269 51.7696 39.551 12.2186 58.1995 16.3843 112.63
internal_count=10213 4564 1605 795 810 689 5649 2959 740 454 524 2219 1962 165 1985 492 236 90 288 407 257 106 222 85 369 290 79 373 115 854
is_linear=0
shrinkage=0.05


Tree=12
num_leaves=31
num_cat=0
split_feature=11 0 0 2 2 10 10 0 2 2 11 0 0 0 6 5 1 10 5 11 6 0 0 5 10 0 0 1 0 4
split_gain=1744.02 330.341 172.105 73.9278 55.5558 36.3617 23.9184 22.304 19.1965 12.5985 12.6052 11.3382 9.59076 10.0642 7.80319 7.07976 6.87527 6.6595 6.64986 6.29033 7.55051 6.00876 6.00651 5.99197 5.88569 8.73898 5.86506 10.1246 9.23059 5.7955
threshold=1.0000000180025095e-35 10.500000000000002 9.5000000000000018 5.5000000000000009 5.5000000000000009 2.5000000000000004 3.5000000000000004 16.500000000000004 1.0000000180025095e-35 1.0000000180025095e-35 1.5000000000000002 15.500000000000002 11.500000000000002 14.500000000000002 0.4533683215379003 0.54389262614623668 46.500000000000007 3.5000000000000004 0.77608090992617107 1.5000000000000002 0.54389262614623657 12.500000000000002 9.5000000000000018 0.98633474805103971 1.5000000000000002 12.500000000000002 10.500000000000002 37.500000000000007 11.500000000000002 -0.98296291314453399
decision_type=2 2 2 2 2 2 2 2 2 2 2 2 2 2 2 2 2 2 2 2 2 2 2 2 2 2 2 2 2 2
left_child=1 22 -2 5 6 9 8 12 18 11 24 14 -5 19 -4 -15 23 26 21 -14 -21 -3 -1 -6 25 -11 27 -7 -28 -8
right_child=2 4 3 7 16 17 29 -9 -10 10 -12 -13 13 15 -16 -17 -18 -19 -20 20 -22 -23 -24 -25 -26 -27 28 -29 -30 -31
leaf_value=0.054016978393866148 0.054310370629279237 -0.010252661056208095 -0.038020323663395333 0.047987092169594597 0.042227621829648003 0.023497337123068812 -0.050696501070005319 -0.045186881767766113 -0.002629151092722104 -0.042724146035077251 -0.04820895681498253 0.025230277943529691 -0.00022956083529026292 -0.00043197318286712633 5.0772914413550102e-05 0.044391392235825305 0.014868172368120337 -0.059129988725907745 -0.0016205007736811003 -0.060337556932415805 0.0046609136584959297 0.036190512605143138 0.042925172695888997 -0.0090565339310425506 -0.04012865838743352 -0.01802308504798384 -0.069885945433668523 -0.051765912786017831 -0.046681946587767718 -0.017432717484424123
leaf_weight=902.41311728954315 47.584199786186218 7.8160091340541831 46.33400571346283 11.869270235300062 103.1368156671524 7.4219830036163357 15.004002153873442 27.448004603385925 255.98776385188103 54.741962492465973 262.22585520148277 12.378534525632857 29.759268432855606 19.046898037195206 18.969641894102097 16.390139281749725 38.700034886598587 334.54966378211975 19.771745026111603 12.362328618764879 6.9966995418071738 63.915121048688889 141.14639511704445 6.028568983078002 161.79224833846092 103.52084010839462 51.880661725997925 11.228553324937819 246.47435849905014 102.88815504312515
leaf_count=3172 167 25 143 40 351 23 46 84 816 168 799 39 95 61 59 55 128 1014 64 38 22 212 492 20 496 322 156 34 749 323
internal_value=0.000146307 0.0354018 -0.0392418 -0.0423432 0.0062775 -0.0458305 -0.0022054 -0.00542087 0.004397 -0.0375583 -0.0400815 -0.0186446 0.00589882 -9.2236e-06 -0.0269613 0.0202995 0.0329761 -0.0542094 0.0240533 -0.0146612 -0.0368459 0.0311299 0.0525168 0.0393955 -0.0334226 -0.026567 -0.0490165 -0.0218149 -0.0507169 -0.0216662
internal_weight=3139.78 1656.81 1482.98 1435.39 613.248 1311.52 465.383 123.873 347.491 659.963 582.281 77.6822 96.4246 84.5553 65.3036 35.437 147.865 651.555 91.5029 49.1183 19.359 71.7311 1043.56 109.165 320.055 158.263 317.006 18.6505 298.355 117.892
internal_count=10213 5649 4564 4397 1985 4002 1486 395 1117 2026 1785 241 311 271 202 116 499 1976 301 155 60 237 3664 371 986 490 962 57 905 369
is_linear=0
shrinkage=0.05


Tree=13
num_leaves=31
num_cat=0
split_feature=0 11 0 10 0 12 12 12 10 12 5 12 5 12 10 12 12 0 12 0 5 5 2 12 10 12 12 12 1 10
split_gain=370.846 92.2432 24.1541 21.8018 16.2923 10.2067 10.2511 9.79013 9.1098 8.38955 7.81508 7.45758 7.74861 6.9165 5.92621 8.75072 7.56091 5.73629 5.62917 15.266 5.48399 5.43075 8.60999 8.31731 5.31405 5.48483 8.889 5.07497 4.97125 10.9262
threshold=9.5000000000000018 1.0000000180025095e-35 12.500000000000002 2.5000000000000004 10.500000000000002 2804.5000000000005 4944.5000000000009 4121.5000000000009 1.5000000000000002 2510.5000000000005 0.98633474805103971 3942.5000000000005 -0.25846434259635315 4928.5000000000009 3.5000000000000004 4735.5000000000009 2836.5000000000005 11.500000000000002 4204.5000000000009 14.500000000000002 -0.77608090992617063 0.96460205851447978 1.5000000000000002 2557.5000000000005 1.5000000000000002 2725.5000000000005 2602.5000000000005 3134.5000000000005 22.500000000000004 1.5000000000000002
decision_type=2 2 2 2 2 2 2 2 2 2 2 2 2 2 2 2 2 2 2 2 2 2 2 2 2 2 2 2 2 2
left_child=-1 4 3 8 -2 24 14 11 17 20 13 21 -13 -9 16 -16 -7 -3 28 -20 -5 -6 -23 -24 25 26 -4 -11 29 -18
right_child=1 2 5 9 7 6 -8 10 -10 27 -12 12 -14 -15 15 -17 18 -19 19 -21 -22 22 23 -25 -26 -27 -28 -29 -30 -31
leaf_value=-0.041087289922611847 -0.0291731117838477 3.5600940810502282e-05 0.030209002048834324 0.011812030340010108 0.00026987894746040986 -0.022524406248902926 0.071803717782137066 -0.025011817518628916 0.041503401863857689 0.049160863415512561 0.04999003090871542 0.084901426244274603 0.0068976003053197611 0.023375431468980273 -0.0016529945857335134 0.053128701508829472 -0.012293663672886444 0.032322987303068408 0.055934400156872968 -0.0058474856581338828 -0.021190551385733676 -0.012982000821703114 0.1258261146734197 0.027536675645291643 0.044342926758234029 0.072946186731816409 -0.029187701443064352 0.006024651493211965 0.045008526624126736 0.04127761927588542
leaf_weight=395.03438556939363 59.732691533863544 32.708136685192585 50.146549448370934 16.479073747992516 173.17467093467712 7.2327530384063712 11.154044494032858 64.315794378519058 60.843405142426491 8.6269380301237089 4.2904159277677527 5.8202523738145828 7.0280904769897443 8.3432730138301832 42.238796338438988 8.810267895460127 14.51477490365505 23.741730123758316 15.076912149786947 29.685238048434258 53.303226172924042 6.7240486443042782 3.2518068104982358 6.3657341450452805 180.40433518588543 6.0120872408151618 7.2038304954767218 32.527196191251278 63.125871673226357 27.648317486047745
leaf_count=3339 492 228 314 114 1209 47 62 495 366 54 28 35 48 60 281 57 94 150 95 203 371 47 21 42 1101 38 48 215 389 170
internal_value=0.000102203 0.0158914 0.0263662 0.0130525 -0.00547186 0.0329254 0.025104 -0.000403226 0.0280815 -0.00283767 -0.0155836 0.00536913 0.042233 -0.0194556 0.0226037 0.00780147 0.027408 0.0136151 0.0298149 0.0149621 -0.013397 0.00286993 0.0304231 0.0607695 0.0399678 0.0275111 0.0227481 0.0150671 0.0361293 0.0228355
internal_weight=1425.56 1030.53 691.483 228.23 339.047 463.254 219.487 279.314 117.293 110.936 76.9495 202.365 12.8483 72.6591 208.333 51.0491 157.284 56.4499 150.051 44.7622 69.7823 189.516 16.3416 9.61754 243.767 63.3625 57.3504 41.1541 105.289 42.1631
internal_count=10213 6874 4397 1498 2477 2899 1398 1985 744 754 583 1402 83 555 1336 338 998 378 951 298 485 1319 110 63 1501 400 362 269 653 264
is_linear=0
shrinkage=0.05


Tree=14
num_leaves=31
num_cat=0
split_feature=0 11 11 11 0 12 12 5 10 6 12 6 12 5 12 0 12 12 0 6 0 12 5 5 6 5 2 6 5 6
split_gain=480.201 93.7701 45.3191 30.3312 25.0532 24.1578 18.6327 13.2815 13.2417 12.2587 10.2442 9.22572 8.50964 8.46077 8.39612 9.42739 8.22502 6.94738 6.7143 14.8445 11.1041 7.87093 8.24318 7.21096 6.77366 6.76524 6.722 6.7035 6.6766 9.40851
threshold=10.500000000000002 1.0000000180025095e-35 1.0000000180025095e-35 1.5000000000000002 9.5000000000000018 4236.5000000000009 1087.5000000000002 -0.10452846326765322 1.5000000000000002 -0.83752119907969302 4188.5000000000009 -0.3090169943749474 3974.5000000000005 0.25846434259635342 1392.5000000000002 14.500000000000002 4735.5000000000009 4928.5000000000009 15.500000000000002 -0.93230098696887709 12.500000000000002 2068.5000000000005 0.77608090992617107 -0.98633474805103927 -0.98633474805103949 0.98633474805103971 2.5000000000000004 -0.54389262614623657 0.83752119907969325 0.15622007704270638
decision_type=2 2 2 2 2 2 2 2 2 2 2 2 2 2 2 2 2 2 2 2 2 2 2 2 2 2 2 2 2 2
left_child=2 5 -1 6 -4 11 -3 -6 -8 -10 12 -2 -11 -12 -13 -16 18 -18 20 24 -5 -21 -23 -22 -20 28 -27 -14 -25 -30
right_child=1 3 4 16 7 -7 8 -9 9 10 13 14 27 -15 15 -17 17 -19 19 21 23 22 -24 25 -26 26 -28 -29 29 -31
leaf_value=-0.041414187930199423 -0.0064974718203920341 -0.004320458481101669 -0.042515391609385375 0.033959915281675662 0.036441482048315675 -0.027303427035046009 0.0076456446999400504 -0.020443302452219345 0.0063993104830947891 0.035952746391883846 0.028620277706861375 -0.0019946678082336288 0.12741789007654583 -0.021026013194257068 0.008283254880928485 0.041737500049862833 -0.0096244245759200889 0.046919113775570745 0.041699208428717729 -0.00097949772075336668 8.2354012325024781e-05 0.022977054011899523 0.067183789940519087 0.056202516403288827 0.11551591686775582 -0.032338883319780763 0.053277301127372161 0.055933889191920931 0.049597824114133701 0.11637459099827277
leaf_weight=513.50771018862724 102.95666161179543 65.009106710553169 23.168171226978302 97.466286271810532 36.138091668486595 76.682078391313553 85.513710454106331 14.330004081130026 44.9996427744627 166.03397916257381 24.452645644545555 55.224584549665451 4.0486611574888256 13.222104921936987 47.804388001561165 37.639282882213593 14.577569633722307 8.6594566106796247 5.7162747383117676 23.616137832403183 5.5089089274406424 45.92588771879673 13.688314557075499 98.593984499573708 6.8105477243661863 3.9191751629114133 5.5238873809576035 17.265871495008469 9.4158254414796847 11.994063407182692
leaf_count=3664 624 375 167 504 193 521 490 79 250 871 133 343 21 83 286 211 88 45 29 123 29 236 68 502 34 21 27 90 47 59
internal_value=0.000312711 0.0199152 -0.0361539 0.0293519 0.000529211 -0.00282807 0.0202921 0.0202895 0.0247924 0.0302226 0.0349867 0.00487566 0.0397708 0.0111967 0.0131998 0.0230204 0.040194 0.011447 0.0422294 0.0310873 0.04682 0.0234499 0.0331276 0.0561076 0.0818317 0.0584919 0.0177438 0.0695122 0.0616983 0.0870069
internal_weight=1679.41 1092.27 587.144 771.962 73.6363 320.307 420.546 50.4681 355.537 270.023 225.023 243.625 187.349 37.6748 140.668 85.4437 351.416 23.237 328.179 95.7572 232.422 83.2303 59.6142 134.956 12.5268 129.447 9.44306 21.3145 120.004 21.4099
internal_count=10213 6110 4103 4125 439 1985 2313 272 1938 1448 1198 1464 982 216 840 497 1812 133 1679 490 1189 427 304 685 63 656 48 111 608 106
is_linear=0
shrinkage=0.05


Tree=15
num_leaves=31
num_cat=0
split_feature=11 15 10 10 12 0 0 12 2 10 2 10 12 5 0 0 5 12 12 5 12 0 12 6 0 12 12 12 6 10
split_gain=418.93 128 83.7196 69.6484 61.9724 53.1092 52.0555 46.9942 65.8937 39.9713 16.7338 21.2971 16.1245 13.7591 14.0014 17.3292 13.2238 12.2867 14.305 14.1519 11.8051 11.4603 24.5502 11.1868 10.7893 10.3497 10.1208 9.2387 9.20917 8.75893
threshold=1.0000000180025095e-35 1.0000000180025095e-35 2.5000000000000004 1.5000000000000002 3245.5000000000005 10.500000000000002 10.500000000000002 2068.5000000000005 5.5000000000000009 3.5000000000000004 5.5000000000000009 3.5000000000000004 2473.5000000000005 -0.70613771591812602 11.500000000000002 10.500000000000002 -0.10452846326765322 3334.5000000000005 4105.5000000000009 -0.10452846326765322 4105.5000000000009 12.500000000000002 3351.5000000000005 -0.20791169081775954 9.5000000000000018 4121.5000000000009 2527.5000000000005 4236.5000000000009 -0.3090169943749474 2.5000000000000004
decision_type=2 2 2 2 2 2 2 2 2 2 2 2 2 2 2 2 2 2 2 2 2 2 2 2 2 2 2 2 2 2
left_child=5 7 3 13 6 -1 16 29 9 -9 11 20 -8 -3 15 -15 24 23 19 -19 -7 26 -23 -11 -4 -24 -13 -20 -17 -2
right_child=1 2 4 -5 -6 10 12 8 -10 17 -12 21 -14 14 -16 28 -18 18 27 -21 -22 22 25 -25 -26 -27 -28 -29 -30 -31
leaf_value=-0.040514655290096367 -0.026803205903907536 0.095197475784848121 -0.041237881637390714 -0.02139326746512565 -0.0082296630461960209 -0.018215229783009258 0.11740954948389062 0.018823555618530639 -0.036873820166414377 -0.01152057765003274 -0.034698921799370917 0.1074273406858683 0.069437957079310844 0.0023894900384730049 0.0035057036173804985 0.1165271422003632 -0.04173186953398985 0.062614147237226955 0.0084829734362257617 0.1342048083805614 0.040897430312345266 -0.011623700541745885 0.12318081066801648 0.060123444646975215 0.063140383604383163 0.013623790754606997 0.01917324382385311 0.096067491018290485 0.053379416966627749 -0.0016812377659054677
leaf_weight=404.28808701038361 68.841272853314877 17.252699598670006 2.9673364162445113 50.602001219987869 17.623245403170586 130.89182208478451 81.306985706090927 167.39794761687517 41.038747444748878 8.0356095582246798 58.431497350335121 6.5388936698436719 22.327080368995667 8.8689705207943934 15.198461443185804 11.423551723361017 5.6754549145698538 12.587639585137367 8.6862329691648466 15.285755008459091 9.0285280346870405 31.074901700019836 5.673839405179022 16.924175158143044 14.945583581924438 3.4765447229146957 6.4557467997074127 4.6082526743412009 11.673463515937327 69.953013375401497
leaf_count=3664 535 109 27 388 133 1048 385 1177 338 57 499 34 127 65 109 60 47 71 56 78 69 236 33 110 91 21 45 25 64 512
internal_value=-0.000850392 0.0268567 0.0543537 0.022506 0.0796433 -0.029291 0.0918157 0.00957022 0.0215567 0.031825 -0.011254 -0.00416113 0.107074 0.0569905 0.0430144 0.0617991 0.0247773 0.0647375 0.0815192 0.101874 -0.0144009 0.0227603 0.00957275 0.0370582 0.0458498 0.0815563 0.0635826 0.0388423 0.0846116 -0.0141416
internal_weight=1329.08 673.223 259.865 115.019 144.846 655.86 127.222 413.359 274.564 233.526 251.572 193.14 103.634 64.4171 47.1644 31.966 23.5884 66.1277 41.1679 27.8734 139.92 53.2199 40.2253 24.9598 17.9129 9.15038 12.9946 13.2945 23.097 138.794
internal_count=10213 4564 1605 795 810 5649 677 2959 1912 1574 1985 1486 512 407 298 189 165 397 230 149 1117 369 290 167 118 54 79 81 124 1047
is_linear=0
shrinkage=0.05


Tree=16
num_leaves=31
num_cat=0
split_feature=3 2 3 1 2 2 12 10 3 12 12 12 10 1 10 10 12 3 2 12 1 10 3 12 12 3 1 12 6 12
split_gain=1430.48 192.06 114.236 109.645 80.6792 56.3224 62.0871 35.3976 28.2247 15.3628 17.2678 15.0543 10.7626 9.6369 9.40198 9.12449 12.5446 8.68877 30.4282 11.6044 9.34527 8.53223 8.16979 8.17429 9.27541 7.04827 6.47328 6.07406 7.78381 5.88728
threshold=0.37940952255126054 5.5000000000000009 0.60355339059327384 32.500000000000007 4.5000000000000009 1.0000000180025095e-35 399.50000000000006 2.5000000000000004 -0.91597561503675318 1136.5000000000002 1327.5000000000002 612.50000000000011 2.5000000000000004 45.500000000000007 3.5000000000000004 1.5000000000000002 4188.5000000000009 0.12940952255126059 4.5000000000000009 3521.5000000000005 7.5000000000000009 2.5000000000000004 -0.78656609248549259 3974.5000000000005 3860.5000000000005 0.12940952255126059 3.5000000000000004 1263.5000000000002 -0.83752119907969302 1830.5000000000002
decision_type=2 2 2 2 2 2 2 2 2 2 2 2 2 2 2 2 2 2 2 2 2 2 2 2 2 2 2 2 2 2
left_child=1 5 3 -2 -5 6 21 15 -3 -9 27 -8 -13 -10 -12 16 17 19 -19 29 -21 -1 26 24 25 -24 -17 28 -11 -7
right_child=2 8 -4 4 -6 7 11 9 13 10 14 12 -14 -15 -16 22 -18 18 -20 20 -22 -23 23 -25 -26 -27 -28 -29 -30 -31
leaf_value=-0.035144038561431799 0.041147406126175394 -0.02166648429227859 0.052512547958450895 -0.057611235500705994 0.051449555025253939 -0.0045266584860513843 -0.0086393185773145937 -0.069983698854549678 0.028298557510347402 0.017776201161971986 -0.037909113304988022 0.036872007145253363 0.00029722799570819223 0.0052831800137879206 -0.050506431996326373 0.0031390056548707863 0.018755085535069247 -0.062422884842821783 0.035749675194807477 0.013175715932392805 -0.049385356675696074 -0.071173195014464508 -0.02354123749504371 -0.052555603756665681 0.0074817088909071893 -0.0461983428482702 -0.04844689276793275 0.0031460626875867551 -0.043303241146017538 -0.021684600134231478
leaf_weight=31.606693416833878 135.68755042552948 45.938626348972321 914.48787242174149 67.144384354352951 22.687411367893219 71.000987827777863 133.68218261003494 52.41342756152153 153.0932337641716 6.6577889621257809 290.08645644783974 40.558250397443771 39.902152627706528 64.705390453338623 302.64488345384598 6.4695864319801322 17.453547775745392 41.414245367050171 9.7513419985771161 6.7883134484291068 49.475963562726974 34.226152896881104 152.26908460259438 31.745406150817871 19.527997434139252 44.314937978982925 101.34984356164932 24.900379121303558 24.087205082178116 168.98181396722794
leaf_count=97 476 146 3339 207 81 221 422 158 519 21 886 134 127 212 917 20 54 125 31 21 152 103 469 97 61 135 310 77 74 521
internal_value=9.62956e-05 -0.0257527 0.0446526 0.0127802 -0.0300675 -0.0319073 -0.0114095 -0.0359449 0.0139489 -0.0439459 -0.0418411 0.00164564 0.0187337 0.021461 -0.0443412 -0.0281633 -0.022608 -0.024686 -0.0437128 -0.0213999 -0.0418373 -0.0538754 -0.0338621 -0.0288641 -0.0253839 -0.0286487 -0.0453515 -0.01521 -0.0300766 -0.0166083
internal_weight=3105.05 1965.05 1140.01 225.519 89.8318 1701.31 279.975 1421.33 263.737 700.79 648.377 214.143 80.4604 217.799 592.731 720.543 364.866 347.413 51.1656 296.247 56.2643 65.8328 355.677 247.857 216.112 196.584 107.819 55.6454 30.745 239.983
internal_count=10213 6110 4103 764 288 5233 883 4350 877 2133 1975 683 261 731 1803 2217 1125 1071 156 915 173 200 1092 762 665 604 330 172 95 742
is_linear=0
shrinkage=0.05


Tree=17
num_leaves=31
num_cat=0
split_feature=0 11 0 10 0 12 12 12 12 12 10 5 12 12 5 11 12 10 12 5 5 1 5 1 1 12 5 5 12 10
split_gain=337.664 77.0559 20.4652 18.9335 15.0344 8.69109 8.13537 7.88766 7.67555 7.49477 7.4754 6.98854 6.63595 6.61926 6.43781 5.28519 7.00946 6.98824 6.16687 9.80015 5.14148 5.05918 6.10433 5.8371 5.24258 5.01487 6.32214 5.34666 9.28565 4.89547
threshold=9.5000000000000018 1.0000000180025095e-35 12.500000000000002 2.5000000000000004 10.500000000000002 4121.5000000000009 2602.5000000000005 2587.5000000000005 4944.5000000000009 2510.5000000000005 1.5000000000000002 0.98633474805103971 4928.5000000000009 3942.5000000000005 -0.25846434259635315 1.5000000000000002 2068.5000000000005 1.5000000000000002 1999.5000000000002 -0.96460205851447944 -0.77608090992617063 4.5000000000000009 -0.54389262614623624 49.500000000000007 1.5000000000000002 1966.5000000000002 -0.88978543071351945 -0.3090169943749474 2014.5000000000002 3.5000000000000004
decision_type=2 2 2 2 2 2 2 2 2 2 2 2 2 2 2 2 2 2 2 2 2 2 2 2 2 2 2 2 2 2
left_child=-1 4 3 10 -2 13 7 15 29 20 -3 12 -7 -6 -15 25 18 -18 19 -17 -5 24 23 -23 -21 -4 -27 -28 -29 -8
right_child=1 2 6 9 5 11 8 -9 -10 -11 -12 -13 -14 14 -16 16 17 -19 -20 21 -22 22 -24 -25 -26 26 27 28 -30 -31
leaf_value=-0.040764498755528976 -0.028410761298766591 0.012417772263568655 0.022553288590236188 0.011003461537426297 0.0027093764052349158 -0.024267431304253184 0.026415710979540458 0.10396596690792169 0.063589207927607791 0.013574300008896745 0.037289788543729635 0.045774908843584615 0.023153542956240912 0.076436869243133365 0.0066120262277954761 -0.031638971734634556 0.065357608533887557 -0.018426384674363885 0.086974700280571374 0.042471483567639218 -0.020839408929551471 0.044257662527422477 0.037018870667795668 0.11877429179614839 0.1260521231660291 -0.0074647859109615335 0.10079500461699285 0.097499005616223197 0.010724518069927452 0.010615358735604217
leaf_weight=372.09382735937834 57.250497728586197 57.496615946292877 81.856976553797722 16.696894526481628 190.05666184425354 62.271374344825745 201.54669298231602 4.3686208873987189 11.916200831532477 42.08807335793972 63.657077632844448 4.4762046635150901 8.3688472062349302 6.197813019156456 7.0630304962396604 3.9614112824201575 3.6468046605586988 7.8375201672315598 9.8608008176088315 3.4576482176780692 52.648402839899063 5.6524267941713244 49.273915931582458 4.9116559773683548 4.1019804626703262 4.0882624983787563 5.8597445189952913 4.941634744405742 8.1966384500265104 64.779720559716225
leaf_count=3339 492 378 487 114 1319 495 1237 24 62 269 366 28 60 35 48 23 21 47 54 20 371 33 289 29 23 24 34 29 48 415
internal_value=0.000155607 0.014677 0.0239784 0.0118047 -0.00507516 -0.000276987 0.0298741 0.0375114 0.0243291 -0.00307019 0.0254861 -0.0148103 -0.0186494 0.00509242 0.0392466 0.0360426 0.0447418 0.00817891 0.0499118 0.0447902 -0.0131723 0.0492825 0.0444134 0.0789034 0.0878237 0.0283579 0.0489392 0.061077 0.0433626 0.0225725
internal_weight=1420.62 1048.53 712.846 232.587 335.684 278.434 480.259 202.016 278.243 111.433 121.154 75.1164 70.6402 203.318 13.2608 197.647 92.7042 11.4843 81.2198 71.359 69.3453 67.3976 59.838 10.5641 7.55963 104.943 23.0863 18.998 13.1383 266.326
internal_count=10213 6874 4397 1498 2477 1985 2899 1185 1714 754 744 583 555 1402 83 1161 539 68 471 417 485 394 351 62 43 622 135 111 77 1652
is_linear=0
shrinkage=0.05


Tree=18
num_leaves=31
num_cat=0
split_feature=0 11 11 0 12 1 2 12 12 1 1 10 6 0 0 0 0 10 10 2 6 6 6 12 1 2 12 0 6 0
split_gain=433.457 122.213 26.7522 26.1124 19.6539 13.8736 13.0786 15.0058 10.6011 9.5648 8.74677 8.41936 8.45645 7.76912 7.54664 8.68906 10.8078 6.74418 6.49138 8.05201 7.60416 13.2782 8.26202 6.23907 5.98333 5.92879 5.77642 5.62747 5.52953 5.67402
threshold=9.5000000000000018 1.0000000180025095e-35 1.5000000000000002 11.500000000000002 4236.5000000000009 48.500000000000007 5.5000000000000009 1235.5000000000002 1327.5000000000002 53.500000000000007 46.500000000000007 1.5000000000000002 -0.83752119907969302 13.500000000000002 15.500000000000002 12.500000000000002 13.500000000000002 1.5000000000000002 2.5000000000000004 1.0000000180025095e-35 -0.88978543071351968 -0.98633474805103949 -0.70613771591812613 3958.5000000000005 16.500000000000004 2.5000000000000004 2572.5000000000005 10.500000000000002 -0.62845792932566547 10.500000000000002
decision_type=2 2 2 2 2 2 2 2 2 2 2 2 2 2 2 2 2 2 2 2 2 2 2 2 2 2 2 2 2 2
left_child=-1 3 5 -2 8 6 7 -3 -5 14 -6 -9 -13 24 15 -7 -17 -4 19 -19 21 26 -22 -14 25 -10 -20 -21 -24 -30
right_child=1 2 17 4 10 9 -8 11 13 -11 -12 12 23 -15 -16 16 -18 18 20 27 22 -23 28 -25 -26 -27 -28 -29 29 -31
leaf_value=-0.042204684132336114 -0.029382260371674379 -0.0031552385329407873 0.024937915377303485 -0.0067630639419418888 -0.038751795784819187 0.0422509979660185 -0.019611676986962385 0.0064033881973280596 0.082381911668025012 0.021411065351823702 0.0042115656581631824 0.0070328479284999055 0.027225398712078158 0.02398244306526225 0.024590046157531142 0.15384809671568581 0.057860674956199135 0.0070713593248795913 -0.019807653516652823 0.10365780909730844 -0.0024975965685665132 0.08461037823030422 0.075106316228175166 0.051644026846391758 -0.012964612880044801 0.0068615331605380199 0.053709983097218299 0.052070964301112056 -0.0087428504141822579 0.034406832096388812
leaf_weight=440.95038296282291 102.88426579535007 76.107102945446968 105.04905457794666 88.363502666354179 40.337260752916336 11.959089249372484 27.087845474481583 65.760697841644287 3.5313963741064063 46.51527214050293 16.772345796227455 42.263151600956917 130.16518217325211 90.296056032180786 12.756973713636397 5.5091803818941099 6.2703236639499664 9.5330222398042661 5.7564745545387286 5.6721262633800498 17.128283813595772 17.930880665779114 7.8204508423805228 32.737967327237129 32.305718705058098 9.8411270976066572 4.9862364232540131 77.776762530207634 8.0891497284173948 130.97317177057266
leaf_count=3339 746 430 527 556 293 62 171 371 19 248 106 228 661 503 64 28 32 50 29 28 84 87 38 162 195 59 24 382 41 650
internal_value=0.000337571 0.0155618 0.0261638 -0.00782643 5.33877e-05 0.0179527 0.0138497 0.0164615 0.00671991 0.0364447 -0.026134 0.0219721 0.0269623 0.0154819 0.0556057 0.0722733 0.102753 0.0357706 0.0397542 0.0506043 0.0345184 0.0582741 0.0303652 0.0321327 -0.00132191 0.0268048 0.0143156 0.0555774 0.0341974 0.0318968
internal_weight=1673.13 1232.18 847.848 384.332 281.447 457.133 374.122 347.034 224.338 83.0108 57.1096 270.927 205.166 135.974 36.4956 23.7386 11.7795 390.716 285.667 92.9819 192.685 28.6736 164.011 162.903 45.6782 13.3725 10.7427 83.4489 146.883 139.062
internal_count=10213 6874 4397 2477 1731 2457 2023 1852 1332 434 399 1422 1051 776 186 122 60 1940 1413 460 953 140 813 823 273 78 53 410 729 691
is_linear=0
shrinkage=0.05


Tree=19
num_leaves=31
num_cat=0
split_feature=11 15 10 10 0 12 12 12 0 10 1 12 10 0 12 12 0 0 12 12 12 12 1 1 1 12 10 10 1 6
split_gain=371.666 108.237 67.3901 60.7425 51.8664 49.8379 42.5934 58.6521 39.7875 32.5062 16.6314 15.7284 19.7723 20.7182 29.8741 26.0967 12.2069 15.4959 15.9584 12.1688 10.058 15.8935 9.8534 9.6688 8.73948 8.50641 8.11182 7.79422 8.1644 7.69487
threshold=1.0000000180025095e-35 1.0000000180025095e-35 2.5000000000000004 1.5000000000000002 10.500000000000002 3245.5000000000005 2068.5000000000005 4278.5000000000009 10.500000000000002 3.5000000000000004 35.500000000000007 4569.5000000000009 2.5000000000000004 12.500000000000002 2473.5000000000005 3435.5000000000005 9.5000000000000018 11.500000000000002 3178.5000000000005 2473.5000000000005 3454.5000000000005 4105.5000000000009 41.500000000000007 37.500000000000007 45.500000000000007 2757.5000000000005 2.5000000000000004 3.5000000000000004 49.500000000000007 -0.3090169943749474
decision_type=2 2 2 2 2 2 2 2 2 2 2 2 2 2 2 2 2 2 2 2 2 2 2 2 2 2 2 2 2 2
left_child=4 6 3 16 -1 8 26 9 10 -8 -4 12 25 14 -14 -15 -3 18 -18 -10 29 24 -17 -21 -22 -6 -2 28 -12 -11
right_child=1 2 5 -5 11 -7 7 -9 19 20 27 -13 13 15 -16 22 17 -19 -20 23 21 -23 -24 -25 -26 -27 -28 -29 -30 -31
leaf_value=-0.040210643484864347 -0.026494947879982494 -0.041524525397849094 -0.041728232838045713 -0.021165499275262956 -0.031276742262802207 -0.0083264237442095615 0.017237104963954062 -0.03656149390765133 0.10193391440013631 0.001448794096107827 -0.032522512118812706 -0.034182314827668085 0.11951356595412532 -0.015381613749429979 0.0059600620088550568 0.036680175706490702 0.084613860583841294 0.021820967826658808 -0.01208568232308796 0.077573153712594545 0.11856531357925011 0.034565921201948249 0.13502295082016744 -0.0022191955174456798 0.038400557493799448 0.0010641081339546074 -0.0023073424069734701 0.080683671567235271 0.069775744322209246 0.053461341411081144
leaf_weight=381.17231398820877 67.833473771810532 3.3575003892183295 7.0762811452150371 50.162445671856403 62.293821185827255 17.654684737324715 171.34967690706253 39.751222841441631 88.846429467201233 10.004436686635016 4.3852683901786813 55.935490362346172 9.7108085155487078 61.907355755567551 14.352964468300341 10.588340066373346 37.918578833341599 21.664195343852043 4.8075340017676345 19.050283327698711 17.503447458148006 13.925518006086348 3.3538555800914756 4.7414963543415061 4.2194142937660208 30.183936193585396 70.887803718447685 9.2036448121070862 3.5127888768911362 24.586146324872971
leaf_count=3664 535 29 59 388 516 133 1177 338 385 65 28 499 54 487 102 69 194 150 34 99 81 81 21 28 24 237 512 56 22 146
internal_value=-0.000820659 0.0244576 0.0490066 0.0205405 -0.0286264 0.0707352 0.00853919 0.0197192 0.0809372 0.0289796 0.0227393 -0.0108451 -0.00406004 0.011361 0.051784 -0.00146349 0.0514209 0.0562673 0.0737332 0.0934295 0.0576259 0.0762637 0.060337 0.0616712 0.102994 -0.020721 -0.0141349 0.0494145 0.0129763 0.038418
internal_weight=1321.94 692.442 272.381 117.91 629.499 154.471 420.061 281.34 136.816 241.589 24.178 248.327 192.391 99.9133 24.0638 75.8496 67.7478 64.3903 42.7261 112.638 70.239 35.6484 13.9422 23.7918 21.7229 92.4778 138.721 17.1017 7.89806 34.5906
internal_count=10213 4564 1605 795 5649 810 2959 1912 677 1574 165 1985 1486 733 156 577 407 378 228 512 397 186 90 127 105 753 1047 106 50 211
is_linear=0
shrinkage=0.05


Tree=20
num_leaves=31
num_cat=0
split_feature=11 0 0 2 2 10 0 12 0 2 12 0 1 1 12 12 0 0 12 11 5 10 0 10 12 10 12 12 0 0
split_gain=1394.95 278.65 133.723 65.3506 39.4041 31.3263 25.0684 19.3363 16.0179 13.0778 12.9726 10.799 10.5856 10.428 10.0845 12.6747 13.0686 9.87062 9.52682 9.50729 7.50308 7.11616 7.03608 7.95541 6.94963 6.1432 5.98064 10.2449 5.84471 5.78886
threshold=1.0000000180025095e-35 10.500000000000002 9.5000000000000018 5.5000000000000009 5.5000000000000009 2.5000000000000004 16.500000000000004 1392.5000000000002 12.500000000000002 1.0000000180025095e-35 1886.5000000000002 15.500000000000002 44.500000000000007 57.500000000000007 3942.5000000000005 3419.5000000000005 11.500000000000002 11.500000000000002 578.50000000000011 1.5000000000000002 -0.62845792932566569 3.5000000000000004 16.500000000000004 2.5000000000000004 4779.5000000000009 2.5000000000000004 2788.5000000000005 2819.5000000000005 16.500000000000004 9.5000000000000018
decision_type=2 2 2 2 2 2 2 2 2 2 2 2 2 2 2 2 2 2 2 2 2 2 2 2 2 2 2 2 2 2
left_child=1 29 -2 5 7 9 17 8 25 18 20 14 26 -6 15 16 -12 -5 -4 -11 -9 -16 23 -10 -19 -3 28 -28 -13 -1
right_child=2 4 3 6 13 -7 -8 10 22 19 11 12 -14 -15 21 -17 -18 24 -20 -21 -22 -23 -24 -25 -26 -27 27 -29 -30 -31
leaf_value=0.05117976135045698 0.051666450031345561 -0.00027889768511923425 -0.021824744297067766 0.05106205619643072 0.032848743274653307 -0.048028112494937866 -0.047314430552246239 -0.0098165478064855677 0.02491581099940391 -0.029589315384261392 -0.05967164562910602 -0.012366103212256816 -0.061071947009043774 -0.030326187596509482 -0.013284817074859718 0.03600663542092384 0.0030631180078167803 -0.0116270279426396 0.022961736069619695 -0.042351957500999321 -0.068526307526494579 -0.072447738201179598 0.037863766056547565 -5.7759686119127368e-05 0.016611736271945395 -0.050837389195779042 -0.078212387932822633 -0.011243592343047559 0.04795958280290763 0.040018296375737047
leaf_weight=833.58329045772552 43.767603635787964 11.581274330615999 65.661980152130127 12.162966609001158 129.66831624507904 658.19498357176781 24.813113749027252 8.9520037472248095 61.300527781248093 329.15086004137993 8.9415043890476209 9.9522669315338153 14.465371191501616 6.878603756427764 21.751858979463581 27.610102355480194 115.96218472719193 42.113020747900009 14.495125472545622 262.12730795145035 13.879450649023054 6.6323338747024527 32.868032336235046 66.464364409446716 45.142697781324387 12.485638350248335 7.0709698796272269 29.690362572669983 6.7304342389106742 134.97998631000519
leaf_count=3173 165 37 201 42 455 1984 75 28 203 1002 28 31 45 23 68 89 363 133 46 790 43 20 109 215 148 38 22 92 21 500
internal_value=3.18734e-05 0.0330987 -0.034444 -0.0370363 0.00610179 -0.0402766 -0.0023561 -0.000949239 0.0115325 -0.032678 -0.00943616 -0.0061262 -0.0231275 0.0296663 0.000256119 0.00534901 -0.00142789 0.00886469 -0.0137258 -0.0352473 -0.0455067 -0.027109 0.017232 0.0119244 0.0029826 -0.0265081 -0.0128573 -0.0241249 0.0119716 0.0496243
internal_weight=3059.08 1561.45 1497.63 1453.86 592.886 1329.63 124.232 456.339 184.7 671.435 271.639 248.807 67.9094 136.547 180.898 152.514 124.904 99.4187 80.1571 591.278 22.8315 28.3842 160.633 127.765 87.2557 24.0669 53.444 36.7613 16.6827 968.563
internal_count=10189 5603 4586 4421 1930 4023 398 1452 602 2039 850 779 211 478 568 480 391 323 247 1792 71 88 527 418 281 75 166 114 52 3673
is_linear=0
shrinkage=0.05


Tree=21
num_leaves=31
num_cat=0
split_feature=0 11 0 0 12 12 12 0 5 11 6 6 6 11 6 12 12 5 5 5 5 5 0 5 12 12 6 11 12 12
split_gain=316.412 77.6313 17.9578 12.9189 8.33833 9.38259 11.2628 8.36165 8.20591 8.55661 14.6741 7.46103 6.25124 6.05874 5.55905 4.96292 5.07951 11.9689 10.1588 12.7621 10.1671 6.05092 5.75246 4.89497 6.99689 5.70045 4.87857 9.01333 9.75657 9.39912
threshold=9.5000000000000018 1.0000000180025095e-35 11.500000000000002 10.500000000000002 4944.5000000000009 2804.5000000000005 2741.5000000000005 16.500000000000004 0.96460205851447978 1.5000000000000002 -0.96460205851447955 -0.35787681872537375 -0.93230098696887709 2.5000000000000004 0.70613771591812646 2686.5000000000005 1830.5000000000002 0.93230098696887742 -0.98633474805103927 -0.77608090992617063 -0.88978543071351945 -0.8375211990796928 12.500000000000002 0.99726094768413687 4221.5000000000009 4928.5000000000009 -0.66913060635885813 2.5000000000000004 2052.5000000000005 1966.5000000000002
decision_type=2 2 2 2 2 2 2 2 2 2 2 2 2 2 2 2 2 2 2 2 2 2 2 2 2 2 2 2 2 2
left_child=-1 3 8 -2 5 6 15 -7 9 12 -11 -6 -3 14 -12 16 18 26 -4 20 -20 -22 -21 24 -5 -26 -18 28 29 -28
right_child=1 2 4 23 11 7 -8 -9 -10 10 13 -13 -14 -15 -16 -17 17 -19 19 22 21 -23 -24 -25 25 -27 27 -29 -30 -31
leaf_value=-0.040603132568633016 -0.027887953501510618 -0.034414419274218518 -0.036222615114600738 0.0022838187986376156 0.10098935671575789 0.023956254862319892 0.066852317917183574 0.0021807294519176359 -0.031216752981248493 0.10836798013613631 0.0332245989201575 0.019395164022884152 0.0061458848134587716 -0.033427055698546544 -0.0088147017038041047 -0.0049026689092050825 0.059014468357581062 -0.017060098659477434 0.034113705671611712 0.0028318406292234294 0.15952015538052219 0.070758080649707372 0.02755507896858957 0.064489559850092901 -0.022648016405873675 0.021161560687587479 0.04483605460658234 -0.02108078160542478 0.026568782853562622 0.10402342766835844
leaf_weight=350.09438149631023 55.853755950927734 11.143173225224016 6.5593814849853507 206.61825156211853 7.1138354986906052 198.28859278559685 21.567520394921303 56.689001694321632 12.549776807427405 4.9301697313785544 35.185333780944347 4.6220132708549482 64.404019296169281 5.145022600889205 10.127099663019179 10.159992501139639 31.785643711686134 9.1665342599153501 10.250650122761728 30.207949042320251 3.4343330562114716 4.354456588625907 106.39594306051731 2.7820810675621024 54.772647015750408 8.5897136479616147 23.525178253650665 6.3773789554834357 49.391252860426903 9.3829528689384443
leaf_count=3338 500 73 40 1407 34 1207 123 352 85 31 226 24 415 35 66 59 176 53 62 193 20 26 613 18 446 59 135 36 287 50
internal_value=0.000616379 0.0142126 0.0232683 -0.00597984 0.0271307 0.0262829 0.031949 0.0191149 0.00740575 0.0111076 0.0260354 0.0688545 0.00016326 0.0179908 0.023829 0.029448 0.030648 0.0380168 0.0247225 0.0273076 0.0668339 0.109896 0.0220879 -0.0014937 -0.00217364 -0.016709 0.0422079 0.0361836 0.0406211 0.0617119
internal_weight=1411.47 1061.37 732.757 328.616 589.273 577.537 322.559 254.978 143.485 130.935 55.3876 11.7358 75.5472 50.4575 45.3124 300.992 290.832 129.629 161.203 154.643 18.0394 7.78879 136.604 272.763 269.981 63.3624 120.462 88.6768 82.2994 32.9081
internal_count=10189 6851 4421 2430 3490 3432 1873 1559 931 846 358 58 488 327 292 1750 1691 737 954 914 108 46 806 1930 1912 505 684 508 472 185
is_linear=0
shrinkage=0.05


Tree=22
num_leaves=31
num_cat=0
split_feature=0 11 11 12 11 0 2 12 5 10 10 5 12 10 12 12 12 6 12 0 6 5 5 6 5 5 5 5 5 5
split_gain=373.286 53.0941 34.0073 18.1207 17.3295 15.8934 14.0913 15.5302 9.87239 7.88498 7.64318 7.26222 6.97398 6.30525 7.49851 6.79794 6.18656 5.10069 5.0603 8.42499 5.43998 4.98444 4.96159 4.86226 4.63598 4.57691 4.56945 7.9411 4.44478 4.43187
threshold=10.500000000000002 1.0000000180025095e-35 1.0000000180025095e-35 4236.5000000000009 1.5000000000000002 9.5000000000000018 5.5000000000000009 1087.5000000000002 -0.35787681872537386 1.5000000000000002 3.5000000000000004 -0.10452846326765322 4944.5000000000009 1.5000000000000002 505.50000000000006 1038.5000000000002 1327.5000000000002 0.9863347480510396 2085.5000000000005 16.500000000000004 0.3090169943749474 -0.91354545764260064 -0.45336832153789985 0.93230098696887731 0.96460205851447978 0.62845792932566591 -0.10452846326765322 -0.3090169943749474 -0.3090169943749474 -0.35787681872537386
decision_type=2 2 2 2 2 2 2 2 2 2 2 2 2 2 2 2 2 2 2 2 2 2 2 2 2 2 2 2 2 2
left_child=2 3 -1 10 6 -4 7 -3 -9 -10 16 22 23 14 -6 -15 25 -16 21 20 -20 -18 -7 -8 -17 -2 27 -5 -11 -12
right_child=1 4 5 26 13 11 12 8 9 28 29 -13 -14 15 17 24 18 -19 19 -21 -22 -23 -24 -25 -26 -27 -28 -29 -30 -31
leaf_value=-0.04057606143670224 -0.022714297602434624 -0.0041199544746622829 -0.041778065154081466 -0.023394210556934764 0.068535055010656321 0.011965997786463369 -0.029516618907900694 0.032670059232689549 -0.0023699025076052739 -0.025702396034309918 0.0018560095549112973 -0.018812097166653441 0.043444821248856708 0.011227104499056888 0.012227551404938308 0.034084884407813557 0.068953756712853601 0.067372458528310711 -0.020244016276829861 0.033069898763564871 0.0098956573708227549 0.014224510317685637 0.054537872216557398 0.036212941663786351 0.057950575573140255 0.0049592077133186144 -0.039032162811135397 0.039091043622525377 0.022440126555774483 0.029119704451913499
leaf_weight=458.8462632521987 43.837150081992149 66.971229687333107 20.220133692026138 30.882434830069542 7.0247856974601737 29.307308644056317 28.525457501411442 135.37060308456421 48.501022964715958 4.9593376815319052 23.748956650495529 15.343365132808684 4.5069684684276572 30.574929788708687 86.174203440546989 231.38059456646442 4.839717134833335 4.4078099429607382 39.871808156371117 14.689606249332426 23.972772225737572 29.631549164652824 8.9293303042650241 3.1214423626661292 22.310638442635536 22.666741758584976 31.456722244620323 6.0868945866823188 144.13969914615154 40.031093552708626
leaf_count=3673 286 382 165 215 37 147 182 679 271 25 136 85 24 153 420 1103 27 22 238 78 139 163 44 19 102 142 238 41 726 227
internal_value=-0.00100356 0.0152659 -0.0355093 -0.00229326 0.0219574 -0.00400705 0.0151472 0.0178495 0.0222682 0.0151422 0.00410008 0.0102471 -0.0147463 0.0297347 0.0187703 0.0334995 -0.00118248 0.014911 0.00593826 -0.00107158 -0.00892698 0.0219084 0.0219077 -0.0230335 0.0361837 -0.0132822 -0.0250248 -0.0131062 0.0208388 0.0189679
internal_weight=1662.33 1129.68 532.646 311.715 817.969 73.8001 436.096 399.942 332.971 197.6 243.289 53.58 36.1539 381.873 97.6068 284.266 179.509 90.582 113.005 78.5342 63.8446 34.4713 38.2366 31.6469 253.691 66.5039 68.4261 36.9693 149.099 63.7801
internal_count=10189 6075 4114 1930 4145 441 2308 2083 1701 1022 1436 276 225 1837 479 1358 1073 442 645 455 377 190 191 201 1205 428 494 256 751 363
is_linear=0
shrinkage=0.05


Tree=23
num_leaves=31
num_cat=0
split_feature=11 10 4 12 0 10 0 0 0 2 10 2 10 0 0 2 12 12 10 12 6 12 12 12 12 12 5 3 0 12
split_gain=363.358 107.481 71.9037 59.4863 50.444 37.5868 37.1381 26.2179 20.1284 15.5415 15.5678 15.2329 15.106 13.6424 13.7148 13.6381 13.159 21.1871 16.1757 12.8064 14.1561 12.4621 12.2945 10.5959 10.2862 9.83418 20.4218 9.68365 9.54065 26.7739
threshold=1.0000000180025095e-35 2.5000000000000004 -0.9159756150367534 2473.5000000000005 10.500000000000002 1.5000000000000002 13.500000000000002 16.500000000000004 12.500000000000002 5.5000000000000009 3.5000000000000004 5.5000000000000009 2.5000000000000004 9.5000000000000018 11.500000000000002 5.5000000000000009 4135.5000000000009 2654.5000000000005 3.5000000000000004 3942.5000000000005 -0.77608090992617063 2123.5000000000005 3178.5000000000005 2572.5000000000005 3927.5000000000005 4005.5000000000005 -1.0000000180025095e-35 0.12940952255126059 12.500000000000002 2510.5000000000005
decision_type=2 2 2 2 2 2 2 2 2 2 2 2 2 2 2 2 2 2 2 2 2 2 2 2 2 2 2 2 2 2
left_child=4 5 3 8 -1 6 13 16 -3 10 -5 12 -6 -2 22 21 17 -4 -19 20 -12 -9 -15 -16 28 26 -25 -22 29 -14
right_child=1 2 7 9 11 -7 -8 15 -10 -11 19 -13 24 14 23 -17 -18 18 -20 -21 27 -23 -24 25 -26 -27 -28 -29 -30 -31
leaf_value=-0.039924503438702665 -0.041172886059321311 0.097478587442648756 0.00015321155865695782 0.011456415200470402 -0.018755512383635653 -0.015065129231420183 -0.0050662500123978748 0.018365510736378675 0.031990959957252096 -0.041610608632727794 0.10518235932468473 -0.034405960223637615 0.07925347244954889 0.071815574302115534 -0.00053648680752856038 -0.030326611041594051 -0.022636576269609087 0.011295012800406578 0.063559108270912545 0.11305481125808284 -0.0041598693611860083 0.077012045365818432 -0.012243844590579797 0.14213654120163444 0.053341534809289562 -0.011957705626695486 0.024346796065338464 0.076291071533753196 -0.005837109686218654 -0.032074964713093873
leaf_weight=360.04619328677654 4.8418632447719565 94.302561119198799 72.039638958871365 29.619128867983818 89.103999376296997 147.12635103613138 84.33369754254818 12.291014000773428 13.400981113314627 6.8220813125371924 6.6269605308771125 51.725325025618076 12.751435026526453 42.940543979406357 21.367951095104218 4.4173065125942221 22.887812077999115 26.602061308920383 33.382805816829205 8.7903847098350507 12.62872557342053 34.440440252423286 4.8402228057384482 5.9412950724363354 11.826540246605871 4.9085620865225783 9.6671219915151578 5.3144170492887488 66.042667575180531 9.3682638108730298
leaf_count=3673 45 380 511 181 733 1119 624 87 95 58 36 478 66 205 152 37 180 176 177 46 78 194 35 40 74 36 66 28 513 66
internal_value=0.000534759 0.0247639 0.0427036 0.0660284 -0.0280763 0.00365414 0.0190538 0.0226112 0.0893303 0.0300738 0.0378388 -0.0103621 -0.0037851 0.0405773 0.0449918 0.0536493 0.012363 0.0184306 0.0403811 0.0612624 0.0427327 0.0615872 0.0633003 0.024106 0.00955562 0.0497707 0.0691831 0.0196682 0.00368196 0.032103
internal_weight=1310.4 709.534 383.566 177.505 600.864 325.968 178.841 206.061 107.704 69.8017 62.9796 240.818 189.093 94.5076 89.6657 51.1488 154.912 132.025 59.9849 33.3605 24.5701 46.7315 47.7808 41.8849 99.9889 20.517 15.6084 17.9431 88.1624 22.1197
internal_count=10189 4586 2264 902 5603 2322 1203 1362 475 427 369 1930 1452 579 534 318 1044 864 353 188 142 281 240 294 719 142 106 106 645 132
is_linear=0
shrinkage=0.05


Tree=24
num_leaves=31
num_cat=0
split_feature=11 0 0 2 2 10 0 0 12 0 12 11 2 0 1 1 5 12 12 0 0 10 12 5 0 10 12 10 12 0
split_gain=1240.7 261.786 118.999 58.1701 35.0596 29.1827 22.245 18.7958 17.6884 14.4944 11.6518 10.0342 9.73822 9.72998 9.63898 9.53092 9.23013 9.20472 11.7303 11.853 9.20453 7.72448 7.46426 6.81417 6.64569 7.263 6.44785 6.35016 6.06828 5.87833
threshold=1.0000000180025095e-35 10.500000000000002 9.5000000000000018 5.5000000000000009 5.5000000000000009 1.5000000000000002 16.500000000000004 13.500000000000002 1392.5000000000002 12.500000000000002 1886.5000000000002 1.5000000000000002 1.5000000000000002 15.500000000000002 44.500000000000007 57.500000000000007 -0.70613771591812602 3942.5000000000005 3419.5000000000005 11.500000000000002 11.500000000000002 3.5000000000000004 1003.5000000000001 -0.62845792932566569 16.500000000000004 2.5000000000000004 4779.5000000000009 3.5000000000000004 384.50000000000006 9.5000000000000018
decision_type=2 2 2 2 2 2 2 2 2 2 2 2 2 2 2 2 2 2 2 2 2 2 2 2 2 2 2 2 2 2
left_child=1 29 -2 5 8 7 20 16 9 -3 23 21 -9 17 -15 -6 -4 18 19 -12 -5 22 28 -10 25 -11 -22 -19 -7 -1
right_child=2 4 3 6 15 11 -8 12 10 24 13 -13 -14 14 -16 -17 -18 27 -20 -21 26 -23 -24 -25 -26 -27 -28 -29 -30 -31
leaf_value=0.049958921931014838 0.050531714676420127 -0.025022386565887018 -0.058957643435035061 0.049917862278176239 0.031383785694878479 -0.041344265848275663 -0.044227053510019175 0.0041647912397863446 -0.0090090840219472709 0.023935099398626467 -0.056511368617109842 -0.04780483041846767 -0.021524281156721156 -0.012085908070635936 -0.05787654180247756 -0.02875300994408779 -0.031074607625609759 -0.01279312646345214 0.034833372230692217 0.0029502601822071692 -0.011029259800172032 -0.045816048105846802 -0.036219257291345223 -0.064776673056375883 0.036784300103363858 9.0253799718436002e-06 0.01617794362139138 -0.068590188375823952 -0.0035451417946627049 0.038508981084586023
leaf_weight=797.87752366065979 42.087564617395401 24.10018515586853 38.78578183054924 11.878300100564955 126.69744792580605 15.402978628873823 24.914415687322617 51.105109602212906 8.9862216413021105 60.66545033454895 9.0344133973121625 441.81767606735229 132.63975012302399 53.592150419950485 14.629890739917753 6.9500356316566458 126.42591473460197 21.803995877504352 27.292684942483902 115.87055072188377 42.227887511253357 188.3278249502182 302.0589679479599 14.02902841567993 32.424903333187103 66.474046975374222 44.963707447052002 6.6557458937168112 34.179428398609161 130.41811138391495
leaf_count=3173 165 75 117 42 455 47 75 157 28 203 28 1332 402 166 45 23 383 68 89 363 133 569 911 43 109 215 148 20 105 500
internal_value=-5.35183e-05 0.0318052 -0.0323526 -0.0347505 0.00573842 -0.0378024 -0.0019944 -0.0253828 -0.000867713 0.0111198 -0.00896528 -0.0422167 -0.0143794 -0.00581768 -0.0219055 0.0282565 -0.0376205 0.0002576 0.00513804 -0.00135062 0.00862641 -0.0376443 -0.0332678 -0.0430024 0.0165786 0.0114255 0.00300118 -0.0258421 -0.0152876 0.0483503
internal_weight=3014.32 1517.5 1496.82 1454.73 589.207 1330.74 123.984 348.957 455.559 183.665 271.895 981.787 183.745 248.879 68.222 133.647 165.212 180.657 152.198 124.905 99.0699 539.969 351.641 23.0153 159.564 127.139 87.1916 28.4597 49.5824 928.296
internal_count=10189 5603 4586 4421 1930 4023 398 1059 1452 602 850 2964 559 779 211 478 500 568 480 391 323 1632 1063 71 527 418 281 88 152 3673
is_linear=0
shrinkage=0.05


Tree=25
num_leaves=31
num_cat=0
split_feature=11 13 4 13 10 4 5 11 6 12 12 12 12 12 1 1 12 12 1 12 2 5 5 10 5 10 12 4 10 6
split_gain=253.172 54.917 30.8554 16.7472 22.6328 13.6037 11.4904 10.7753 7.58116 7.56882 10.9038 9.17406 7.94609 10.8235 9.93152 7.70863 7.37624 7.80662 7.01224 6.59671 6.7945 6.28727 6.82624 5.87299 7.46875 5.68883 5.09488 6.77959 5.34805 5.27563
threshold=1.0000000180025095e-35 1.0000000180025095e-35 -0.9159756150367534 1.0000000180025095e-35 2.5000000000000004 -0.70710678118654757 0.96460205851447978 1.5000000000000002 -0.98633474805103949 2804.5000000000005 4944.5000000000009 2757.5000000000005 4808.5000000000009 4735.5000000000009 56.500000000000007 50.500000000000007 2617.5000000000005 1982.5000000000002 2.5000000000000004 2068.5000000000005 1.5000000000000002 -0.96460205851447944 -0.77608090992617063 3.5000000000000004 -0.9323009869688772 1.5000000000000002 3178.5000000000005 -0.98296291314453399 2.5000000000000004 -0.54389262614623657
decision_type=2 2 2 2 2 2 2 2 2 2 2 2 2 2 2 2 2 2 2 2 2 2 2 2 2 2 2 2 2 2
left_child=1 2 6 4 5 25 26 18 -3 11 12 15 13 14 23 16 17 21 -5 20 -17 -9 -23 24 -11 -2 27 29 -29 -1
right_child=3 8 -4 7 -6 -7 -8 9 -10 10 -12 -13 -14 -15 -16 19 -18 -19 -20 -21 -22 22 -24 -25 -26 -27 -28 28 -30 -31
leaf_value=0.041469183179898415 0.016070848630225256 0.056378626413986527 -0.038376758076348647 -0.020986876714431023 -0.0061423142424233855 -0.040728794935058488 0.069107280257495282 -0.019833766993685227 -0.0028965089988980809 0.064676855358028043 0.082623308289230202 0.092203921354685456 -0.026000982181060062 0.088778058603961513 0.1031730269465834 0.0069066355862472967 0.0055857137986220062 0.074643182915960601 0.020189751905905804 -0.029818496530217932 0.082722264241841273 0.094320131775794236 0.038293996097582376 -0.0096099511052355618 0.016088233810871416 0.036998044321067056 -0.018239783958446176 0.095112048849694875 0.005528539884880816 -0.024826218231311932
leaf_weight=4.1324777603149441 60.488766185939312 5.5440257713198653 366.59513030946255 10.761220246553419 120.75975607335567 7.7854026407003394 5.3265840336680403 4.1010574251413336 199.65820334851742 9.1587474495172412 7.3225105702877036 8.3777223676443082 8.7853157222270948 5.9865339994430533 3.3942175954580298 9.6242686957120913 10.996538132429121 22.081003993749619 263.77141301333904 6.8341962099075309 4.2646085172891608 6.0843909978866497 51.07762327790261 17.767273873090744 57.958086833357818 70.118837162852287 39.215082623064518 3.6087671518325797 3.0947233885526657 10.958797320723532
leaf_count=27 389 39 3673 63 836 80 34 24 1417 52 34 45 59 33 20 52 63 117 1516 39 21 32 279 114 336 382 296 23 21 73
internal_value=0.000671247 -0.0226003 -0.0326986 0.0200202 0.00967588 0.0234786 -0.0013193 0.0252937 -0.00129505 0.0331817 0.0236681 0.0416882 0.0194788 0.0237175 0.0193054 0.0380102 0.0440757 0.0491541 0.0185757 0.0103973 0.030186 0.0399671 0.0442575 0.0159519 0.0227186 0.027306 -0.00746803 0.0119135 0.0537551 -0.0066724
internal_weight=1405.63 638.134 432.932 767.499 259.153 138.393 66.3364 508.347 205.202 233.814 110.373 123.441 103.05 94.2649 88.2783 115.064 94.3406 83.3441 274.533 20.7231 13.8889 61.2631 57.162 84.8841 67.1168 130.608 61.0098 21.7948 6.70349 15.0913
internal_count=10189 5603 4147 4586 1687 851 474 2899 1456 1320 648 672 614 555 522 627 515 452 1579 112 73 335 311 502 388 771 440 144 44 100
is_linear=0
shrinkage=0.05


Tree=26
num_leaves=31
num_cat=0
split_feature=0 11 0 12 11 2 12 10 12 5 10 0 12 1 12 1 0 1 1 5 12 12 5 1 10 5 12 5 0 5
split_gain=337.941 73.1932 18.0089 16.295 15.8029 13.6943 9.40491 7.22517 7.2175 6.72439 6.94191 6.57027 6.53398 6.49026 7.46674 7.30724 6.30695 5.23239 5.02764 10.5864 5.98146 4.9211 5.8673 4.88117 4.62367 5.28703 4.53141 4.29225 4.35829 5.74365
threshold=9.5000000000000018 1.0000000180025095e-35 11.500000000000002 4236.5000000000009 1.5000000000000002 5.5000000000000009 1087.5000000000002 1.5000000000000002 1790.5000000000002 -0.35787681872537386 1.5000000000000002 11.500000000000002 4944.5000000000009 52.500000000000007 1886.5000000000002 56.500000000000007 13.500000000000002 33.500000000000007 32.500000000000007 -0.3090169943749474 3148.5000000000005 1038.5000000000002 0.45336832153790013 50.500000000000007 2.5000000000000004 -0.98633474805103927 543.50000000000011 -0.3090169943749474 16.500000000000004 0.052264231633826937
decision_type=2 2 2 2 2 2 2 2 2 2 2 2 2 2 2 2 2 2 2 2 2 2 2 2 2 2 2 2 2 2
left_child=-1 2 18 8 5 6 -3 26 17 11 -11 -8 23 14 -10 -15 -16 -4 -2 20 -20 22 -9 -7 25 -23 -6 -12 -29 -30
right_child=1 4 3 -5 7 12 9 21 13 10 27 -13 -14 15 16 -17 -18 -19 19 -21 -22 24 -24 -25 -26 -27 -28 28 29 -31
leaf_value=-0.041538994225470693 -0.032692639705327257 -0.00068973920440676927 0.0055093694201084334 -0.025912326709512698 0.049392172975104648 -0.034866210156373194 0.0027943598287379738 0.028550741097176025 0.070388259488713606 -0.0027791736519809109 -0.026486947704044691 0.031562805465638215 0.039440212087124768 0.07309337282373847 -0.011925429482965421 0.0025743879402915378 0.014482799917127798 -0.017614953915947987 0.026424256028713969 0.066533357591114492 -0.03587958710177383 -0.0074208139762866644 -0.013014540701671868 0.0093487631977454844 0.028209096808411074 0.04514880386188784 0.012163884341002592 0.016459590281403997 0.092137070183293812 0.027818572151055244
leaf_weight=390.66838201135397 69.681127019226551 72.984344497323036 54.87703762948513 51.407019227743149 8.9192588031291944 24.566938824951649 23.526968896389008 22.734237939119339 4.7471559792757025 51.287197947502136 5.1573585271835318 126.87875771522522 4.6910831928253165 8.8873049914836866 32.782672628760338 6.2617804259061804 72.852893218398094 44.138047158718109 5.0648623257875505 4.1323278546333304 16.090580448508263 5.0768673419952384 13.550769507884977 8.3682379573583585 188.93843983113766 82.570702999830246 97.806514501571655 131.76924800872803 4.3307875990867641 17.483910143375397
leaf_count=3338 550 413 341 380 45 167 117 112 25 285 26 616 24 48 197 33 387 277 36 31 125 24 67 48 875 376 469 652 21 84
internal_value=-0.000903534 0.01168 -0.00698206 -0.000518903 0.0194522 0.0131662 0.0156781 0.0265089 0.00529458 0.0189924 0.0132131 0.0270627 -0.0157684 0.0132559 0.00904408 0.0439448 0.00628734 -0.00479878 -0.0257622 -0.0066653 -0.0209633 0.0303409 0.013028 -0.023632 0.0326122 0.0421038 0.0152751 0.01838 0.0198867 0.0405875
internal_weight=1652.23 1261.56 370.923 275.954 890.642 471.045 433.419 419.597 224.547 360.434 210.029 150.406 37.6263 125.532 110.383 15.1491 105.636 99.0151 94.9689 25.2878 21.1554 312.871 36.285 32.9352 276.586 87.6476 106.726 158.741 153.584 21.8147
internal_count=10189 6851 2430 1688 4421 2453 2214 1968 1308 1801 1068 733 239 690 609 81 584 618 742 192 161 1454 179 215 1275 400 514 783 757 105
is_linear=0
shrinkage=0.05


Tree=27
num_leaves=31
num_cat=0
split_feature=11 10 15 0 12 10 0 0 2 12 1 2 10 0 10 0 0 12 12 1 12 12 1 0 0 12 12 12 1 11
split_gain=323.762 92.971 66.5493 49.181 43.4474 34.05 32.9572 27.7932 22.6122 26.6438 19.5041 14.3405 13.8572 13.3962 18.215 11.6895 11.7072 10.2961 9.16257 8.98956 8.6919 8.46485 8.37827 11.6409 8.3278 22.4522 9.17507 8.24501 15.7841 8.13465
threshold=1.0000000180025095e-35 2.5000000000000004 1.0000000180025095e-35 10.500000000000002 3245.5000000000005 1.5000000000000002 13.500000000000002 10.500000000000002 5.5000000000000009 2068.5000000000005 43.500000000000007 5.5000000000000009 2.5000000000000004 16.500000000000004 3.5000000000000004 9.5000000000000018 11.500000000000002 3178.5000000000005 2572.5000000000005 13.500000000000002 3927.5000000000005 2052.5000000000005 41.500000000000007 10.500000000000002 12.500000000000002 2510.5000000000005 3454.5000000000005 4005.5000000000005 30.500000000000004 1.5000000000000002
decision_type=2 2 2 2 2 2 2 2 2 2 2 2 2 2 2 2 2 2 2 2 2 2 2 2 2 2 2 2 2 2
left_child=3 5 8 -1 7 6 15 10 9 -3 -4 12 -5 14 -11 -2 17 22 -18 -15 24 -8 23 -17 25 -14 -26 28 -20 -25
right_child=1 2 4 11 -6 -7 21 -9 -10 13 -12 -13 20 19 -16 16 18 -19 27 -21 -22 -23 -24 29 26 -27 -28 -29 -30 -31
leaf_value=-0.039647685871503434 -0.040909652703100347 0.0012716196894759866 -0.022031191743507053 -0.01824545700233628 -0.0083673610953728574 -0.014868330079373125 -0.028705491034421628 0.081500743420276855 -0.032754393743493308 0.0048882410699663467 0.066230746594173481 -0.033921458190344346 0.070064701080051681 0.016673898754445957 0.048017533748958646 -0.011114574941165117 -0.00098845249838816723 -0.012010561872292484 0.022138227276177928 0.075990943680883161 0.048094080325039854 0.0053708314891743212 0.10055040879701048 0.090320868393733378 -0.0094511227698015864 -0.031488299818879108 0.084776744099397533 -0.011876704954014711 0.12164006370473315 0.035160788379299625
leaf_weight=338.90060199797153 4.5524644479155532 71.70227462053299 12.048911832273008 87.495756193995476 19.014803402125835 146.23054864257574 26.525992393493652 124.94246789813042 17.756473809480667 43.6160773858428 13.025944128632544 49.541275054216385 13.642539605498316 8.0557051301002485 55.800245128571987 5.9896276593208304 21.566700831055641 4.8016151264309874 9.9614234417676979 30.841165855526924 12.433214783668516 58.232488162815571 12.125720873475073 15.10371045768261 62.948315046727657 9.055277965962885 2.6939546167850486 4.897266522049903 6.6438803076744071 11.989732399582863
