tree
version=v4
num_class=4
num_tree_per_iteration=4
label_index=0
max_feature_idx=16
objective=multiclass num_class:4
feature_names=hour minute day_of_week hour_sin hour_cos minute_sin minute_cos is_morning_rush is_evening_rush is_rush_hour camera_id signaling_encoded time_segment_id time_afternoon time_evening time_morning time_night
feature_infos=[6:17] [0:59] [0:6] [-0.96592582628906831:1] [-1:6.123233995736766e-17] [-1:1] [-1:1] [0:1] [0:1] [0:1] [1:4] [0:3] [0:4986] [0:1] none [0:1] [0:1]
tree_sizes=5315 5224 5214 5217 5434 5395 5378 5340 5449 5371 5400 5361 5439 5390 5412 5378 5416 5382 5389 5361 5418 5388 5414 5380 5414 5406 5384 5373 5405 5400 5397 5382 5431 5399 5390 5386 5422 5417 5394 5387 5430 5369 5373 5384 5439 5403 5392 5397 5439 5378 5416 5395 5414 5381 5406 5414 5428 5397 5397 5401 5443 5409 5395 5422 5449 5399 5406 5429 5447 5424 5410 5377 5458 5410 5399 5388 5430 5390 5391 5384 5438 5412 5423 5386 5417 5409 5416 5420 5406 5396 5412 5397 5461 5425 5440 5398 5422 5421 5432 5413 5427 5409 5427 5428 5431 5440 5423 5419 5448 5399 5419 5414 5458 5403 5431 5431 5450 5429 5424 5398 5459 5419 5424 5441 5432 5413 5427 5419 5425 5417 5436 5401 5436 5406 5439 5427 5435 5415 5437 5406 5405 5390 5404 5416 5428 5418 5422 5429 5460 5426 5426 5422 5472 5414 5438 5403 5428 5412 5411 5435 5480 5415 5430 5421 5439 5430 5417 5424 5456 5422 5428 5413 5458 5443 5434 5417 5442 5424 5413 5399 5447 5422 5436 5439 5447 5417 5436 5426 5455 5389 5409 5447 5442 5443 5422 5424 5460 5431 5425 5443 5447 5426 5412 5429 5473 5417 5424 5418 5443 5434 5408 5454 5428 5421 5416 5414 5446 5411 5445 5419 5416 5443 5417 5429 5437 5447 5444 5420 5443 5445 5415 5432 5427 5428 5477 5411 5446 5446 5433 5403 5445 5418 5439 5457 5467 5401 5489 5434 5456 5409 5435 5454 5453 5404 5431 5421 5473 5453 5418 5442 5457 5433 5443 5458 5442 5441 5439 5450 5477 5452 5456 5458 5459 5434 5444 5454 5460 5415 5458 5459 5443 5424 5418 5454 5443 5397 5439 5437 5444 5411 5433 5448 5451 5437 5441 5452 5448 5429 5423 5445 5461 5443 5444 5446 5472 5445 5418 5424 5466 5428 5431 5467 5474 5446 5441 5413 5444 5425 5458 5426 5450 5435 5459 5402 5448 5446 5489 5408 5445 5420 5495 5429 5450 5429 5514 5443 5454 5437 5489 5438 5449 5431 5438 5419 5445 5425 5423 5398 5442 5419 5420 5458 5466 5434 5419 5435 5423 5430 5439 5427 5436 5414 5422 5450 5451 5439 5425 5451 5447 5443 5453 5447 5469 5445 5428 5452 5437 5455 5447 5421 5461 5401 5434 5406 5455 5419 5451 5430 5449 5412 5458 5438 5446 5397 5451 5437 5446 5428 5455 5422 5442 5428 5465 5435 5450 5423 5429 5436 5447 5440 5441 5454 5438 5422 5474 5432 5426 5449 5428 5448 5455 5420 5432 5412 5448 5402 5450 5410 5448 5449 5458 5513 5450 5446 5450 5536 5444 5452 5460 5445 5451 5420 5491 5418 5436 5442 5469 5426 5454 5433 5547 5442 5446 5490 5483 5434 5468 5457 5555 5435 5446 5413 5479 5450 5454 5417 5444 5428 5456 5404 5495 5431 5416 5453 5480 5464 5430 5432 5422 5448 5451 5461 5420 5446 5451 5446 5408 5437 5437 5449 5440 5433 5439 5412 5430 5451 5443 5429 5415 5437 5422 5435 5445 5436 5477 5447 5451 5450 5462 5448 5433 5426 5470 5419 5436 5445 5452 5438 5450 5472 5426 5440 5415 5447 5463 5428 5453 5438 5483 5421 5475 5438 5426 5400 5456 5475 5422 5439 5490 5478 5444 5469 5460 5459 5428 5438 5443 5463 5462 5435 5434 5448 5472 5450 5443 5451 5452 5437 5431 5476 5453 5418 5434 5441 5459 5450 5443 5427 5464 5444 5443 5414 5437 5416 5472 5426 5433 5450 5450 5441 5448 5424 5435 5451 5449 5410 5438 5448 5438 5407 5427 5436 5457 5411 5459 5443 5467 5402 5464 5447 5428 5454 5460 5458 5423 5451 5450 5463 5407 5469 5468 5451 5442 5474 5467 5449 5421 5447 5443 5455 5438 5421 5423 5450 5454 5465 5433 5473 5462 5400 5452 5461 5472 5418 5461 5431 5493 5452 5430 5477 5466 5435 5451 5448 5439 5437 5433 5451 5466 5412 5441 5463 5468 5435 5451 5453 5469 5461 5480 5452 5447 5468 5453 5467 5441 5439 5414 5469 5463 5460 5438 5473 5443 5451 5430 5484 5450 5430 5435 5470 5474 5419 5465 5469 5452 5456 5484 5470 5459 5425 5409 5504 5447 5411 5405 5459 5464 5442 5423 5498 5455 5425 5452 5426 5459 5445 5478 5455 5462 5425 5461 5458 5452 5414 5461 5426 5453 5418 5461 5424 5457 5436 5397 5421 5437 5460 5426 5441

Tree=0
num_leaves=50
num_cat=0
split_feature=11 0 0 2 2 10 10 0 12 12 0 12 11 0 2 12 0 10 4 12 12 0 10 12 5 11 1 12 2 0 1 1 0 12 12 5 11 5 1 12 11 1 0 5 12 1 0 1 5
split_gain=2563.91 419.135 260.695 119.836 77.6043 61.8478 33.638 32.503 27.5921 20.0671 19.4667 16.6663 17.3136 13.176 16.4967 13.1559 13.4904 11.735 11.534 23.3044 18.5569 14.5446 10.2455 9.12018 8.57602 8.56012 9.45282 8.26357 8.08333 16.5784 7.92813 7.87623 7.62066 10.6132 10.1695 8.06406 7.48528 11.4348 7.40972 6.94257 6.92846 6.46814 6.35192 6.2125 6.14227 6.00824 5.90663 5.77977 5.00313
threshold=1.0000000180025095e-35 10.500000000000002 9.5000000000000018 5.5000000000000009 5.5000000000000009 2.5000000000000004 3.5000000000000004 16.500000000000004 1375.5000000000002 1697.5000000000002 12.500000000000002 1790.5000000000002 1.5000000000000002 11.500000000000002 1.5000000000000002 4631.5000000000009 14.500000000000002 1.5000000000000002 -0.9159756150367534 1982.5000000000002 3230.5000000000005 12.500000000000002 1.5000000000000002 3942.5000000000005 0.54389262614623668 1.5000000000000002 11.500000000000002 3927.5000000000005 4.5000000000000009 12.500000000000002 20.500000000000004 46.500000000000007 15.500000000000002 2510.5000000000005 3927.5000000000005 0.96460205851447978 1.5000000000000002 -0.35787681872537386 29.500000000000004 3435.5000000000005 2.5000000000000004 48.500000000000007 13.500000000000002 0.98633474805103971 310.50000000000006 48.500000000000007 9.5000000000000018 4.5000000000000009 -0.77608090992617063
decision_type=2 2 2 2 2 2 2 2 2 2 2 2 2 2 2 2 2 2 2 2 2 2 2 2 2 2 2 2 2 2 2 2 2 2 2 2 2 2 2 2 2 2 2 2 2 2 2 2 2
left_child=1 46 -2 5 6 9 8 15 10 13 22 -11 17 14 44 -5 25 -13 20 36 21 -7 -3 28 -18 47 -27 41 29 -8 -12 43 33 35 -35 -10 37 -20 -23 -31 -14 -22 45 -6 -4 -21 -1 -17 -34
right_child=2 4 3 7 31 18 23 -9 32 11 30 12 40 -15 -16 16 24 -19 19 42 27 38 -24 -25 -26 26 -28 -29 -30 39 -32 -33 48 34 -36 -37 -38 -39 -40 -41 -42 -43 -44 -45 -46 -47 -48 -49 -50
leaf_value=-0.43334546103704241 -0.43322433633003182 -0.44603125535128119 -0.48765374217034152 -0.43575201771580474 -0.44088659557351434 -0.52463790821711831 -0.51232589499068948 -0.50297630599933618 -0.47694945164511821 -0.52092389049728272 -0.46196979325728854 -0.486742986198889 -0.50844347683871316 -0.48524391145898704 -0.45723730949487434 -0.43322433633003188 -0.46944062372618772 -0.50073509517061765 -0.50728844633243764 -0.47959421554490012 -0.48561627778059729 -0.49497198161105538 -0.49725893143627847 -0.50957327664901819 -0.4402099285234406 -0.4506883168135537 -0.50575331650139288 -0.51275117218778976 -0.45068831681355365 -0.47695527932941978 -0.44590318616106867 -0.45798771490627566 -0.46596929973663526 -0.45843795815311644 -0.480642359288455 -0.51726974240698054 -0.50551081224893912 -0.4825141233526033 -0.51967103972346484 -0.52054423874764089 -0.48998227290147772 -0.52927622898940185 -0.51481834350714195 -0.47164509339377986 -0.51495270113668878 -0.52241537951373251 -0.4396668413254774 -0.47454898782301658 -0.48645054436420504
leaf_weight=990.714470744133 52.159305363893509 4.6849675476551083 9.3699350953102094 11.868584454059599 109.62824061512947 155.22859141230583 15.928889662027357 26.235818266868591 41.852376759052277 35.918084532022476 42.789370268583298 106.50492891669273 162.724539488554 146.48331865668297 6.2466233968734732 3.4356428682804134 19.052201360464096 109.3159094452858 25.923487097024918 9.0576039254665357 27.48514294624329 26.235818266868591 14.054902642965315 12.180915623903273 17.178214341402054 3.4356428682804134 15.30422732234001 29.046798795461655 6.8712857365608206 76.833467781543732 78.082792460918427 39.978389739990234 13.742571473121641 74.959480762481689 24.674162417650223 4.9972987174987784 60.592246949672699 47.474337816238403 18.739870190620422 3.4356428682804099 20.613857209682465 3.4356428682804099 209.57421496510506 6.2466233968734732 35.605753362178802 4.372636377811431 153.66693556308746 26.860480606555939 49.035993665456772
leaf_count=3172 167 15 30 38 351 497 51 84 134 115 137 341 521 469 20 11 61 350 83 29 88 84 45 39 55 11 49 93 22 246 250 128 44 240 79 16 194 152 60 11 66 11 671 20 114 14 492 86 157
internal_value=-0.469132 -0.444957 -0.499055 -0.501555 -0.464822 -0.504339 -0.470973 -0.473347 -0.466331 -0.497749 -0.456002 -0.50135 -0.499589 -0.489824 -0.502921 -0.465345 -0.469464 -0.49383 -0.511096 -0.507595 -0.5159 -0.520285 -0.484452 -0.485025 -0.455581 -0.479721 -0.495658 -0.501261 -0.482123 -0.484369 -0.451591 -0.446506 -0.473222 -0.469474 -0.463937 -0.48125 -0.497707 -0.491264 -0.505263 -0.478821 -0.506368 -0.490467 -0.513537 -0.442545 -0.509265 -0.493536 -0.434194 -0.469863 -0.481967
internal_weight=3189.84 1764.36 1425.48 1373.32 619.977 1249.95 464.124 123.371 348.874 632.783 139.612 435.077 399.159 197.706 51.2223 97.135 85.2664 215.821 617.166 356.995 260.172 200.204 18.7399 115.25 36.2304 49.036 18.7399 59.9676 103.069 96.198 120.872 155.853 209.262 146.483 99.6336 46.8497 133.99 73.3978 44.9757 80.2691 183.338 30.9208 223.004 115.875 44.9757 13.4302 1144.38 30.2961 62.7786
internal_count=10213 5649 4564 4397 1985 4002 1486 395 1117 2026 447 1393 1278 633 164 311 273 691 1976 1143 833 641 60 369 116 157 60 192 330 308 387 499 670 469 319 150 429 235 144 257 587 99 714 371 144 43 3664 97 201
is_linear=0
shrinkage=1


Tree=1
num_leaves=50
num_cat=0
split_feature=0 11 0 11 10 0 10 12 12 12 12 1 0 12 5 1 5 12 6 10 10 12 12 12 10 6 5 12 6 12 1 11 5 2 12 1 12 12 1 11 5 12 6 1 6 6 6 1 12
split_gain=511.598 100.82 36.788 35.8847 31.5955 26.9828 16.6724 16.4932 19.2731 13.8912 12.105 11.5187 11.2898 9.98929 11.5451 21.2352 9.73587 9.06466 9.06037 8.9964 8.727 10.2003 8.9661 10.0039 8.27147 9.94582 8.108 7.36538 8.58584 7.14642 6.81212 6.51967 6.48432 10.3691 9.57002 7.94688 6.02204 11.4297 10.6462 5.75121 5.50983 5.40447 5.06496 6.36946 6.50711 5.0176 4.99552 4.83067 4.78918
threshold=10.500000000000002 1.0000000180025095e-35 12.500000000000002 1.0000000180025095e-35 2.5000000000000004 9.5000000000000018 1.5000000000000002 2804.5000000000005 4944.5000000000009 4121.5000000000009 2510.5000000000005 20.500000000000004 11.500000000000002 3942.5000000000005 -0.25846434259635315 41.500000000000007 0.98633474805103971 431.50000000000006 0.10452846326765323 1.5000000000000002 3.5000000000000004 4735.5000000000009 2836.5000000000005 4204.5000000000009 1.5000000000000002 -0.35787681872537375 -0.54389262614623624 4928.5000000000009 0.96460205851447978 1054.5000000000002 13.500000000000002 1.5000000000000002 0.96460205851447978 1.5000000000000002 2557.5000000000005 13.500000000000002 2725.5000000000005 2602.5000000000005 9.5000000000000018 2.5000000000000004 0.93230098696887742 310.50000000000006 -0.93230098696887709 41.500000000000007 -0.62845792932566547 -0.77608090992617063 -0.45336832153790024 43.500000000000007 3860.5000000000005
decision_type=2 2 2 2 2 2 2 2 2 2 2 2 2 2 2 2 2 2 2 2 2 2 2 2 2 2 2 2 2 2 2 2 2 2 2 2 2 2 2 2 2 2 2 2 2 2 2 2 2
left_child=3 9 4 -1 6 -5 12 17 20 13 41 -7 48 32 15 -15 27 -4 -18 36 22 -22 -9 -24 -10 31 -27 -11 46 40 -23 -26 -2 -34 -35 -36 37 -19 -38 42 -8 -6 -13 44 -44 -31 -29 -47 -3
right_child=1 2 7 5 10 11 29 8 24 16 -12 39 -14 14 -16 -17 18 19 -20 -21 21 30 23 -25 25 26 -28 28 -30 45 -32 -33 33 34 35 -37 38 -39 -40 -41 -42 -43 43 -45 -46 47 -48 -49 -50
leaf_value=-2.1500310242385074 -2.1247608212455313 -2.1356300425674308 -2.1511410064226908 -2.1511410064226908 -2.0948117166325355 -2.1511410064226908 -2.0763929329868658 -2.1374781574097597 -2.1110063874472051 -2.1416276152581313 -2.113255820369135 -2.1368709196758515 -2.0997686941340694 -1.9829578411920843 -2.1199251916639801 -2.1103693300031501 -2.0560070947770952 -2.100209185557766 -2.1511410064226908 -2.0885206625566157 -2.1244798123227242 -2.135851627765363 -2.0960711463889465 -2.1137897726557959 -2.0538449604215137 -2.1316817972224555 -2.034385751221278 -2.0916823116441936 -2.044115355821396 -2.0744056342934605 -2.0714940106263784 -1.9700206746358837 -2.1329238744054493 -2.0390188962689533 -2.0630022353392716 -2.1340169023264837 -2.0013050955808778 -2.1422222022059163 -2.0976281811220434 -2.0441153558213956 -2.0149265420210427 -2.1386167281608373 -2.0963836968127261 -2.1112060621684763 -2.0378197293154372 -2.1115684969566657 -2.1444519032601099 -2.082483041886011 -2.0916823116441936
leaf_weight=513.52175951004028 169.44536224007607 19.341157972812656 2.3826064169406882 23.405604213476181 2.6629130542278281 5.3258261084556571 8.8296590745449048 6.5872059762477866 2.2424530982971174 69.375892728567123 31.674650013446808 4.2045995593071011 21.022997796535492 1.962146461009979 6.7273592948913556 2.9432196915149689 2.5227597355842581 43.587682098150253 1.4015331864356997 152.34665736556053 39.383082538843155 1.9621464610099781 91.520117074251175 41.765688955783844 1.5416865050792696 1.5416865050792696 1.5416865050792692 2.522759735584259 1.4015331864356992 7.4281258881092098 6.0265927016735077 1.8219931423664091 6.5872059762477866 2.9432196915149671 2.3826064169406891 3.5038329660892487 1.4015331864356984 6.7273592948913565 3.9242929220199585 1.4015331864356984 1.5416865050792683 52.6976478099823 6.0265927016735077 18.780544698238373 2.3826064169406909 16.678244918584827 4.4849061965942365 7.4281258881092063 2.5227597355842581
leaf_count=3664 1209 138 17 167 19 38 63 47 16 495 226 30 150 14 48 21 18 311 10 1087 281 14 653 298 11 11 11 18 10 53 43 13 47 21 17 25 10 48 28 10 11 376 43 134 17 119 32 53 18
internal_value=-2.12555 -2.11085 -2.10371 -2.14744 -2.11535 -2.12579 -2.10232 -2.09879 -2.10505 -2.12569 -2.12805 -2.11022 -2.11547 -2.12137 -2.0944 -2.0594 -2.13609 -2.09296 -2.08998 -2.09229 -2.10708 -2.11821 -2.10331 -2.10162 -2.06138 -2.04412 -2.08303 -2.13841 -2.1119 -2.08886 -2.0873 -2.00844 -2.12307 -2.10444 -2.08319 -2.10527 -2.10262 -2.10583 -2.07228 -2.10357 -2.06726 -2.13651 -2.10623 -2.10149 -2.07979 -2.09596 -2.12545 -2.10261 -2.13056
internal_weight=1431.39 856.337 578.132 575.049 171.828 61.5273 84.7928 406.304 195.934 278.204 87.0352 38.1217 42.8869 196.495 11.6327 4.90537 81.7094 210.37 3.92429 207.988 187.245 47.3718 139.873 133.286 8.68951 6.44705 3.08337 77.7851 8.4092 41.9058 7.98874 3.36368 184.862 15.4169 8.82966 5.88644 55.6409 50.315 5.32583 32.7959 10.3713 55.3606 31.3943 27.1897 8.4092 31.5345 7.00767 24.1064 21.8639
internal_count=10213 6110 4125 4103 1226 439 605 2899 1398 1985 621 272 306 1402 83 35 583 1501 28 1484 1336 338 998 951 62 46 22 555 60 299 57 24 1319 110 63 42 397 359 38 234 74 395 224 194 60 225 50 172 156
is_linear=0
shrinkage=1


Tree=2
num_leaves=50
num_cat=0
split_feature=11 0 0 11 12 10 12 2 12 12 12 12 5 0 1 1 0 5 5 12 0 5 1 10 1 5 5 5 3 5 12 5 10 5 1 5 5 1 1 1 5 1 0 12 10 0 1 12 5
split_gain=727.639 134.105 74.6527 59.33 28.3877 21.8553 20.1926 20.4557 17.0217 15.6242 11.7661 18.1595 13.6286 11.5179 11.1569 11.806 10.9617 10.8967 11.1623 12.0589 10.5544 9.6691 9.33397 8.80758 8.65775 7.36012 8.73585 7.22799 7.00587 6.98135 8.27759 10.5631 6.96695 6.86982 6.784 6.50755 6.04997 6.01927 5.79137 5.60936 5.28017 6.31613 6.28701 5.23864 4.84551 4.79189 6.52032 4.53997 3.4456
threshold=1.0000000180025095e-35 11.500000000000002 9.5000000000000018 1.5000000000000002 4236.5000000000009 1.5000000000000002 643.50000000000011 5.5000000000000009 1327.5000000000002 4735.5000000000009 2557.5000000000005 2686.5000000000005 -0.9323009869688772 13.500000000000002 46.500000000000007 51.500000000000007 12.500000000000002 0.98633474805103971 0.25846434259635342 415.50000000000006 16.500000000000004 0.77608090992617107 46.500000000000007 1.5000000000000002 47.500000000000007 0.8897854307135199 0.93230098696887742 0.99726094768413687 -0.91597561503675318 -0.62845792932566569 1886.5000000000002 -0.35787681872537386 2.5000000000000004 0.15622007704270641 56.500000000000007 0.15622007704270641 -0.15622007704270616 12.500000000000002 47.500000000000007 1.5000000000000002 0.93230098696887742 15.500000000000002 15.500000000000002 3366.5000000000005 2.5000000000000004 9.5000000000000018 57.500000000000007 3366.5000000000005 0.96460205851447978
decision_type=2 2 2 2 2 2 2 2 2 2 2 2 2 2 2 2 2 2 2 2 2 2 2 2 2 2 2 2 2 2 2 2 2 2 2 2 2 2 2 2 2 2 2 2 2 2 2 2 2
left_child=1 45 -2 5 8 28 48 16 40 10 17 21 47 29 -9 -16 32 18 36 -20 34 33 -6 -14 -24 39 -27 -18 38 -10 35 -32 -8 -12 -11 -31 -5 -28 -4 -15 42 -42 -3 -41 -23 -1 -47 -13 -7
right_child=2 4 3 9 22 6 7 14 13 20 11 12 23 25 15 -17 27 -19 19 -21 -22 44 24 -25 -26 26 37 -29 -30 30 31 -33 -34 -35 -36 -37 -38 -39 -40 43 41 -43 -44 -45 -46 46 -48 -49 -50
leaf_value=-1.9587798701355146 -1.9587798701355146 -1.9333533281805522 -1.91774931344816 -1.9028377453928018 -1.9569193914558831 -1.9304210130361621 -1.9031124839775264 -1.9445840302102022 -1.9491146174204081 -1.9466660867325813 -1.8555373979514242 -1.9427469215139852 -1.9044653521604062 -1.867926494613515 -1.8315851444047153 -1.9215066904341815 -1.9011136168755447 -1.936530063885229 -1.9320582890996323 -1.8857466100695985 -1.8941730253198705 -1.7770731190915157 -1.8749152158075151 -1.8854989581918442 -1.9392415098082028 -1.8477368556086264 -1.9587798701355146 -1.9587798701355146 -1.9312176101456944 -1.9284954116281814 -1.8780213141159596 -1.9382866275365673 -1.9212764418677124 -1.9068636555515148 -1.888892658195515 -1.8565698226732652 -1.9205951181045293 -1.8955775219462976 -1.867926494613515 -1.9139588715446614 -1.9505204723607874 -1.9022488809218261 -1.9504361927916574 -1.9323780345137369 -1.8497558195091153 -1.9532887320545145 -1.9083057726232926 -1.9083057726232926 -1.9587798701355146
leaf_weight=523.7009602189064 27.571897968649864 48.374647334218025 10.236273497343062 71.323712110519409 48.374647334218025 28.562505081295967 28.562505081295967 21.132951736450199 15.51951143145561 12.382588908076288 7.2644521594047529 5.6134403049945822 30.378618121147156 1.9812142252922047 1.6510118544101695 6.4389462321996689 155.0300131291151 8.0899580866098386 5.6134403049945822 51.346468672156334 7.4295533448457709 1.6510118544101708 2.1463154107332256 80.239176124334335 15.354410246014593 2.9718213379383078 1.6510118544101695 1.9812142252922047 88.164033025503159 1.9812142252922083 2.9718213379383114 21.958457663655281 56.7948077917099 3.4671248942613602 2.1463154107332221 2.6416189670562744 22.783963590860367 7.5946545302867889 2.6416189670562735 49.530355632305145 3.6322260797023755 7.4295533448457718 32.359832346439362 19.316838696599007 1.6510118544101713 120.19366300106049 2.9718213379383078 8.9154640138149244 4.4577320069074622
leaf_count=3172 167 293 62 432 293 173 173 128 94 75 44 34 184 12 10 39 939 49 34 311 45 10 13 486 93 18 10 12 534 12 18 133 344 21 13 16 138 46 16 300 22 45 196 117 10 728 18 54 27
internal_value=-1.93225 -1.94997 -1.91033 -1.90849 -1.93285 -1.91611 -1.9121 -1.9094 -1.92768 -1.89884 -1.89704 -1.89067 -1.8943 -1.92061 -1.93312 -1.90316 -1.90655 -1.90261 -1.90079 -1.89031 -1.92326 -1.85831 -1.95013 -1.89071 -1.93135 -1.91399 -1.89248 -1.90184 -1.9282 -1.93282 -1.92427 -1.9311 -1.9152 -1.87212 -1.93813 -1.8874 -1.90714 -1.90686 -1.90753 -1.91769 -1.93754 -1.9181 -1.9402 -1.91913 -1.81341 -1.95753 -1.9522 -1.92161 -1.93425
internal_weight=1686.18 932.657 753.522 725.95 285.79 405.654 304.612 271.591 219.915 320.296 298.338 139.18 125.147 128.119 29.2229 8.08996 242.369 159.158 151.068 56.9599 21.9585 14.0336 65.8754 110.618 17.5007 83.0459 12.2175 157.011 101.042 45.0726 29.5531 24.9303 85.3573 10.7316 14.5289 4.62283 94.1077 9.24567 12.8779 70.8284 91.7963 11.0618 80.7345 68.8472 3.30202 646.866 123.165 14.5289 33.0202
internal_count=10213 5649 4564 4397 1731 2457 1845 1645 1332 1940 1807 843 758 776 177 49 1468 964 915 345 133 85 399 670 106 503 74 951 612 273 179 151 517 65 88 28 570 56 78 429 556 67 489 417 20 3918 746 88 200
is_linear=0
shrinkage=1


Tree=3
num_leaves=50
num_cat=0
split_feature=11 10 0 0 12 0 10 0 0 12 12 12 12 10 12 1 6 0 1 10 12 0 12 12 6 4 0 0 12 6 11 1 0 1 12 0 12 12 12 12 5 12 6 1 10 12 5 5 12
split_gain=614.898 214.697 212.662 184.871 203.391 57.4876 49.3756 101.672 56.3957 48.8748 95.0281 46.8306 38.0752 32.3128 32.6858 32.3403 27.9483 23.2617 35.4354 21.9172 23.2359 20.8396 40.0584 24.9286 19.6579 26.6447 19.1102 17.122 17.0459 16.6412 16.3962 19.524 15.7322 34.1687 14.7885 17.0257 14.5543 14.2023 13.5928 20.0748 13.3655 24.0442 13.1603 10.737 10.6899 10.4031 18.1098 10.1125 8.46691
threshold=1.0000000180025095e-35 2.5000000000000004 12.500000000000002 10.500000000000002 2473.5000000000005 10.500000000000002 1.5000000000000002 11.500000000000002 9.5000000000000018 4683.5000000000009 3334.5000000000005 3807.5000000000005 3245.5000000000005 3.5000000000000004 4105.5000000000009 45.500000000000007 0.9863347480510396 9.5000000000000018 35.500000000000007 3.5000000000000004 4569.5000000000009 12.500000000000002 3351.5000000000005 2527.5000000000005 -0.70613771591812613 -0.98296291314453399 16.500000000000004 11.500000000000002 4236.5000000000009 0.15622007704270638 1.5000000000000002 6.5000000000000009 10.500000000000002 37.500000000000007 2068.5000000000005 14.500000000000002 4121.5000000000009 3098.5000000000005 2014.5000000000002 4188.5000000000009 -0.10452846326765322 1087.5000000000002 0.77608090992617096 50.500000000000007 3.5000000000000004 3942.5000000000005 0.93230098696887742 0.35787681872537386 3454.5000000000005
decision_type=2 2 2 2 2 2 2 2 2 2 2 2 2 2 2 2 2 2 2 2 2 2 2 2 2 2 2 2 2 2 2 2 2 2 2 2 2 2 2 2 2 2 2 2 2 2 2 2 2
left_child=5 6 3 17 27 -1 7 8 -2 10 34 32 24 16 15 -15 26 -3 -19 -7 21 23 -23 29 44 -26 -12 30 -16 -21 -5 -32 33 -10 -4 -36 48 -20 -9 45 41 -29 -34 -37 -6 47 -47 -40 -24
right_child=1 2 9 4 12 19 -8 38 11 -11 13 -13 -14 14 28 -17 -18 18 37 20 -22 22 36 -25 25 -27 -28 40 -30 -31 31 -33 42 -35 35 43 -38 -39 39 -41 -42 -43 -44 -45 -46 46 -48 -49 -50
leaf_value=-2.2290846105132593 -2.2294599410033813 -2.2294599410033813 -2.2033309336030644 -2.0395050085689697 -2.1329539118240022 -2.2165644602121648 -2.2122851392002714 -2.2147854342798401 -2.2136529189826208 -2.2265949182621183 -2.1943268154170927 -2.2294599410033813 -2.2042267131904243 -2.0806798126851715 -2.192623934330002 -2.173895863597072 -2.0419311797570874 -2.2294599410033813 -2.112520237278368 -2.0460984855625606 -2.2275965115781697 -2.2110072521613495 -2.153059334569706 -2.1887129509054213 -2.1980008677659857 -2.1055670657055297 -2.1360814220288895 -2.1785262033809309 -2.110274994966848 -2.1639737069173739 -2.1877868829486493 -2.0701367251477905 -2.0854481784337104 -2.0919388494227658 -2.2028858170264507 -2.175256808060571 -2.1858024516127097 -2.1822713311472879 -2.1817095619823341 -2.2224075773325804 -2.0624145472755151 -2.0842987887793982 -2.153059334569706 -2.1281847185215326 -2.0460984855625606 -2.1790859147833754 -2.0919388494227658 -2.2112693204239346 -2.0657443557883628
leaf_weight=479.57734513282776 5.7591165900230399 11.387344166636469 65.444506704807281 19.109795957803726 2.4868912547826794 195.41729702055454 146.72658403217793 42.931596398353577 3.7957813888788277 20.94224214553833 17.931794837117202 3.5340033620595923 14.266902461647986 14.921347528696066 7.3297847509384138 4.3193374425172797 1.4397791475057591 6.5444506704807308 6.4135616570711118 2.6177802681922895 16.099348649382591 30.889807164669037 1.5706681609153736 5.8900056034326553 6.6753396838903454 4.8428934961557379 7.0680067241191855 3.534003362059595 3.2722253352403641 1.8324461877346037 1.4397791475057626 10.732899099588392 14.790458515286447 4.5811154693365097 18.06268385052681 19.371573984622959 2.7486692816019058 4.4502264559268951 28.272026896476746 17.015571743249893 7.7224517911672583 7.8533408045768738 3.1413363218307486 5.6282275766134253 2.6177802681922913 11.910900220274923 2.6177802681922904 16.492015689611435 2.7486692816019058
leaf_count=3664 44 87 500 146 19 1493 1121 328 29 160 137 27 109 114 56 33 11 50 49 20 123 236 12 45 51 37 54 27 25 14 11 82 113 35 138 148 21 34 216 130 59 60 24 43 20 91 20 126 21
internal_value=-2.20464 -2.182 -2.16384 -2.1308 -2.10766 -2.22293 -2.19981 -2.188 -2.14351 -2.18343 -2.17794 -2.12692 -2.16827 -2.14631 -2.12491 -2.10161 -2.17046 -2.19612 -2.17431 -2.21156 -2.19638 -2.18598 -2.19627 -2.14822 -2.13742 -2.15914 -2.17786 -2.07051 -2.16721 -2.09464 -2.05684 -2.08405 -2.11315 -2.14709 -2.19435 -2.18069 -2.13184 -2.14109 -2.20128 -2.19368 -2.09288 -2.11354 -2.09729 -2.16466 -2.08841 -2.18544 -2.16338 -2.1926 -2.0975
internal_weight=1336.77 597.377 295.809 110.078 81.2821 739.392 301.568 154.842 35.6018 185.732 164.789 29.8427 30.8898 56.2823 29.8427 19.2407 26.4396 28.7956 17.4082 259.815 64.3974 48.298 37.9578 10.3402 16.6229 11.5182 24.9998 50.3923 10.602 4.45023 31.2825 12.1727 26.3087 8.3769 108.507 43.0625 7.06801 10.8638 119.24 76.3083 19.1098 11.3873 17.9318 24.9998 5.10467 59.2927 14.5287 44.764 4.31934
internal_count=10213 4564 2260 841 621 5649 2304 1183 272 1419 1259 228 236 430 228 147 202 220 133 1985 492 369 290 79 127 88 191 385 81 34 239 93 201 64 829 329 54 83 911 583 146 87 137 191 39 453 111 342 33
is_linear=0
shrinkage=1


Tree=4
num_leaves=50
num_cat=0
split_feature=11 3 3 2 2 10 10 3 12 3 12 12 11 12 3 3 2 10 4 12 12 3 10 5 12 11 6 1 2 3 1 12 3 12 12 5 11 5 1 12 11 5 5 3 3 3 1 12 1
split_gain=2364.84 398.968 238.596 108.024 72.7998 54.2931 31.2486 29.8814 26.032 18.7043 18.3976 15.1545 15.5002 12.6918 12.7932 11.9675 15.1076 10.7774 10.2114 20.7131 16.2795 12.5528 9.77159 8.231 8.22937 8.01526 9.0278 7.64063 7.6119 14.9926 7.56117 7.50745 7.16947 9.89791 9.60868 7.23492 6.84816 10.422 6.78989 6.4515 6.42695 6.20053 5.91189 5.77658 5.60399 5.6006 5.53987 5.44414 4.72849
threshold=1.0000000180025095e-35 0.37940952255126054 0.60355339059327384 5.5000000000000009 5.5000000000000009 2.5000000000000004 3.5000000000000004 -0.91597561503675318 1375.5000000000002 1.0000000180025095e-35 1697.5000000000002 1790.5000000000002 1.5000000000000002 4631.5000000000009 -0.60355339059327329 0.12940952255126059 1.5000000000000002 1.5000000000000002 -0.9159756150367534 1982.5000000000002 3230.5000000000005 1.0000000180025095e-35 1.5000000000000002 0.54389262614623668 3942.5000000000005 1.5000000000000002 0.35787681872537364 20.500000000000004 4.5000000000000009 1.0000000180025095e-35 46.500000000000007 3927.5000000000005 -0.78656609248549259 2510.5000000000005 3927.5000000000005 0.96460205851447978 1.5000000000000002 -0.35787681872537386 29.500000000000004 2587.5000000000005 2.5000000000000004 -0.9323009869688772 0.98633474805103971 0.60355339059327384 0.37940952255126054 -0.3794095225512602 48.500000000000007 310.50000000000006 52.500000000000007
decision_type=2 2 2 2 2 2 2 2 2 2 2 2 2 2 2 2 2 2 2 2 2 2 2 2 2 2 2 2 2 2 2 2 2 2 2 2 2 2 2 2 2 2 2 2 2 2 2 2 2
left_child=1 4 3 5 6 10 8 -5 9 27 15 -12 17 -9 23 -2 47 -13 20 36 21 38 -11 -15 28 45 -27 -1 29 39 42 41 48 35 -35 -34 37 -20 -7 -8 -14 -22 -6 -3 -21 -16 -46 -17 -10
right_child=2 43 -4 7 30 18 24 13 32 22 11 12 40 14 25 16 -18 -19 19 44 31 -23 -24 -25 -26 26 -28 -29 -30 -31 -32 -33 33 34 -36 -37 -38 -39 -40 -41 -42 -43 -44 -45 46 -47 -48 -49 -50
leaf_value=0.006996496285619434 -0.015231638418508036 0.028753108859249449 0.035178353875330234 -0.032100082074619236 0.027614015877559604 -0.024411362858132838 -0.0044646446427008043 0.03300111267559451 -0.0091999940151276573 0.022711647346193208 -0.049062192917148556 -0.016694705240872468 -0.037237262668161172 -0.00020860925811817376 0.012967689624842235 -0.01766089514267756 0.011824800655514812 -0.030037827993495487 -0.036038321024679437 -0.043023126225840008 0.014301625738173089 -0.052081656130958109 -0.027415313069623321 0.02848986783199043 -0.038344405886594511 -0.044253769464578901 -0.0025569337326418486 0.022804721882735086 0.018144972806432662 -0.040963876164395847 0.010793663735896365 -0.041249990891476171 -0.007505726960190617 0.010466506826553668 -0.011099840676810874 -0.045373454002341898 -0.034421134498894133 -0.012535471156509333 -0.047876271920156588 -0.024180338824270842 -0.019556618902615872 -0.025338289204475874 -0.0023927662121576579 0.035048711944905039 -0.009742458528915799 -0.012859860976102134 -0.050572226771559745 -0.043241159715723412 -0.033682028138826849
leaf_weight=42.669006705284119 147.59380829334259 151.56691253185272 51.32734352350235 26.581797778606415 108.32259523868561 26.53780260682106 60.695925503969193 11.771010428667067 54.865328669548035 4.6521976888179806 36.573875844478607 107.3347239792347 165.18866837024689 19.059356540441513 14.359764546155928 9.4376468658447248 6.2355142533779135 110.63839921355247 26.327977269887924 213.46357801556587 4.0861898064613369 158.68456295132637 14.131473034620283 17.032508105039597 12.364788830280302 10.402466148138048 8.4851340949535352 77.49190092086792 6.8356232941150656 16.180182963609695 39.762796759605408 29.53312936425209 41.957363992929459 74.678431630134583 24.757074803113937 5.0919325649738303 61.476727664470673 47.828124314546585 19.076851010322571 19.813792884349823 20.837464988231659 27.1381776034832 6.2501826584339133 974.77347111701965 9.1154940426349622 15.948854535818102 4.451273798942565 36.245330005884171 8.1556237339973432
leaf_count=137 469 492 167 84 351 84 194 38 175 15 115 341 521 61 46 30 20 350 83 671 13 497 45 55 39 33 27 250 22 51 128 93 134 240 79 16 194 152 60 63 66 86 20 3172 29 51 14 114 26
internal_value=7.51242e-05 0.0235702 -0.0283419 -0.030685 0.00421518 -0.0332954 -0.00171775 -0.0039184 0.00277044 0.0128393 -0.0271474 -0.03057 -0.028896 0.00379978 -0.000230435 -0.0195894 -0.0319777 -0.0234674 -0.0395645 -0.0362933 -0.0440402 -0.0480947 -0.0150002 0.0133348 -0.0152125 -0.0101823 -0.0255217 0.0171912 -0.0124497 -0.0146126 0.0220652 -0.0304067 -0.00390727 -0.00026717 0.005097 -0.011604 -0.0270175 -0.0208798 -0.0342248 -0.00931676 -0.0352568 -0.0201508 0.0259771 0.0342015 -0.0418349 -0.000623159 -0.0231388 -0.0379565 -0.0123682
internal_weight=3187.79 1745.02 1442.77 1391.45 618.676 1267.81 464.341 123.641 348.45 138.945 640.085 440.573 403.999 97.0591 85.2881 199.512 51.9185 217.973 627.72 362.663 265.057 204.299 18.7837 36.0919 115.89 49.1962 18.8876 120.161 103.526 96.6899 154.336 60.7575 209.506 146.485 99.4355 47.0493 135.633 74.1561 45.6147 80.5097 186.026 31.2244 114.573 1126.34 227.03 30.3086 13.5668 45.683 63.021
internal_count=10213 5649 4564 4397 1985 4002 1486 395 1117 447 2026 1393 1278 311 273 633 164 691 1976 1143 833 641 60 116 369 157 60 387 330 308 499 192 670 469 319 150 429 235 144 257 587 99 371 3664 714 97 43 144 201
is_linear=0
shrinkage=0.03


Tree=5
num_leaves=50
num_cat=0
split_feature=3 11 11 3 10 3 12 12 10 12 12 12 1 3 5 12 6 12 1 3 12 6 12 1 12 5 6 10 12 12 12 6 11 1 12 3 12 4 10 6 5 10 12 6 10 12 12 11 11
split_gain=477.718 88.3235 35.2441 33.4686 29.1964 25.2528 14.839 15.439 14.5684 13.0497 11.5138 11.4448 10.7134 10.3745 9.05189 8.99701 14.4382 11.4469 9.71287 8.49661 8.40904 8.10982 7.64398 11.3231 7.82045 10.4103 9.63243 7.34188 7.42347 7.24397 7.20378 7.66699 7.05702 11.3441 7.05409 19.4959 6.93997 11.6168 6.86207 7.69744 6.89692 6.38295 6.08264 6.08121 6.04015 5.69096 5.04991 4.94836 4.80602
threshold=0.37940952255126054 1.0000000180025095e-35 1.0000000180025095e-35 1.0000000180025095e-35 2.5000000000000004 0.60355339059327384 2602.5000000000005 4944.5000000000009 1.5000000000000002 4121.5000000000009 2587.5000000000005 2510.5000000000005 20.500000000000004 0.12940952255126059 0.98633474805103971 1392.5000000000002 0.20791169081775937 1830.5000000000002 5.5000000000000009 0.12940952255126059 431.50000000000006 0.10452846326765323 3942.5000000000005 32.500000000000007 2557.5000000000005 -0.96460205851447944 0.052264231633826638 3.5000000000000004 4735.5000000000009 3297.5000000000005 4928.5000000000009 0.96460205851447978 1.5000000000000002 4.5000000000000009 4204.5000000000009 -0.60355339059327329 643.50000000000011 -0.78656609248549325 1.5000000000000002 -0.35787681872537375 -0.54389262614623624 2.5000000000000004 1054.5000000000002 0.15622007704270638 1.5000000000000002 1966.5000000000002 310.50000000000006 2.5000000000000004 1.5000000000000002
decision_type=2 2 2 2 2 2 2 2 2 2 2 2 2 2 2 2 2 2 2 2 2 2 2 2 2 2 2 2 2 2 2 2 2 2 2 2 2 2 2 2 2 2 2 2 2 2 2 2 2
left_child=1 9 -2 6 8 12 10 27 13 15 20 46 -4 -5 30 18 22 -18 36 -20 -3 -16 24 41 25 -17 -26 34 29 -29 -11 -32 45 -34 44 -36 37 -1 -9 48 -41 -24 -10 -30 -8 -22 -6 -14 -40
right_child=2 3 5 4 11 -7 7 38 42 14 -12 -13 47 -15 21 16 17 -19 19 -21 32 -23 23 -25 26 -27 -28 28 43 -31 31 -33 33 -35 35 -37 -38 -39 39 40 -42 -43 -44 -45 -46 -47 -48 -49 -50
leaf_value=0.0074118995434381933 -0.02427657788754051 -0.025517849734928408 -0.025483319041587422 0.024172703063934636 0.028480324029175566 -0.025417104629427183 0.016582586579989258 0.013411338027566768 0.053235364049277846 -0.015786712509322912 0.085622830694489421 0.011409105815316423 0.01815781109163624 -0.0050845424450276224 0.063929329671204974 -0.017364032344386021 0.081275524825466947 -0.0057002337932705099 -0.0082790369195112467 0.048874644479909413 0.021637976864253838 -0.025503036167100031 0.0590480621328663 0.091473489512729572 0.0013379210207317143 0.037813280045637741 0.051245529057206578 0.022527394004075857 0.062005144193800273 -0.0020142966405444439 0.00041300377449129114 0.075641302606627714 0.077288271207099898 0.034720967308776426 -0.0027393944345993878 0.040905320843928346 0.0028692149705078691 0.11668027872966276 0.064436318946351059 -0.0062851287152369201 0.081434609628779742 -0.025600922419434863 0.027455708734545888 0.010501586084263768 0.029835263259626522 0.039934500148905032 -0.013087250037263314 0.073812932226671735 0.13291022466719243
leaf_weight=1.8204828500747681 497.12962704896927 2.3636021912097922 5.2358827739953986 21.666549727320671 2.7680167257785788 22.622331187129021 47.573602348566055 2.3034936487674695 11.007369622588156 68.107705250382423 3.5027479827404013 32.38821978867054 32.183514848351479 21.96733546257019 2.6748233735561362 3.6580126583576229 1.404066041111945 45.304919436573982 74.745939329266548 2.4166808724403372 69.086265280842781 1.3851280510425565 1.4177000969648355 3.0658480077981949 32.359013170003891 19.389132887125015 3.90001057088375 15.551021724939345 4.102983281016348 35.615059450268745 6.9424806386232358 1.4790442585945127 6.1166839003562918 71.489154919981956 28.860241532325745 13.529592916369436 4.2202861309051514 1.6872542202472678 1.6610459983348849 1.5545437186956408 1.6768168509006498 1.8451655805110929 32.73101806640625 4.1504105627536774 88.586294189095497 19.652206793427467 52.895015448331833 1.5050187855958927 2.0749007016420364
leaf_count=13 3664 17 38 150 19 167 330 16 74 495 24 226 224 156 18 26 10 322 535 17 476 10 10 20 231 136 27 107 28 251 50 10 42 491 203 95 30 12 11 11 11 13 225 29 609 135 376 10 13
internal_value=3.58585e-05 0.0139027 -0.0216253 0.020425 0.00942168 -0.000210406 0.0250268 0.0203176 0.021708 -6.2737e-05 0.0317879 -0.00276993 0.0144394 0.00944324 -0.0102344 0.00409334 0.00966307 -0.00308575 -0.00327761 -0.00648902 0.0306701 0.0334178 0.0187358 0.0500763 0.0153913 0.0290556 0.00670597 0.0188379 0.0097035 0.00544471 -0.0125501 0.0136251 0.0314685 0.038076 0.0218777 0.0111907 0.0287876 0.059971 0.0582992 0.0731398 0.0392344 0.0111787 0.0339435 0.0361054 0.0252048 0.02569 -0.0110202 0.0206442 0.102466
internal_weight=1431.37 872.698 558.676 594.874 175.424 61.5467 419.451 247.24 87.3723 277.824 172.211 88.0513 38.9244 43.6339 80.5892 197.235 112.344 46.709 84.8906 77.1626 168.708 4.05995 65.6349 6.32871 59.3062 23.0471 36.259 237.969 59.4195 51.1661 76.5292 8.42152 166.344 77.6058 178.55 42.3898 7.72802 3.50774 9.2708 6.96731 3.23136 3.26287 43.7384 8.25339 136.16 88.7385 55.663 33.6885 3.73595
internal_count=10213 6110 4103 4125 1226 439 2899 1714 605 1985 1185 621 272 306 583 1402 795 332 607 552 1161 28 463 43 420 162 258 1652 415 358 555 60 1144 533 1237 298 55 25 62 46 22 23 299 57 939 611 395 234 24
is_linear=0
shrinkage=0.03


Tree=6
num_leaves=50
num_cat=0
split_feature=11 0 0 11 12 12 12 12 12 6 1 0 12 12 6 1 5 0 1 5 12 1 4 0 1 5 12 6 6 1 6 5 12 5 12 5 6 1 0 1 5 5 1 5 0 1 12 0 1
split_gain=668.293 130.946 67.3466 51.8053 26.8386 19.7931 20.0876 15.6243 13.4323 12.4702 11.9057 10.6101 10.0039 15.1172 14.6772 10.0699 9.561 9.53845 9.14599 8.97046 8.95144 8.82224 8.83867 8.32019 7.95839 7.67299 7.45054 7.21273 6.99205 6.7738 6.76646 7.70433 7.69058 6.67517 7.49274 9.70219 6.65246 6.26113 6.05758 5.88865 5.73794 5.64855 5.16929 4.99705 6.09185 5.92295 4.98335 4.81809 6.34427
threshold=1.0000000180025095e-35 11.500000000000002 9.5000000000000018 1.5000000000000002 4236.5000000000009 1087.5000000000002 4487.5000000000009 1327.5000000000002 4735.5000000000009 -0.83752119907969302 46.500000000000007 13.500000000000002 2557.5000000000005 2686.5000000000005 -0.93230098696887709 13.500000000000002 1.0000000180025095e-35 16.500000000000004 46.500000000000007 -0.9323009869688772 1712.5000000000002 18.500000000000004 -0.9159756150367534 16.500000000000004 47.500000000000007 0.77608090992617107 3942.5000000000005 -0.98633474805103949 -0.83752119907969302 53.500000000000007 -0.98633474805103949 0.74314482547739436 3366.5000000000005 -0.62845792932566569 1886.5000000000002 -0.35787681872537386 -0.15622007704270677 56.500000000000007 15.500000000000002 42.500000000000007 0.15622007704270641 0.15622007704270641 3.5000000000000004 0.93230098696887742 15.500000000000002 15.500000000000002 3942.5000000000005 9.5000000000000018 57.500000000000007
decision_type=2 2 2 2 2 2 2 2 2 2 2 2 2 2 2 2 2 2 2 2 2 2 2 2 2 2 2 2 2 2 2 2 2 2 2 2 2 2 2 2 2 2 2 2 2 2 2 2 2
left_child=1 47 -2 5 7 39 9 43 12 46 -8 33 15 25 16 20 -15 37 -6 -16 42 22 -17 26 -20 40 -11 -23 -19 -12 -13 32 -32 -9 41 -36 -25 -10 -33 -4 -14 -35 -5 44 -3 -45 -7 -1 -49
right_child=2 4 3 8 18 6 10 11 17 23 29 30 13 14 19 21 -18 28 24 -21 -22 27 -24 36 -26 -27 -28 -29 -30 -31 31 38 -34 34 35 -37 -38 -39 -40 -41 -42 -43 -44 45 -46 -47 -48 48 -50
leaf_value=-0.026137121082710258 -0.026135831715674504 -0.00079372928237944314 -0.0042238253781561293 0.0058494121841329355 -0.024249987491238856 0.0126500590427941 -0.01300472269280303 -0.016487488319190918 -0.014054418743858261 0.01871506834857917 0.05158665731104476 0.06969392129725871 0.069360644656280987 0.092259837581488771 0.0098827250814286973 0.025438385154762898 0.043502251618814596 -0.011866809439795518 0.054051812227157173 0.034847428804533842 0.062825383727515588 0.0016907610904404399 -0.022196881850496151 0.055028716513664151 -0.0065831686632153129 0.10494091849309253 0.033904195951056287 0.02885000894664435 0.052774148309990207 0.0044941260898506948 0.017922253737075847 0.012297923536219084 -0.0050262914843085321 0.0036503655465242361 0.050975433623726259 -0.0057587116072207343 0.028294104857573679 0.040515737011492289 0.048444871343693095 0.016962185760502804 0.023556678848178907 0.069648459104336771 0.038832146477198418 -0.017872542473709764 -0.017712888852323517 0.02891716697871613 -0.0091101860304970139 -0.020561477310689042 0.023606460725531818
leaf_weight=506.63671988248825 26.666652232408524 48.233898818492889 52.81459853053093 5.5752135217189815 47.038309350609779 43.749773055315018 27.155442744493484 15.358151748776434 12.281977176666262 176.67789293825626 4.6098202615976316 2.1851933747529975 7.805703476071356 6.0587986856698981 14.867732688784598 6.9382890164852142 8.9908822327852231 2.0502067804336548 2.2336976230144527 100.64000208675861 12.082565546035765 9.6045130342245084 7.0859882086515409 11.775941044092177 15.239119261503218 3.6409029662609091 34.787363320589066 105.1263166218996 5.6739347428083411 6.809950053691864 46.698980331420898 6.9644871950149563 18.29058763384819 1.9993875622749353 3.0962083637714413 21.909387528896332 29.020293831825256 2.2369195520877829 10.408220142126082 15.207400500774382 3.5951540768146515 2.8038336485624313 18.360547959804535 3.5851704180240613 31.767087399959564 7.5890518873929977 12.089220583438872 117.3679773658514 3.0017698258161536
leaf_count=3172 167 293 316 33 293 259 166 94 75 1043 27 13 44 35 88 41 52 12 13 583 70 57 42 69 93 20 205 614 33 41 278 41 110 12 18 133 170 13 61 90 21 16 107 22 196 45 71 728 18
internal_value=0.00020631 -0.0171876 0.0207111 0.0223828 -0.000342145 0.0153088 0.018212 0.00462953 0.0312024 0.0207672 -0.00219672 0.0113188 0.0328163 0.038546 0.0352648 0.0277534 0.0631314 0.00868236 -0.0173654 0.0316341 0.0417755 0.0238309 0.00136991 0.0236068 0.00116831 0.0670253 0.0212138 0.0265764 0.0356166 0.023504 0.0175899 0.0162076 0.0114636 -0.000420118 0.00785814 0.00126615 0.0360111 -0.00564682 0.033954 0.000512645 0.0549168 0.0421761 0.0311497 -0.00488723 -0.00751205 0.013905 0.00793894 -0.0248553 -0.01946
internal_weight=1686.39 912.407 773.98 747.313 285.401 414.698 346.676 220.89 332.616 308.1 38.5752 129.714 310.373 145.599 130.557 164.773 15.0497 22.243 64.5111 115.508 36.0183 128.755 14.0243 252.261 17.4728 15.0418 211.465 114.731 7.72414 11.4198 84.5475 82.3623 64.9896 45.167 29.8088 25.0056 40.7962 14.5189 17.3727 68.022 11.4009 4.80322 23.9358 91.1752 80.001 11.1742 55.839 627.006 120.37
internal_count=10213 5649 4564 4397 1731 2457 2051 1332 1940 1817 234 776 1807 843 758 964 87 133 399 671 210 754 83 1487 106 85 1248 671 45 68 503 490 388 273 179 151 239 88 102 406 65 28 140 556 489 67 330 3918 746
is_linear=0
shrinkage=0.03


Tree=7
num_leaves=50
num_cat=0
split_feature=0 0 12 10 10 0 12 2 10 12 12 12 0 1 2 12 6 12 4 0 10 10 12 10 6 0 5 2 6 6 1 12 1 10 10 6 5 1 10 10 1 2 1 6 1 2 5 2 12
split_gain=423.025 268.703 272.253 272.861 85.2343 79.7586 75.9662 131.159 80.2737 51.124 43.5767 32.9101 32.1098 64.9177 52.5079 25.0437 23.7385 20.9143 19.2296 18.0063 17.6263 24.6865 17.4481 23.8594 16.7557 16.2923 14.254 24.6221 13.1304 13.0981 12.6912 12.6776 18.1531 10.9874 10.1682 10.0914 9.6375 8.08904 7.42794 10.6846 7.06769 6.98763 6.62751 6.56396 5.92088 5.86586 5.34163 5.18482 4.14091
threshold=10.500000000000002 12.500000000000002 3215.5000000000005 2.5000000000000004 1.5000000000000002 11.500000000000002 2068.5000000000005 5.5000000000000009 3.5000000000000004 2473.5000000000005 3334.5000000000005 4105.5000000000009 9.5000000000000018 37.500000000000007 3.5000000000000004 4250.5000000000009 -0.54389262614623657 3454.5000000000005 -0.98296291314453399 11.500000000000002 1.5000000000000002 2.5000000000000004 4236.5000000000009 1.5000000000000002 0.83752119907969325 11.500000000000002 -0.10452846326765322 1.0000000180025095e-35 -0.70613771591812613 -0.20791169081775954 8.5000000000000018 4631.5000000000009 22.500000000000004 3.5000000000000004 2.5000000000000004 0.77608090992617096 0.93230098696887742 43.500000000000007 3.5000000000000004 1.5000000000000002 2.5000000000000004 4.5000000000000009 50.500000000000007 0.3090169943749474 7.5000000000000009 2.5000000000000004 -0.96460205851447944 1.0000000180025095e-35 3942.5000000000005
decision_type=2 2 2 2 2 2 2 2 2 2 2 2 2 2 2 2 2 2 2 2 2 2 2 2 2 2 2 2 2 2 2 2 2 2 2 2 2 2 2 2 2 2 2 2 2 2 2 2 2
left_child=12 2 3 4 5 35 34 8 22 25 29 17 -1 -14 20 -13 33 -12 -18 -4 -15 -22 40 -24 -20 30 27 -27 -25 -10 45 32 -21 -11 -3 36 -2 -23 39 -34 -8 -16 -42 -31 -7 -5 -39 -32 -40
right_child=1 6 19 9 -6 44 7 -9 10 16 11 15 13 14 41 -17 18 -19 24 31 21 37 23 28 -26 26 -28 -29 -30 43 47 -33 38 -35 -36 -37 -38 46 48 -41 42 -43 -44 -45 -46 -47 -48 -49 -50
leaf_value=-0.025173765536162157 0.11118251376760303 -0.01774262709403596 -0.022617290125231566 0.10253711910748076 -0.010345421314262797 0.065790557163379088 0.033281033710882459 -0.02232632580636509 -0.0056755529131074234 0.061870731352198928 0.04956979386030768 0.011806347756246782 -0.022967918583535377 0.12710267636907463 0.012863950223657649 0.11138557342343854 -0.0060559979396301753 0.1070180460451043 0.10480623985697061 -0.012546696155391305 -0.0096938436597819658 0.027624191104513418 -0.016751284690087485 0.1311028445753134 -0.007976231310316155 0.021826106698661103 0.12153850325598041 0.1019301561763418 0.048467862814222426 0.065562086665456473 0.15628264373061984 -0.020068097326853194 0.060871199720819967 0.14096156598780227 -0.0050317161225371144 0.047083411816991369 0.050155220128360732 0.15009863264540452 0.039639137226252869 0.0044329185319922654 0.0051499344844918998 -0.025182599060029481 0.021102352967854291 0.025426817832531763 -0.00043103676603158851 0.035285336060277041 0.083909408596226129 0.12663141758339935 0.092700857473605194
leaf_weight=422.63332429528236 14.683540835976606 115.65081289410591 34.316090956330299 5.6110262572765341 38.103535711765289 1.3171601444482828 10.22455684840679 82.617935344576836 10.668244093656542 3.0881356000900295 8.3797297328710574 11.278868481516836 67.124913051724434 3.7313670367002478 8.6232297420501727 2.8467147499322882 6.2022833377122888 17.857449635863304 3.9082930684089634 11.742838457226755 3.8371593654155713 1.6916615068912504 3.5192274451255781 2.6838918328285217 1.7017838507890699 5.0747129172086742 10.384531155228613 10.810103952884672 4.8721616715192795 4.9486859291791943 6.7534191012382534 11.60505537688732 4.5231896638870266 3.2387950867414474 111.00952912867069 3.720607414841651 2.7679666429758063 1.5371798127889618 2.7630771398544303 9.0776900351047498 150.55162221193314 8.75586089491844 27.761082977056503 14.164274483919142 15.689953565597532 1.473862901329994 3.8350627422332777 24.789800778031349 2.5408678203821182
leaf_count=3339 101 890 266 38 290 10 76 642 80 22 59 83 526 26 64 20 46 123 27 89 29 12 27 20 12 37 70 74 36 37 45 90 34 22 846 27 19 11 20 69 1136 69 208 105 120 10 27 165 19
internal_value=-0.000477841 0.0130264 0.0400161 0.0623593 0.0213974 0.0530774 0.00203126 0.0107462 0.0208753 0.0999895 0.0484824 0.0687935 -0.0215693 -0.00620316 0.0289508 0.0318745 0.0554647 0.08867 0.0303478 -0.00647421 0.070824 0.0515601 0.0111741 0.0477692 0.0705943 0.112434 0.094207 0.0763394 0.0778196 0.0209545 0.12483 0.00663659 0.0167486 0.102358 -0.0115173 0.0919398 0.101503 0.0848337 0.0349455 0.0232024 0.00902442 -0.0063045 0.00763353 0.0358186 0.00469767 0.0885468 0.102848 0.13298 0.0650585
internal_weight=1336.69 814.923 235.888 159.32 76.2828 38.1792 579.035 352.374 269.757 83.0367 70.144 40.3628 521.77 99.1364 32.0115 14.1256 18.1393 26.2372 11.8124 76.5688 14.6324 10.9011 199.613 11.0753 5.61008 64.8975 26.2693 15.8848 7.55605 29.7812 38.6281 42.2527 30.6477 6.32693 226.66 21.1721 17.4515 7.0639 18.9048 13.6009 188.537 17.3791 178.313 19.113 17.0071 7.08489 5.37224 31.5432 5.30394
internal_count=10213 6110 1722 1135 567 277 4388 2652 2010 568 507 285 4103 764 238 103 129 182 85 587 105 79 1503 83 39 439 181 111 56 222 258 321 231 44 1736 147 120 50 142 103 1420 133 1344 142 130 48 38 210 39
is_linear=0
shrinkage=0.03


Tree=8
num_leaves=50
num_cat=0
split_feature=11 3 3 2 2 10 10 3 2 11 3 3 2 4 2 3 2 11 5 6 5 11 1 3 10 2 1 1 5 10 4 3 2 11 3 4 3 5 3 1 3 5 1 1 2 2 3 1 5
split_gain=2188.54 379.65 218.984 97.7535 67.7122 49.1022 29.1998 27.6598 22.5427 16.3487 10.9894 11.8655 9.98153 8.85504 10.2834 8.64988 14.8537 8.19348 11.7256 7.94943 7.92593 7.59056 8.71803 7.43835 10.6655 10.6115 8.70162 7.26578 7.11026 7.04571 6.7693 6.30427 5.95182 5.93432 6.25091 5.78883 5.64495 5.63362 5.5584 5.42493 5.34626 5.728 7.11131 5.52512 5.27396 4.8828 4.74361 5.12593 5.02484
threshold=1.0000000180025095e-35 0.37940952255126054 0.60355339059327384 5.5000000000000009 5.5000000000000009 2.5000000000000004 3.5000000000000004 -0.91597561503675318 1.0000000180025095e-35 1.5000000000000002 0.12940952255126059 -0.60355339059327329 1.0000000180025095e-35 -0.9159756150367534 2.5000000000000004 0.12940952255126059 4.5000000000000009 1.5000000000000002 -0.35787681872537386 -0.10452846326765376 0.54389262614623668 1.5000000000000002 11.500000000000002 0.12940952255126059 1.5000000000000002 1.0000000180025095e-35 5.5000000000000009 46.500000000000007 0.77608090992617107 3.5000000000000004 -0.98296291314453399 1.0000000180025095e-35 1.5000000000000002 2.5000000000000004 -0.60355339059327329 -0.60355339059327384 0.60355339059327384 0.98633474805103971 1.0000000180025095e-35 4.5000000000000009 -0.91597561503675318 -0.77608090992617063 42.500000000000007 12.500000000000002 4.5000000000000009 1.5000000000000002 0.37940952255126054 48.500000000000007 0.77608090992617107
decision_type=2 2 2 2 2 2 2 2 2 2 2 2 2 2 2 2 2 2 2 2 2 2 2 2 2 2 2 2 2 2 2 2 2 2 2 2 2 2 2 2 2 2 2 2 2 2 2 2 2
left_child=1 4 3 5 6 9 8 -5 28 23 11 20 19 15 17 29 -17 18 -15 -11 -9 39 -23 24 38 -26 32 37 31 -7 -8 -1 -25 34 -14 -21 -3 -6 -2 -13 41 42 -10 -43 -28 -32 48 -48 -16
right_child=2 36 -4 7 27 13 30 10 40 12 -12 21 33 14 46 16 -18 -19 -20 35 -22 22 -24 26 25 -27 44 -29 -30 -31 45 -33 -34 -35 -36 -37 -38 -39 -40 -41 -42 43 -44 -45 -46 -47 47 -49 -50
leaf_value=0.022789926766073828 -0.010571840544150102 0.028035162171074424 0.03443046616381655 -0.030684251466575458 0.02691846203024114 -0.031360097477287442 -0.033605583740436575 -0.00030014581734534628 0.030846665577530994 -0.028192013276404838 0.030247424555392415 0.035394512891156624 -0.028904494559899532 -0.036394695556761711 -0.037911307166519456 -0.051658032334169782 -0.0030448551659293548 -0.035991879214226245 -0.013914528660722075 -0.0090179071999444121 0.027944922895782858 0.018655662007173064 -0.034094389824533985 -0.031556751525568201 -0.003094334199874552 -0.028120178998636405 -0.035503514013484699 0.010358596526560262 -0.00050365814962818032 -0.043606305325110631 -0.0046630178626471102 -0.0056602155150648316 0.019297188180128731 -0.020052229315572229 -0.038965511714908918 0.036925415929110132 0.034304888678408217 -0.0023851526405865501 -0.02626386839023629 -0.0048929306479019814 0.00012238551820822587 0.0015412517688683765 -0.016760300314988968 -0.025691700825012962 0.0023988791473213912 -0.017860583606117773 -0.0092204931071883916 -0.04827939189902461 -0.050141347877817537
leaf_weight=65.199407368898392 114.01470047235489 149.40514495968819 50.420661926269531 26.852187275886536 106.88678380846977 83.208051532506943 14.734773784875868 19.038536936044693 5.6412134170532209 19.737389147281647 12.277950137853621 3.3963773548603085 95.712146133184433 34.36802276968956 147.09515184164047 93.687900424003601 6.0202847123146048 80.557747423648834 53.2183758020401 11.103695094585417 16.859486609697342 3.4423717856407192 15.590778470039366 3.4973088204860669 17.37267217040062 124.74934279918671 63.499617218971252 39.526791661977768 19.882623255252838 85.96826308965683 46.338808566331863 7.854286551475524 5.0798959732055664 27.740733802318573 132.54204744100571 3.1737377345561972 957.68569207191467 6.2498094141483298 24.720672488212585 26.315440118312836 211.45879292488098 9.4500314891338331 5.6544459462165833 23.081893563270569 3.4853996634483329 55.38772901892662 9.1600414812564832 4.5142080187797538 38.057517200708389
leaf_count=212 360 492 167 84 351 259 46 61 18 62 40 11 299 107 456 288 19 251 168 35 55 11 49 11 55 391 198 128 64 267 148 25 16 87 413 10 3172 20 78 84 677 30 18 73 11 175 29 14 118
internal_value=7.8131e-05 0.0229473 -0.0269985 -0.0292013 0.00409712 -0.0316589 -0.00159768 -0.00374092 0.00275138 -0.0258365 0.0037238 -0.000123603 -0.0311256 -0.037578 -0.0345476 -0.0417139 -0.0487228 -0.0290866 -0.0227355 -0.0158571 0.0129651 -0.00976275 -0.0245539 -0.021533 -0.019285 -0.0250611 -0.0298884 0.0214312 0.0154021 -0.0375831 -0.0146015 0.0197311 -0.00143823 -0.0331543 -0.0347467 0.00119486 0.0334588 0.0252997 -0.0133679 -0.000287647 -0.0018541 -0.0113902 0.0070153 -0.0177809 -0.0335314 -0.0118488 -0.0391659 -0.0221148 -0.0404252
internal_weight=3180.92 1724.44 1456.48 1406.06 617.347 1282.28 464.684 123.773 348.223 646.429 96.9209 84.643 290.01 635.856 366.971 268.884 99.7082 168.144 87.5864 34.0148 35.898 48.745 19.0332 356.42 280.857 142.122 75.5622 152.663 92.9363 169.176 116.461 73.0537 8.5772 255.995 228.254 14.2774 1107.09 113.137 138.735 29.7118 255.286 43.8276 11.2957 32.5319 66.985 101.727 198.827 13.6742 185.153
internal_count=10213 5649 4564 4397 1985 4002 1486 395 1117 2026 311 271 906 1976 1143 833 307 526 275 107 116 155 60 1120 884 446 236 499 301 526 369 237 27 799 712 45 3664 371 438 95 816 139 36 103 209 323 617 43 574
is_linear=0
shrinkage=0.03


Tree=9
num_leaves=50
num_cat=0
split_feature=0 0 0 10 10 12 1 2 6 12 12 6 6 12 0 12 1 12 10 6 1 12 1 12 0 10 6 1 10 12 1 6 0 2 6 6 12 1 12 12 12 1 1 1 1 1 1 12 1
split_gain=446.71 33.0611 24.6538 20.807 29.6987 22.4789 15.7198 15.5535 13.6333 12.5109 18.3937 12.3354 19.1802 12.0739 9.81296 14.7069 8.53331 8.22417 13.031 7.85775 7.53973 7.34189 7.14923 9.31025 7.34035 7.14168 6.56507 10.1894 6.3241 6.06524 13.4713 5.7891 5.74915 5.18006 6.08336 5.1102 5.33037 4.79641 4.78608 4.2204 5.06256 4.04611 3.93926 3.91654 3.82507 3.71865 3.54583 7.10024 3.42062
threshold=10.500000000000002 9.5000000000000018 11.500000000000002 2.5000000000000004 1.5000000000000002 3162.5000000000005 30.500000000000004 5.5000000000000009 0.35787681872537364 4204.5000000000009 4928.5000000000009 0.93230098696887731 -0.45336832153790024 1311.5000000000002 14.500000000000002 4735.5000000000009 5.5000000000000009 2602.5000000000005 3.5000000000000004 -0.54389262614623657 2.5000000000000004 2725.5000000000005 16.500000000000004 431.50000000000006 14.500000000000002 1.5000000000000002 -0.98633474805103949 29.500000000000004 1.5000000000000002 1712.5000000000002 34.500000000000007 -0.88978543071351968 12.500000000000002 1.5000000000000002 0.83752119907969325 0.10452846326765323 594.50000000000011 14.500000000000002 310.50000000000006 3313.5000000000005 4121.5000000000009 51.500000000000007 37.500000000000007 7.5000000000000009 25.500000000000004 33.500000000000007 1.0000000180025095e-35 1901.5000000000002 14.500000000000002
decision_type=2 2 2 2 2 2 2 2 2 2 2 2 2 2 2 2 2 2 2 2 2 2 2 2 2 2 2 2 2 2 2 2 2 2 2 2 2 2 2 2 2 2 2 2 2 2 2 2 2
left_child=1 -1 3 4 -2 8 48 29 -6 13 14 12 28 22 15 19 -17 20 21 -11 46 25 23 -4 32 -19 27 -22 -12 -8 -31 -28 45 34 -10 36 -25 -18 -5 -20 -41 42 -32 -37 -30 -24 47 -15 -3
right_child=2 6 9 38 5 -7 7 -9 33 10 11 -13 -14 17 -16 16 37 18 39 -21 26 -23 24 35 -26 -27 31 -29 44 30 41 -33 -34 -35 -36 43 -38 -39 -40 40 -42 -43 -44 -45 -46 -47 -48 -49 -50
leaf_value=-0.025024891408815086 -0.0087119724895034552 -0.022653984407478241 -0.01067238733860084 0.026612032420144791 0.067894344921292246 -0.00080418584250568047 0.0035432177707768815 -0.025342336642845822 0.0092502235651298059 0.041133628812570225 0.015415011781686796 0.094919579439463678 -0.0015749576041559649 0.063544035868222201 -0.0058264397699648082 -0.02545227173005242 0.073244223492308455 -0.018284788957161024 0.014017310343677874 -0.01374459232952677 0.11219576112663174 0.022160572549063055 -0.0072867341191279848 0.088259675281333133 -0.00078608786950354911 0.016574157064737405 0.0080146975774831337 0.032727941258662081 0.03382787636291075 0.10605976185197802 -0.0079057048212186828 0.026574108872142784 0.023423627226618671 -0.00085561430504149888 0.091665352791401644 0.029053379609145016 0.03000509270037776 0.028636453746783377 -0.013113762706479805 -0.0060171179010976928 0.023753569733272716 0.0033513160767351755 0.042761740466405559 0.010908166860880097 0.089185951989842152 0.013136258542225138 -0.019610429383386967 -0.025918699289836641 -0.0081830898554654669
leaf_weight=438.04026737809181 30.280627980828285 33.615560278296471 8.0457722097635251 2.8590631932020178 14.061119705438616 12.087696507573126 16.391412004828453 10.217960149049757 1.7028365135192856 2.704744920134547 2.1879816651344353 2.4809806495904914 11.204566165804861 1.6766402870416626 63.868502244353294 2.4581077545881298 2.427019044756892 8.2114019840955752 26.392627909779549 17.815088957548141 1.9558099955320347 177.07175613939762 13.03923688828945 2.1033135950565329 62.82523986697197 14.865048512816427 16.865458473563194 5.6389032304286957 1.5067120790481565 1.8230262696743036 1.6954693794250504 146.6627002954483 29.311359196901321 4.8022008389234543 1.5306140035390852 22.44474695622921 4.3112476319074631 20.437155336141586 60.2129817456007 33.608170241117477 6.0692226588726035 7.2473629415035239 7.4461850523948669 20.469534114003181 4.415259450674057 20.861590445041656 4.9285651296377182 1.5242878645658491 26.128193184733391
leaf_count=3339 216 254 57 19 91 85 112 77 11 20 15 16 78 11 456 18 17 58 179 128 13 1196 90 14 442 100 114 38 10 13 12 990 202 32 10 153 30 142 428 234 42 51 51 140 27 144 34 10 194
internal_value=3.84254e-05 -0.0214068 0.0131435 0.000937449 0.0129232 0.0320876 -0.00625025 0.0071791 0.0500805 0.0151908 0.00677565 0.031948 0.0238592 0.0169504 0.00177483 0.0123651 0.0276613 0.0196177 0.0162729 -0.00651103 0.0245853 0.0200863 0.0104722 0.0192509 0.00647603 0.00417013 0.0259263 0.0531927 0.0589986 0.0167823 0.0286978 0.02466 0.0136937 0.0189091 0.048263 0.0241315 0.0491066 0.0333715 -0.011313 0.00472067 -0.00146327 0.0200925 0.0333646 0.0203984 0.0751013 0.00528099 -0.00364332 0.0209417 -0.0163253
internal_weight=1430.53 542.605 887.926 127.537 64.4651 34.1845 104.565 44.8214 22.0968 760.389 131.506 21.7955 19.3145 628.883 109.711 45.8421 25.3223 445.471 266.218 20.5198 179.252 200.148 183.412 57.3746 126.037 23.0765 171.123 7.59471 8.10995 34.6035 18.212 163.528 63.2122 8.03565 3.23345 49.3288 6.41456 22.8642 63.072 66.07 39.6774 16.389 9.14165 42.9143 5.92197 33.9008 8.12949 3.20093 59.7438
internal_count=10213 4103 6110 892 445 229 764 316 144 5218 927 146 130 4291 781 325 177 3019 1809 148 1210 1354 1272 394 878 158 1155 51 52 239 127 1104 436 53 21 337 44 159 447 455 276 114 63 293 37 234 55 21 448
is_linear=0
shrinkage=0.03


Tree=10
num_leaves=50
num_cat=0
split_feature=11 3 3 11 12 10 1 12 2 12 12 1 3 12 1 1 12 11 12 1 5 12 5 6 10 3 6 6 12 1 12 4 3 1 5 3 1 5 3 6 12 3 1 10 12 1 12 5 6
split_gain=614.672 127.962 61.0104 45.698 25.4497 18.4055 17.0759 14.4257 14.355 14.4013 11.6296 9.81674 9.81039 9.20839 11.5984 8.95907 8.62704 8.07641 8.0147 7.3411 6.3826 6.83655 8.96879 6.2035 6.1922 6.09742 5.98776 7.20136 6.40706 5.89847 5.84227 5.67683 9.02423 4.97321 4.92571 4.85764 6.18514 4.72713 5.90472 5.56069 4.42271 4.25637 6.64023 4.0055 3.54305 3.32118 3.21948 5.15083 3.05617
threshold=1.0000000180025095e-35 0.12940952255126059 0.60355339059327384 1.5000000000000002 4236.5000000000009 1.5000000000000002 36.500000000000007 1327.5000000000002 5.5000000000000009 1758.5000000000002 4735.5000000000009 24.500000000000004 -0.3794095225512602 384.50000000000006 42.500000000000007 46.500000000000007 4928.5000000000009 2.5000000000000004 399.50000000000006 47.500000000000007 -0.62845792932566569 1886.5000000000002 -0.35787681872537386 0.4533683215379003 1.5000000000000002 -0.91597561503675318 -0.98633474805103949 -0.40673664307580043 1392.5000000000002 56.500000000000007 415.50000000000006 -0.98296291314453399 -0.60355339059327329 47.500000000000007 0.15622007704270641 0.60355339059327384 57.500000000000007 0.93230098696887742 -0.78656609248549259 1.0000000180025095e-35 2542.5000000000005 0.12940952255126059 55.500000000000007 2.5000000000000004 4221.5000000000009 55.500000000000007 4914.5000000000009 -0.70613771591812602 -0.93230098696887709
decision_type=2 2 2 2 2 2 2 2 2 2 2 2 2 2 2 2 2 2 2 2 2 2 2 2 2 2 2 2 2 2 2 2 2 2 2 2 2 2 2 2 2 2 2 2 2 2 2 2 2
left_child=1 4 3 5 7 25 8 37 9 43 13 -11 26 48 17 -6 29 30 -8 -17 -14 34 -23 -18 -19 33 -9 28 -28 -12 -15 40 -33 -2 -22 36 -3 38 -1 -39 -16 45 -43 -7 -29 -20 -21 -48 -5
right_child=2 35 -4 10 15 6 18 12 -10 11 16 -13 20 14 31 19 23 24 41 46 21 22 -24 -25 -26 -27 27 44 -30 -31 -32 32 -34 -35 -36 -37 -38 39 -40 -41 -42 42 -44 -45 -46 -47 47 -49 -50
leaf_value=-0.017461217268610864 0.012728105991619157 -0.020301162726799833 -0.025971974374179033 0.035255023370401553 -0.02405838023652462 0.01461590518411939 -0.026455361560163228 0.064557988430181998 -0.0149639001999543 0.028056381886904971 -0.013922445742796854 0.0084809729378280858 -0.016308510127824447 -0.012043224662182769 0.01788004983216588 0.050936274847199925 0.011288297654398113 -0.005703107776892819 0.032309890999709608 -0.016884595398207095 0.0034796328365781642 0.048018390378452583 -0.0056880267497546331 0.065022913143788191 0.027984328847482896 0.00053479943537545311 0.046117686705876931 0.019899960516140128 -0.00086469683671226152 0.038434275462460581 0.038680868989261659 0.017039293531668751 0.037715069120476258 0.05729508524865045 0.064359925061765161 -0.025973000201257753 0.023147203115901224 0.027698323958423577 -0.00070046798638986527 -0.017695217913163794 -0.015661481293844016 0.0092923487751211849 0.055212546534926431 -0.00092410388445561054 0.04947296381455063 0.017774505152392883 -0.0094604776629072518 0.051284584530777257 -0.0023223569420277243
leaf_weight=31.18577729165554 10.691763848066328 114.54356504976749 25.787190273404121 2.4256881922483435 45.745829731225967 21.884694889187813 2.5420371741056433 2.3009403347969046 16.063344672322273 70.712140500545502 12.186968624591829 34.210952952504158 15.175213202834128 2.0678022950887671 10.091442316770552 2.3169403970241573 4.7421103119850141 5.7402947694063178 86.979668483138084 9.61772772669792 2.009027615189555 3.2096003144979504 21.848268464207649 3.2648965716362 33.983494624495506 90.113607212901115 2.8926385641098049 49.791883766651154 26.960077852010727 2.3024642765521994 174.60020597279072 43.886839851737022 33.502288952469826 2.8552763611078253 2.9558205306529999 489.90849697589874 3.0267188102006903 7.743480831384657 48.085573375225067 3.5386567711830139 5.4481970071792594 20.072390139102939 3.300075262784957 46.959663197398186 3.9341937303543082 16.895749092102051 3.577968955039978 1.9361372441053379 9.8894089162349683
leaf_count=196 62 728 167 14 293 128 15 13 100 402 75 197 94 12 57 13 27 33 495 59 12 18 133 18 191 534 17 292 159 13 976 248 188 16 16 3172 18 45 293 22 31 116 19 276 22 97 22 12 57
internal_value=0.000201268 -0.0168797 0.0194164 0.0209416 -0.000288409 0.0143407 0.0179033 0.00450007 0.0121696 0.0146779 0.0290606 0.0216737 0.0108616 0.0305192 0.031532 -0.0170822 0.00820772 0.0353389 0.0262893 0.00120751 -0.000451608 0.00756339 0.0011911 0.0331989 0.0231163 0.00335587 0.0168157 0.0155013 0.00368776 -0.00560263 0.0380872 0.0226674 0.02599 0.0221214 0.0397247 -0.0246588 -0.0191826 -0.00470838 -0.00729424 0.0134606 0.00612039 0.027343 0.0157761 0.00401586 0.0220655 0.0299457 -0.00640681 0.0118686 0.00507921
internal_weight=1685.51 892.305 793.201 767.413 284.826 423.281 319.621 221.631 189.831 173.767 344.132 104.923 131.078 321.636 309.321 63.1946 22.4964 216.392 129.79 17.4488 45.1979 30.0227 25.0579 8.00701 39.7238 103.661 85.8797 83.5788 29.8527 14.4894 176.668 92.9288 77.3891 13.547 4.96485 607.479 117.57 90.5535 79.2714 11.2821 15.5396 127.248 23.3725 68.8444 53.7261 103.875 15.1318 5.51411 12.3151
internal_count=10213 5649 4564 4397 1731 2457 1845 1332 1103 1003 1940 599 776 1807 1736 399 133 1212 742 106 273 179 151 45 224 612 503 490 176 88 988 524 436 78 28 3918 746 556 489 67 88 727 135 404 314 592 93 34 71
is_linear=0
shrinkage=0.03


Tree=11
num_leaves=50
num_cat=0
split_feature=11 15 10 2 0 10 0 10 2 2 0 2 2 2 1 0 2 0 6 10 2 3 1 0 2 2 2 6 5 6 1 0 11 10 4 5 1 5 10 2 1 0 1 5 2 1 0 1 1
split_gain=527.095 183.343 137.644 90.9642 95.0933 89.8932 55.5664 51.2079 31.4613 44.0449 30.9158 24.9844 23.7274 31.9354 22.5937 21.7648 35.2312 25.3695 20.8863 19.5753 19.9515 18.2728 16.2983 16.0807 24.1565 14.3512 14.2335 13.7066 19.7262 12.5651 12.0126 14.5633 11.7356 10.2501 10.2364 10.149 10.0618 9.84076 9.74174 8.55877 7.83635 10.8711 7.78128 7.74396 9.68777 7.6063 6.61469 11.8564 6.98859
threshold=1.0000000180025095e-35 1.0000000180025095e-35 2.5000000000000004 4.5000000000000009 10.500000000000002 1.5000000000000002 10.500000000000002 3.5000000000000004 2.5000000000000004 5.5000000000000009 11.500000000000002 2.5000000000000004 5.5000000000000009 2.5000000000000004 35.500000000000007 11.500000000000002 4.5000000000000009 9.5000000000000018 -0.77608090992617063 3.5000000000000004 5.5000000000000009 0.60355339059327384 5.5000000000000009 12.500000000000002 3.5000000000000004 3.5000000000000004 3.5000000000000004 0.052264231633826638 -0.88978543071351945 0.15622007704270638 45.500000000000007 16.500000000000004 1.5000000000000002 2.5000000000000004 -0.78656609248549325 -0.77608090992617063 41.500000000000007 -0.70613771591812602 3.5000000000000004 2.5000000000000004 51.500000000000007 16.500000000000004 52.500000000000007 -0.25846434259635315 5.5000000000000009 3.5000000000000004 15.500000000000002 15.500000000000002 13.500000000000002
decision_type=2 2 2 2 2 2 2 2 2 2 2 2 2 2 2 2 2 2 2 2 2 2 2 2 2 2 2 2 2 2 2 2 2 2 2 2 2 2 2 2 2 2 2 2 2 2 2 2 2
left_child=6 7 5 4 14 15 -1 12 40 25 22 42 13 33 -4 16 17 -3 -13 -8 23 38 39 26 -25 27 29 -10 -29 -21 34 -32 -24 -2 -27 -19 -26 -17 -16 -6 -9 -42 -12 44 -5 -15 47 -35 -48
right_child=1 2 3 43 10 -7 19 8 9 -11 11 18 -14 45 21 37 -18 35 -20 20 -22 -23 32 24 36 30 -28 28 -30 -31 31 -33 -34 46 -36 -37 -38 -39 -40 -41 41 -43 -44 -45 -46 -47 48 -49 -50
leaf_value=-0.024662663302403087 -0.014613368984948782 -0.025058954351469223 -0.02517632221660281 0.049685065183847167 0.081585437002888839 -0.012940114092909601 -0.012027187851857597 -0.00253241473371415 -0.0077180010596356596 -0.019266596205715889 0.092031094123359719 0.083212315712540036 -0.023352534631900436 0.037426515205833559 0.025662040140262844 0.050513673706284047 -0.025122910409987702 0.1030217509061094 0.0037461571220366191 0.11426972685144419 -0.023137977534575069 -0.025058954351469223 0.12196707595927557 -0.0062383791910077448 0.032811853968714985 0.088666875766905226 0.01250167257064657 0.14489555896123246 0.028672961732489746 0.025250450801383568 9.7924533763959009e-05 0.080605770013567821 0.089576565606285311 0.024662567161758644 0.052956010794591842 0.063208311510839721 0.10887828706597505 0.0035048952527903512 0.080627328046616875 0.0047305362195212879 0.0074638181583122406 0.090317435673566718 0.045114937589556682 -0.022058201077378083 -0.025198914368425755 0.010931086591563445 -0.016297808898440177 -0.0212087050961241 0.033878153669891928
leaf_weight=448.60101798921824 76.063922867178917 2.5673033148050299 7.4674656093120602 3.9905002713203439 3.8951902985572806 50.951618075370789 191.07400478422642 31.549214631319046 6.7532219588756588 10.189238183200358 19.785654008388523 4.6677900105714789 32.658872865140438 10.480232894420622 5.2530236244201642 5.5319531559944179 4.3585984483361235 7.6644221544265774 8.2165762484073621 3.6277228295803052 15.250692158937452 3.1785660088062277 25.665987357497215 29.904437944293022 7.170310363173483 12.298182964324949 5.5372068881988525 1.5830642729997642 7.7426097393035862 2.3524458408355713 5.8309597969055158 3.0958724319934845 16.564633592963219 7.8014915734529522 17.509569212794307 23.221068359911442 2.0020398497581482 14.547307208180426 6.4842515885829926 1.9604534506797788 4.5653456300497046 2.0721580684185028 3.7912763953208914 9.3449414968490565 2.5474232658743858 140.2538898140192 3.3171147257089606 14.490531623363493 10.120542228221892
leaf_count=3664 586 21 59 29 24 388 1493 237 49 81 122 30 257 75 36 41 35 48 60 22 123 26 151 228 49 80 41 11 55 16 41 20 100 59 117 153 13 109 44 13 34 15 24 72 20 1033 25 109 75
internal_value=-0.000481251 0.0194626 0.0406851 0.0624548 0.0724053 0.0161209 -0.0182912 0.00712168 0.0253134 0.0380099 0.0869618 0.0661287 0.000762336 0.00376226 0.0174217 0.0416986 0.0551033 0.065556 0.0325354 -0.00716606 0.00694038 0.038748 0.102759 0.0160069 0.00682489 0.0486569 0.0471604 0.0248314 0.0484021 0.0792518 0.058547 0.0280185 0.109262 -0.00838749 0.0676897 0.0730883 0.0494148 0.0164561 0.0560276 0.0558546 0.00370106 0.0333298 0.0844868 -0.00453675 0.0205074 0.0127733 0.00486663 -0.00515523 0.0214921
internal_weight=1335.55 630.032 231.656 122.814 106.931 108.842 705.52 398.376 103.189 65.0027 84.5476 36.4613 295.187 262.528 22.3833 57.8907 37.8114 33.4528 12.8844 256.919 65.8449 14.9158 48.0863 50.5942 39.0768 54.8135 11.5174 16.0789 9.32567 5.98017 38.7346 8.92683 42.2306 111.794 29.8078 30.8855 9.17235 20.0793 11.7373 5.85564 38.1867 6.6375 23.5769 15.8829 6.53792 150.734 35.7297 22.292 13.4377
internal_count=10213 4564 1605 810 689 795 5649 2959 740 454 524 236 2219 1962 165 407 257 222 90 1985 492 106 288 369 290 373 79 115 66 38 258 61 251 854 197 201 62 150 80 37 286 49 146 121 49 1108 268 168 100
is_linear=0
shrinkage=0.03


Tree=12
num_leaves=50
num_cat=0
split_feature=11 0 0 2 2 10 10 0 2 11 0 0 2 4 2 0 2 5 6 11 5 11 6 1 0 10 2 1 5 10 4 0 2 4 0 5 11 0 0 0 0 5 1 1 6 0 1 5 2
split_gain=2031.85 361.147 202.089 88.4553 63.6359 44.2795 27.307 25.558 21.1619 14.7806 10.5335 11.1294 9.13198 7.69894 9.22005 7.74033 13.4145 7.60954 7.49377 7.47484 10.6716 7.15881 8.34237 6.94987 6.79726 9.75447 9.77802 8.14669 6.79695 6.52097 6.2101 6.05255 5.56292 5.53976 5.49665 5.49214 5.39469 5.67439 5.2878 5.20149 5.00691 5.44103 6.7564 5.24027 4.85184 4.50599 4.75813 4.63265 4.45328
threshold=1.0000000180025095e-35 10.500000000000002 9.5000000000000018 5.5000000000000009 5.5000000000000009 2.5000000000000004 3.5000000000000004 16.500000000000004 1.0000000180025095e-35 1.5000000000000002 11.500000000000002 14.500000000000002 1.0000000180025095e-35 -0.9159756150367534 2.5000000000000004 11.500000000000002 4.5000000000000009 0.54389262614623668 -0.10452846326765376 1.5000000000000002 -0.35787681872537386 1.5000000000000002 0.35787681872537364 46.500000000000007 11.500000000000002 1.5000000000000002 1.0000000180025095e-35 5.5000000000000009 0.77608090992617107 3.5000000000000004 -0.98296291314453399 12.500000000000002 1.5000000000000002 -0.60355339059327384 9.5000000000000018 0.98633474805103971 2.5000000000000004 14.500000000000002 13.500000000000002 12.500000000000002 16.500000000000004 -0.77608090992617063 42.500000000000007 12.500000000000002 -0.88978543071351968 13.500000000000002 48.500000000000007 0.77608090992617107 1.5000000000000002
decision_type=2 2 2 2 2 2 2 2 2 2 2 2 2 2 2 2 2 2 2 2 2 2 2 2 2 2 2 2 2 2 2 2 2 2 2 2 2 2 2 2 2 2 2 2 2 2 2 2 2
left_child=1 34 -2 5 6 9 8 10 28 24 -5 21 18 15 19 16 -7 -13 -11 20 -15 38 -23 35 27 39 -27 32 31 -17 -8 -3 -4 -20 -1 -6 37 -14 -12 -26 -10 42 -42 -43 -29 46 -16 -47 -32
right_child=2 4 3 7 23 13 30 -9 40 12 11 17 36 14 45 29 -18 -19 33 -21 -22 22 -24 -25 25 26 -28 44 -30 -31 48 -33 -34 -35 -36 -37 -38 -39 -40 -41 41 43 -44 -45 -46 47 -48 -49 -50
leaf_value=0.033612336700970059 0.033772966162849374 -0.005552629405814866 -0.029938469020766544 0.029701495984022233 0.026354476564097944 -0.048974984923128163 -0.032129911068892389 -0.029410720254265433 0.00020324198056094145 -0.027033829923086474 -0.012489463960687081 -0.00041779751273127516 -0.037124556653109528 -0.03472488177842812 -0.0083806854581638564 -0.029776713173547541 -0.0028362520065410486 0.027355260594639087 -0.0084948660729917049 -0.034382903360011374 -0.01336436062841371 -0.041594200798507862 -0.0017535987407639056 0.010083405739028401 -0.025238591042309196 -0.0028897171841944275 -0.026878829360655863 -0.014689124593590466 -0.00049887143701556242 -0.041495115883096886 -0.0045148876925980609 0.022322777609422119 0.019087826942875027 0.036534969411616769 0.027378309701113331 -0.0026246966712704244 -0.019168040941665531 -0.027585425973259692 0.012839469687566146 -0.01011247851914116 0.030428613300569767 0.0016994766880046776 -0.015979337826239483 -0.024779718617150753 -0.035778798488005782 -0.036141122327295827 -0.045800808127776371 -0.047814752743232915 -0.017096608004578392
leaf_weight=939.57459366321564 49.514411568641663 7.8628092110157004 3.5370623469352704 12.136216998100279 105.62237203121185 94.833003729581833 14.870677679777144 27.077905774116516 211.62562790513039 19.899816155433655 15.378397792577744 19.011877745389938 134.0134836435318 34.719647288322449 9.2276751995086652 84.026457786560059 6.0320619642734519 16.658526331186295 11.154316276311873 81.361392349004745 53.463719993829727 10.589994966983797 8.5485908985137922 39.367527484893799 24.913371086120605 17.407378226518631 125.83917006850243 11.919072747230528 19.88275682926178 86.97780829668045 46.404360145330429 64.65931648015976 5.0669074356555939 3.1541516482830039 147.24070727825165 6.2332462370395652 27.92440003156662 96.562863767147064 14.330351531505585 114.47350713610649 5.6007471382617933 9.4655541777610761 5.6936294138431549 23.244870692491531 55.686049610376358 148.59284627437592 4.5741839408874503 38.528890341520309 55.720597892999649
leaf_count=3172 167 25 11 40 351 288 46 84 677 62 49 61 413 107 29 259 19 55 35 251 168 33 27 128 78 55 391 37 64 267 148 212 16 10 492 20 87 299 46 360 18 30 18 73 172 456 14 118 175
internal_value=7.33507e-05 0.022365 -0.0258031 -0.0278839 0.00401883 -0.0302013 -0.00147861 -0.00365071 0.00273632 -0.0246909 0.00356604 -0.000186846 -0.0296939 -0.0357907 -0.0329771 -0.0396247 -0.0462157 0.0125526 -0.0151275 -0.027825 -0.0217744 -0.00948971 -0.0237987 0.0209242 -0.02061 -0.018466 -0.0239637 -0.0285614 0.0150403 -0.035737 -0.0140171 0.0193005 -0.00106671 0.00143149 0.0327678 0.0247396 -0.0316215 -0.0331297 -0.000271766 -0.0128161 -0.0017113 -0.0109186 0.00703381 -0.0171173 -0.0320606 -0.0373246 -0.0207824 -0.0385448 -0.0113796
internal_weight=3170.2 1703.07 1467.14 1417.62 616.254 1293.89 465.031 123.732 348.035 651.552 96.654 84.5177 292.709 642.338 370.468 271.869 100.865 35.6704 34.2083 169.545 88.1834 48.8473 19.1386 151.223 358.843 282.633 143.247 76.2091 92.4049 171.004 116.996 72.5221 8.60397 14.3085 1086.82 111.856 258.501 230.576 29.7087 139.387 255.63 44.0048 11.2944 32.7104 67.6051 200.924 13.8019 187.122 102.125
internal_count=10213 5649 4564 4397 1985 4002 1486 395 1117 2026 311 271 906 1976 1143 833 307 116 107 526 275 155 60 499 1120 884 446 236 301 526 369 237 27 45 3664 371 799 712 95 438 816 139 36 103 209 617 43 574 323
is_linear=0
shrinkage=0.03


Tree=13
num_leaves=50
num_cat=0
split_feature=0 11 11 0 10 0 12 12 12 10 12 1 12 0 5 12 5 1 12 12 10 12 12 11 1 1 5 2 12 1 10 12 0 12 11 1 12 5 1 12 12 12 5 12 12 0 10 12 12
split_gain=418.258 71.8682 34.1947 28.5606 25.3844 22.4254 12.0192 11.8139 11.5089 11.1458 10.4805 9.55103 9.29491 8.85937 8.3226 8.0502 8.84816 14.4721 7.33157 6.76902 6.13736 6.9518 6.20629 5.72942 9.30818 5.53881 5.52211 8.43113 6.73001 6.55566 5.22735 5.21336 16.702 5.24428 4.95432 5.40289 6.76762 4.70168 5.03498 4.69396 4.61528 4.58422 4.57597 4.48124 4.37501 4.34725 14.2578 5.41885 4.22112
threshold=10.500000000000002 1.0000000180025095e-35 1.0000000180025095e-35 12.500000000000002 2.5000000000000004 9.5000000000000018 2602.5000000000005 4944.5000000000009 4121.5000000000009 1.5000000000000002 2510.5000000000005 20.500000000000004 2587.5000000000005 11.500000000000002 0.98633474805103971 3942.5000000000005 -0.25846434259635315 41.500000000000007 431.50000000000006 4928.5000000000009 3.5000000000000004 4735.5000000000009 3313.5000000000005 1.5000000000000002 4.5000000000000009 13.500000000000002 0.96460205851447978 1.5000000000000002 2557.5000000000005 13.500000000000002 1.5000000000000002 4204.5000000000009 14.500000000000002 2725.5000000000005 2.5000000000000004 2.5000000000000004 329.50000000000006 -0.8375211990796928 38.500000000000007 4822.5000000000009 1966.5000000000002 3860.5000000000005 -0.54389262614623624 310.50000000000006 3506.5000000000005 11.500000000000002 2.5000000000000004 1392.5000000000002 1712.5000000000002
decision_type=2 2 2 2 2 2 2 2 2 2 2 2 2 2 2 2 2 2 2 2 2 2 2 2 2 2 2 2 2 2 2 2 2 2 2 2 2 2 2 2 2 2 2 2 2 2 2 2 2
left_child=2 8 -1 4 9 -4 12 20 15 13 43 -7 18 41 19 26 17 -17 -5 -10 31 22 -22 40 -25 -23 44 -28 -29 -30 -9 33 -33 -8 35 -11 -37 -21 -39 -16 -20 -3 -32 -6 45 46 -2 -47 -13
right_child=1 3 5 6 10 11 7 30 14 34 -12 48 -14 -15 39 16 -18 -19 23 37 21 25 -24 24 -26 -27 27 28 29 -31 42 32 -34 -35 -36 36 -38 38 -40 -41 -42 -43 -44 -45 -46 47 -48 -49 -50
leaf_value=-0.023962985051397812 0.067517480032048161 -0.01010930771183447 -0.025168422647775916 -0.025498816899112525 0.024786499340655768 -0.025382148865341472 0.007481732028203944 0.011164816738764063 -0.015432807103750504 -0.013026073091360666 0.010018985702689534 0.0089895944948992015 0.073981735176424868 0.021589875725678668 0.0074788551984592755 0.11055806143368588 0.0044557923301363003 0.012653656060199726 0.019142962460762879 -0.025397247531414237 0.019169738735879318 -0.010444705129447961 -0.002761374464197679 0.067360588966557902 0.030572934673597514 0.046764486678178403 -0.007295328286194786 0.070671827878817969 0.054013744356207302 -0.0085854688645749765 0.032806084354774445 0.036779946057210418 -0.0027981870073388831 0.024436899672732985 -0.013196551434250995 0.082003869011068958 0.031043475248477715 0.0081373076220804669 0.065855214110479995 0.073552786495037631 0.035081191206052173 0.032440309367457634 0.079842614413460369 -0.013179974954329916 -0.01628308417304393 -0.0048952684461556007 -0.017315328838184464 0.0064622188299157347 0.029862541267599369
leaf_weight=465.57518902420998 3.5370735377073279 19.410276368260387 21.104683935642242 2.3518526256084433 2.9533078521490088 5.0903324931859961 18.900202229619026 2.4285878986120206 66.34669291973114 2.3151704370975486 33.507711678743362 18.958280339837074 3.8921980559825888 22.74679984152317 2.6991157531738272 2.4071065038442612 6.9646960943937284 3.1202794909477234 72.573194608092308 2.155670702457428 17.293813809752464 1.9799938350915889 35.355066224932671 6.7363307029008856 76.3506940305233 6.6004281044006348 6.5757341086864498 3.4059422612190229 2.6253964304924011 3.5301460176706314 3.0468844622373581 14.362203076481817 28.918148815631866 125.02079465985298 2.337966412305831 2.4917720556259146 39.921168252825737 4.4374403655529004 1.9615419805049894 1.5084523409605024 21.10736757516861 2.5819926261901847 4.7845193594694138 53.188433945178986 12.930782184004782 75.582408607006073 3.5956543236970901 75.650217995047569 16.145929411053658
leaf_count=3664 24 138 167 17 19 38 126 16 495 15 226 127 24 150 18 14 48 21 476 16 113 14 245 42 491 43 47 21 17 25 19 95 203 813 15 15 254 31 13 10 135 18 27 376 92 542 25 526 107
internal_value=4.81732e-05 0.012451 -0.0211898 0.0181169 0.00809649 -0.000127073 0.0222334 0.018071 -0.000202462 0.0191847 -0.00325832 0.0130212 0.0281171 0.00846322 -0.00988814 0.00363008 0.0269484 0.0552898 0.0271204 -0.0121944 0.0167682 0.00852328 0.00444244 0.0278205 0.0335555 0.0335631 0.00207596 0.0188528 0.0368357 0.0181137 0.0496179 0.0194649 0.0103355 0.0222103 0.0293761 0.0316014 0.0340374 0.0129214 0.0258301 0.031167 0.022734 -0.00511379 0.0615426 -0.0111828 0.000495478 0.00186547 0.0247527 0.000786021 0.01859
internal_weight=1429.07 902.191 526.874 623.157 181.455 61.2992 441.702 258.691 279.034 91.8051 89.6495 40.1945 183.012 44.7391 79.1089 199.925 12.4921 5.52739 179.119 74.9013 248.431 61.2293 52.6489 176.768 83.087 8.58042 187.433 16.1372 9.56148 6.15554 10.26 187.201 43.2804 143.921 47.0661 44.7281 42.4129 8.55465 6.39898 4.20757 93.6806 21.9923 7.8314 56.1417 171.296 158.365 7.13273 151.233 35.1042
internal_count=10213 6110 4103 4125 1226 439 2899 1714 1985 605 621 272 1185 306 583 1402 83 35 1161 555 1652 415 358 1144 533 57 1319 110 63 42 62 1237 298 939 299 284 269 60 44 28 611 156 46 395 1209 1117 49 1068 234
is_linear=0
shrinkage=0.03


Tree=14
num_leaves=50
num_cat=0
split_feature=11 0 0 11 12 12 2 10 6 12 12 0 5 6 12 12 10 10 6 5 0 0 5 12 5 3 12 6 5 5 6 12 6 6 0 5 12 12 5 0 6 5 11 6 6 10 6 5 6
split_gain=565.83 125.242 55.3752 40.1426 24.0815 17.2741 16.0731 16.3241 14.6912 13.3604 10.1667 9.14226 8.62346 9.07489 8.18554 7.82836 7.81007 8.32452 13.6003 9.91768 7.13026 6.81153 6.11751 6.30237 8.2905 6.09966 6.84574 5.7357 5.51049 7.00053 6.2192 5.6635 5.27941 5.13344 4.89857 4.89681 4.63482 4.63262 4.46468 5.70305 5.22859 4.3797 4.30084 4.0815 8.38483 5.10476 4.18164 3.60833 4.11874
threshold=1.0000000180025095e-35 11.500000000000002 9.5000000000000018 1.5000000000000002 4236.5000000000009 1087.5000000000002 5.5000000000000009 1.5000000000000002 -0.83752119907969302 1327.5000000000002 4735.5000000000009 13.500000000000002 0.25846434259635342 0.35787681872537364 384.50000000000006 4928.5000000000009 1.5000000000000002 2.5000000000000004 -0.88978543071351968 -0.98633474805103927 11.500000000000002 12.500000000000002 -0.62845792932566569 1886.5000000000002 -0.35787681872537386 -0.91597561503675318 1263.5000000000002 -0.83752119907969302 0.8897854307135199 0.93230098696887742 -0.98633474805103949 3366.5000000000005 0.3090169943749474 0.93230098696887731 9.5000000000000018 -0.54389262614623624 578.50000000000011 3942.5000000000005 0.93230098696887742 15.500000000000002 1.0000000180025095e-35 0.15622007704270641 2.5000000000000004 0.25846434259635337 0.4533683215379003 2.5000000000000004 0.96460205851447978 -0.10452846326765322 0.96460205851447978
decision_type=2 2 2 2 2 2 2 2 2 2 2 2 2 2 2 2 2 2 2 2 2 2 2 2 2 2 2 2 2 2 2 2 2 2 2 2 2 2 2 2 2 2 2 2 2 2 2 2 2
left_child=1 34 -2 5 9 43 7 25 37 38 14 22 13 -8 -5 33 36 19 -19 -18 -15 -10 -11 41 -25 35 -27 -17 30 -30 -13 -32 -31 -12 -1 -7 -16 -9 39 -3 -40 -24 -38 -4 45 -45 -46 48 -36
right_child=2 4 3 10 -6 6 12 8 21 11 15 28 -14 20 16 27 17 18 -20 -21 -22 -23 23 24 -26 26 -28 -29 29 32 31 -33 -34 -35 47 -37 42 -39 40 -41 -42 -43 -44 44 46 -47 -48 -49 -50
leaf_value=-0.025816633271533874 -0.025811543734012829 -0.00061489399079277436 -0.0064011894766049359 0.0045838304203115717 -0.016776244061554198 0.052885307881879236 -0.0097289417543097948 0.01163593053223622 0.01696509765341277 -0.016139396210500336 -0.01541371759158177 0.060406340408164463 -0.018756830415279351 -0.026253461576333605 0.049255003850985073 -0.012159787109016593 -0.0094050959731832966 0.049802168707513216 0.024690120202758226 0.042740945505412402 0.038873174479059622 0.02909476550317025 0.0033117555438204093 0.045261276426457893 -0.0056157679466696999 0.033745758482194049 0.00012513299092468269 0.045408761286599285 0.071405191395521816 0.031244721705017117 0.016590412206421528 -0.0022666850913470545 -0.026538476872404532 0.026920819579598812 -0.013915859905310907 0.011755420754008932 0.021903723307922458 -0.011673743807180399 0.026554268571217378 -0.017194635106194518 -0.017523767479065169 0.060137265100487017 -0.0035591639596409407 0.010929525442803173 -0.0051218519236946002 0.070653935476685123 0.027006837644664199 -0.02228199835067541 0.022663820894523609
leaf_weight=473.53576529026031 24.902262061834335 47.950457438826561 40.337468788027763 12.478363215923308 61.7897117882967 4.1401308178901672 10.816308140754701 32.890875995159149 58.963463872671127 15.004646852612494 11.127264499664308 2.4028939902782431 16.324770346283913 1.7955417186021794 5.1334331631660453 2.0796434581279755 3.4387306421995154 22.646879062056541 135.80394323170185 72.269225522875786 9.6138936281204206 142.03950598835945 2.0185706615448025 3.3221081346273449 21.786827102303505 5.9759764373302451 62.009937688708305 6.2050762921571714 3.3517859429121009 8.2679531276226008 51.445337191224098 19.871039777994156 1.7189226299524314 3.3551734089851371 29.884043604135513 7.0269296765327436 74.285390228033066 10.008597031235693 7.8934352695941907 30.580235585570335 3.4942321181297302 3.0881547033786774 6.4918059706687918 2.402615740895274 19.567780390381817 2.7763367742300034 4.4807404875755301 81.936462819576263 3.0533524155616751
leaf_count=3172 167 293 237 71 399 23 65 187 329 94 69 13 103 11 29 12 19 122 734 391 55 782 12 18 133 35 364 33 18 46 298 118 10 19 194 40 404 57 45 196 22 16 37 14 113 16 26 534 18
internal_value=0.000200038 -0.0165717 0.0182329 0.0196274 -0.000209964 0.0134748 0.0161085 0.0182934 0.0221351 0.00439688 0.0270936 0.010462 -0.00220098 0.00995927 0.0284214 0.00769917 0.0293507 0.0321892 0.0282793 0.0403724 0.028624 0.0255366 -0.000481082 0.0072946 0.00111566 0.0064556 0.00308039 0.0309578 0.0161462 0.03389 0.0129357 0.0113362 0.0212992 -0.005606 -0.0244684 0.0270041 0.021614 0.0061977 -0.00452553 -0.00707113 0.0130292 0.0376755 0.0198574 -0.000215653 0.00832114 0.0429466 0.000864392 -0.0189109 -0.0105249
internal_weight=1683.78 872.396 811.388 786.486 283.986 431.171 361.606 323.055 243.902 222.197 355.315 132.278 38.5505 22.2257 332.548 22.7672 320.069 234.159 158.451 75.708 11.4094 201.003 45.2203 30.2157 25.1089 79.153 67.9859 8.28472 87.0579 13.3387 73.7193 71.3164 9.98688 14.4824 588.41 11.1671 85.9106 42.8995 89.9184 78.5307 11.3877 5.10673 80.7772 69.5649 29.2275 5.17895 24.0485 114.874 32.9374
internal_count=10213 5649 4564 4397 1731 2457 2051 1817 1355 1332 1940 776 234 131 1807 133 1736 1266 856 410 66 1111 273 179 151 462 399 45 503 74 429 416 56 88 3918 63 470 244 556 489 67 28 441 406 169 30 139 746 212
is_linear=0
shrinkage=0.03


Tree=15
num_leaves=50
num_cat=0
split_feature=11 15 10 12 10 0 0 12 2 10 12 0 2 0 12 10 12 12 5 5 0 12 12 0 6 12 6 12 0 10 5 6 6 4 6 5 12 12 10 6 5 6 2 12 12 12 5 6 12
split_gain=487.646 162.777 117.2 86.2674 81.6783 79.7842 54.9365 51.4571 74.3705 51.186 25.2882 19.0015 30.3975 21.3208 18.6492 18.4865 18.6019 18.4587 18.4366 15.0658 14.0654 28.6002 13.9934 13.5762 12.1811 11.284 10.703 9.70925 9.62984 9.23791 8.78546 8.55394 8.49057 8.21714 7.15921 7.0185 7.91716 6.74327 13.3762 15.1655 6.31318 6.06177 6.04107 10.1528 5.67077 5.62561 7.88553 5.95993 5.54164
threshold=1.0000000180025095e-35 1.0000000180025095e-35 2.5000000000000004 3245.5000000000005 1.5000000000000002 10.500000000000002 10.500000000000002 2068.5000000000005 5.5000000000000009 3.5000000000000004 2473.5000000000005 11.500000000000002 4.5000000000000009 9.5000000000000018 3334.5000000000005 3.5000000000000004 4569.5000000000009 4105.5000000000009 -0.10452846326765322 -0.10452846326765322 12.500000000000002 3351.5000000000005 2527.5000000000005 9.5000000000000018 -0.20791169081775954 4236.5000000000009 -0.54389262614623657 4121.5000000000009 11.500000000000002 2.5000000000000004 -0.70613771591812602 -0.25846434259635348 0.15622007704270638 -0.9159756150367534 0.3090169943749474 0.54389262614623668 1038.5000000000002 4236.5000000000009 1.5000000000000002 0.4533683215379003 -0.25846434259635315 0.20791169081775937 5.5000000000000009 3942.5000000000005 384.50000000000006 2085.5000000000005 -0.77608090992617063 0.96460205851447978 1151.5000000000002
decision_type=2 2 2 2 2 2 2 2 2 2 2 2 2 2 2 2 2 2 2 2 2 2 2 2 2 2 2 2 2 2 2 2 2 2 2 2 2 2 2 2 2 2 2 2 2 2 2 2 2
left_child=6 7 4 5 11 19 -1 29 9 37 35 12 13 -3 24 44 20 18 -16 23 22 -22 32 -4 -11 -19 -12 -23 -28 -2 41 -25 -17 -15 -26 36 -7 45 -39 -40 42 -13 43 -5 -8 46 -9 -47 -31
right_child=1 2 3 40 -6 10 15 8 -10 14 26 30 -14 33 17 16 -18 25 -20 -21 21 27 -24 31 34 -27 28 -29 -30 48 -32 -33 -34 -35 -36 -37 -38 38 39 -41 -42 -43 -44 -45 -46 47 -48 -49 -50
leaf_value=-0.024541598400715701 -0.016067707059550757 -0.024949942020659522 -0.024949931328611997 -0.013806132434753315 -0.012899237174333552 0.061563006108527572 0.041248298106665068 -0.0036115490108058171 -0.022276444712020459 -0.0065173072272855827 0.075244172460628408 0.023233223085745894 -0.025040693598004291 0.076064994974071223 0.044795391994581289 0.10508167970167143 -0.022988936082124989 0.007394927164289751 0.096695209790575776 -0.025105445000897685 -0.0068928125716415179 0.07965143039491647 0.012525893900962641 0.0089280034477375505 0.070194309467309007 0.068294901627494811 0.059290135838413353 0.012973965213436488 0.0045476966620566477 0.011613939317803827 0.0030198396377284428 0.059796825220551533 0.029874816542895682 0.043432056881206806 0.026219518482156701 0.10241238669482566 0.088968928848852477 -0.015406594464154324 0.090019155385156119 -0.010161937287299902 -0.021958388860113517 0.086751667896636339 -0.025118109042487378 0.065767560629905811 -0.012295010971823691 0.0080838709827234529 0.092006798558001035 0.028360411436475063 -0.0064968565131680927
leaf_weight=433.55174297839403 68.774143576622009 2.47946012020111 3.1878661662340209 2.5793655961751956 50.817026242613792 12.915695443749426 1.7973791658878315 1.3721320629119875 42.114441141486168 7.8985956907272366 8.5539483577013034 3.6857786923646954 4.2452937439084044 23.119526609778401 11.408812299370766 3.6371490210294706 14.819511443376539 8.1558925956487638 13.390054076910019 5.8174665570259085 30.964259415864944 5.381054073572157 6.2991498857736588 4.3461109772324606 4.6831565424799946 4.1222383230924597 5.5956718772649747 3.0965221673250198 5.9858685731887817 22.700473494827747 14.766659438610075 9.4313264489173836 2.1494468301534653 9.9263456761837023 11.548369333148001 21.094518795609474 35.735092088580132 3.0282921493053419 4.6600256711244583 1.9204020649194715 9.2009428143501264 2.1357443481683731 2.4842787533998489 3.2757960706949234 186.50057332962751 135.84806896746159 1.7873635292053212 14.432644337415693 46.055297389626503
leaf_count=3664 535 21 27 19 388 74 13 10 338 57 51 26 35 137 71 20 123 56 78 47 236 33 45 31 31 25 33 21 43 169 109 60 14 64 79 114 197 23 31 13 72 15 20 22 1480 987 13 100 343
internal_value=-0.000478599 0.0182568 0.0377477 0.0570641 0.0151251 0.0666993 -0.0180457 0.00660865 0.0143028 0.0211723 0.0794097 0.0387192 0.05083 0.0598966 0.0445651 -0.00698583 0.00663151 0.0579242 0.0728185 0.0165554 0.0151505 0.00647414 0.0434656 0.0308411 0.0240383 0.0278414 0.0497939 0.0552968 0.0309967 -0.00829358 0.0153246 0.0437502 0.0771459 0.0662627 0.0389072 0.0879598 0.0816933 0.0123908 0.0367709 0.0607828 -0.00482362 0.0465363 0.0140812 0.0307131 -0.0117839 0.0108641 0.0504809 0.0100312 -0.000517378
internal_weight=1333.48 645.28 241.38 130.204 111.176 112.664 688.197 403.9 266.37 224.256 89.8808 60.3588 39.7706 35.5253 61.2071 254.645 66.3471 37.077 24.7989 22.7828 51.5276 39.4418 12.0857 16.9653 24.1301 12.2781 20.1355 8.47758 11.5815 137.53 20.5882 13.7774 5.7866 33.0459 16.2315 69.7453 48.6508 163.049 9.60872 6.58043 17.5404 5.82152 8.33944 5.85516 188.298 153.44 3.1595 150.281 68.7558
internal_count=10213 4564 1605 810 795 677 5649 2959 1912 1574 512 407 257 222 397 1985 492 230 149 165 369 290 79 118 167 81 127 54 76 1047 150 91 34 201 110 385 271 1177 67 44 133 41 61 41 1493 1110 23 1087 512
is_linear=0
shrinkage=0.03


Tree=16
num_leaves=50
num_cat=0
split_feature=3 2 3 1 2 2 12 10 3 12 12 10 12 10 10 1 10 3 2 12 12 3 12 12 6 1 12 12 12 1 5 1 5 5 12 12 6 6 10 1 12 6 5 1 5 12 5 1 5
split_gain=1717.43 240.88 123.034 122.387 93.6917 66.7518 71.6101 43.4824 32.068 17.9082 18.9678 17.3156 13.7989 10.7794 10.2052 9.77757 9.70868 12.8691 33.2379 10.7252 11.6385 8.91877 8.72301 9.82102 7.39217 6.92202 6.35967 6.3151 5.81362 5.26954 5.1568 4.85998 4.5824 4.56696 4.26189 5.41023 4.25405 4.06226 3.83164 5.67159 3.74601 3.74248 3.68278 6.74038 3.659 3.37124 3.25435 4.70941 3.08917
threshold=0.37940952255126054 5.5000000000000009 0.60355339059327384 32.500000000000007 4.5000000000000009 1.0000000180025095e-35 399.50000000000006 2.5000000000000004 -0.91597561503675318 1136.5000000000002 1327.5000000000002 2.5000000000000004 612.50000000000011 3.5000000000000004 2.5000000000000004 45.500000000000007 1.5000000000000002 0.12940952255126059 4.5000000000000009 4188.5000000000009 3521.5000000000005 -0.78656609248549259 3974.5000000000005 3860.5000000000005 -0.93230098696887709 3.5000000000000004 4631.5000000000009 1263.5000000000002 4808.5000000000009 17.500000000000004 0.98633474805103971 48.500000000000007 0.96460205851447978 0.54389262614623668 4615.5000000000009 4822.5000000000009 -0.70613771591812613 0.88978543071352001 3.5000000000000004 52.500000000000007 2052.5000000000005 0.25846434259635337 -0.3090169943749474 20.500000000000004 0.8897854307135199 4523.5000000000009 -0.96460205851447944 56.500000000000007 -0.3090169943749474
decision_type=2 2 2 2 2 2 2 2 2 2 2 2 2 2 2 2 2 2 2 2 2 2 2 2 2 2 2 2 2 2 2 2 2 2 2 2 2 2 2 2 2 2 2 2 2 2 2 2 2
left_child=1 5 3 29 48 6 14 16 33 -9 24 12 42 32 -1 30 17 19 37 20 -7 25 23 -23 -11 -18 -17 -26 46 -2 34 -21 -12 -3 -10 36 -36 -19 39 41 -27 -13 -8 -44 -14 -31 -28 -48 -5
right_child=2 8 -4 4 -6 7 11 9 15 10 13 38 44 -15 -16 26 21 18 -20 31 -22 22 -24 -25 27 40 28 -29 -30 45 -32 -33 -34 -35 35 -37 -38 -39 -40 -41 -42 -43 43 -45 -46 -47 47 -49 -50
leaf_value=-0.023227342480504783 0.030691323450918111 -0.019755026611897798 0.032980912992559216 -0.034517679453112717 0.032427626762101883 -0.01167062349038111 0.01083005355313591 -0.046425723040855994 0.030391332435421445 0.021085546787325108 -0.024517651388715814 0.00049555444542980322 0.025849022656609023 -0.033694885317321926 -0.046978076456735789 0.025768787272220307 0.00046435779325556544 -0.045185277916565111 0.020536112937857027 0.017836199114401052 -0.026903515238037825 -0.019214427242411639 -0.03412770303293975 0.003193493534132898 -0.024675892038684085 -0.021800646371143696 -0.032083167848669616 -0.0030869686305063189 0.011694473577824655 0.015052682343915658 -0.00068530425031986648 -0.021618259763621292 -0.039344119416606517 0.0010148658573028919 -0.00069650127517297661 0.025959028333497058 0.016185516758556225 -0.01811767176524684 -0.013425323133071952 0.026218666431543594 -0.035090791407556575 -0.017356213004217472 0.0043406871801647245 -0.02030268615995991 -0.0023089045071353056 0.033516093959660549 0.0033555426380000421 -0.023960585306782165 -0.055524872330369936
leaf_weight=31.24960321187973 86.993081510066986 32.57151460647583 969.29470083117485 59.850301176309586 23.941282600164413 237.49920228123665 20.233823984861374 52.068553328514099 26.406563699245453 5.6907147765159598 267.00662425160408 30.920926004648209 36.26899465918541 299.38426250219345 33.9945048391819 10.286845803260801 6.4138578772544852 35.12017834186554 9.6564671099185926 13.73404109477997 55.734996199607849 194.55159884691238 31.366624087095261 19.354627907276154 27.277982741594315 25.666874498128891 4.390772163867946 22.053053230047226 22.803883165121078 43.656728744506836 12.369865775108336 3.5325943231582633 20.179070562124252 13.467619538307188 17.298298686742783 40.380379199981689 60.131183981895447 5.8165763914585105 56.85772380232811 5.645365595817565 74.464085698127747 16.057902038097382 27.261697143316269 15.766017466783522 4.6905404031276694 11.17957282066345 20.233628273010261 7.8973721861839286 7.0413180291652671
leaf_count=97 294 103 3339 185 81 742 65 158 89 18 824 99 119 917 103 34 20 107 31 43 173 604 97 61 85 80 14 69 74 144 40 11 62 43 56 135 199 18 179 18 230 51 87 50 15 38 65 25 22
internal_value=6.20109e-05 -0.0172968 0.0282785 0.0086876 -0.018501 -0.0214991 -0.00809286 -0.0241577 0.00910859 -0.0295051 -0.0281319 0.000305858 0.00905828 -0.0297118 -0.0356023 0.0138302 -0.0189548 -0.0154991 -0.0295295 -0.013213 -0.0145659 -0.0225015 -0.0193534 -0.0171869 -0.01129 -0.0297488 0.00410834 -0.0150247 8.09511e-05 0.0261002 0.0179038 0.00976418 -0.0255594 -0.0136793 0.0194983 0.0170566 0.012414 -0.0413393 -0.00802599 -0.00219229 -0.0316841 -0.00560638 0.00027466 -0.00468902 0.0226245 0.0188169 -0.00806231 -0.00431307 -0.036729
internal_weight=3155.71 1953.76 1201.96 232.662 90.8329 1685.52 278.947 1406.57 268.238 693.66 641.592 213.703 104.221 586.57 65.2441 222.199 712.912 361.094 50.5932 310.501 293.234 351.818 245.273 213.906 55.0218 106.545 65.6125 49.331 55.3257 141.829 156.586 17.2666 287.186 46.0391 144.216 117.81 77.4295 40.9368 109.482 52.6242 100.131 46.9788 63.2615 43.0277 40.9595 54.8363 32.5218 28.131 66.8916
internal_count=10213 6110 4103 764 288 5233 883 4350 877 2133 1975 683 336 1803 200 731 2217 1125 156 969 915 1092 762 665 172 330 212 154 178 476 519 54 886 146 479 390 255 125 347 168 310 150 202 137 134 182 104 90 207
is_linear=0
shrinkage=0.03


Tree=17
num_leaves=50
num_cat=0
split_feature=0 11 0 10 0 12 12 12 10 12 5 12 5 1 12 12 10 0 10 12 12 12 5 12 5 15 1 5 12 12 1 1 10 5 1 12 12 12 0 5 12 12 1 5 11 12 5 4 2
split_gain=392.992 101.849 26.1827 23.2522 17.4691 10.759 11.1112 10.7555 10.5944 8.876 7.77826 7.45008 7.87955 12.1529 6.74059 6.61862 6.15889 6.13544 5.9365 8.30315 7.98517 5.64782 5.47235 5.40783 5.16149 7.75398 7.95081 5.11686 5.06134 8.79841 8.05381 5.02013 4.54539 4.49866 4.43471 4.4242 4.27488 4.10471 4.04544 4.02532 4.04036 4.013 7.99352 4.17722 3.82973 3.82736 3.76536 3.37042 3.0099
threshold=9.5000000000000018 1.0000000180025095e-35 12.500000000000002 2.5000000000000004 10.500000000000002 2804.5000000000005 4944.5000000000009 4121.5000000000009 1.5000000000000002 2510.5000000000005 0.98633474805103971 3942.5000000000005 -0.25846434259635315 41.500000000000007 431.50000000000006 4928.5000000000009 1.5000000000000002 11.500000000000002 3.5000000000000004 4735.5000000000009 2836.5000000000005 4204.5000000000009 -0.77608090992617063 3134.5000000000005 0.96460205851447978 1.0000000180025095e-35 13.500000000000002 -0.98633474805103927 2725.5000000000005 2602.5000000000005 9.5000000000000018 13.500000000000002 1.5000000000000002 -0.8375211990796928 38.500000000000007 367.50000000000006 3506.5000000000005 4822.5000000000009 11.500000000000002 -0.98633474805103927 1758.5000000000002 543.50000000000011 30.500000000000004 0.96460205851447978 1.5000000000000002 310.50000000000006 0.45336832153790013 -0.78656609248549325 3.5000000000000004
decision_type=2 2 2 2 2 2 2 2 2 2 2 2 2 2 2 2 2 2 2 2 2 2 2 2 2 2 2 2 2 2 2 2 2 2 2 2 2 2 2 2 2 2 2 2 2 2 2 2 2
left_child=-1 4 3 8 -2 14 18 11 17 22 15 24 13 -13 -4 -9 28 48 20 47 -7 -22 39 -11 36 -26 -27 -10 29 -16 -30 -21 -8 -17 -35 -29 38 -12 -6 -5 -41 42 -18 -43 -34 46 -24 -20 -3
right_child=1 2 5 9 7 6 32 10 27 23 37 12 -14 -15 16 33 41 -19 19 31 21 -23 45 -25 25 26 -28 35 30 -31 -32 -33 44 34 -36 -37 -38 -39 -40 40 -42 43 -44 -45 -46 -47 -48 -49 -50
leaf_value=-0.024772333130244767 -0.017821037579505924 -0.0058946520490087626 -0.025463113713358212 -0.01840091680765453 0.02367351615634514 -0.013443582794329575 0.010192332244325544 -0.015171022063289359 0.072374158470751473 0.031137908189685662 0.0071039776522310236 0.099638698402035916 0.0042997642525836209 0.012116610062646865 0.019330034827603312 -0.025295043860022022 0.031322161284739108 0.020227634523972023 -0.011572650514045362 -0.010312736059969433 0.022737531721000862 0.0098772888212175485 0.041726600531925569 0.0040972617719061827 0.0039039375776062941 0.10339164777627907 0.023501174035923542 0.052064994859818872 0.10001306551197618 -0.016913464030311822 0.02235750297495381 0.044084897587248338 0.034871404035022438 0.0083507434060298806 0.06176603961520552 0.022410593675759247 -0.01618190016501329 0.067649651570990232 0.00076956996426858317 0.027309603381309035 -0.009860554459737705 0.028833046758025029 0.085747310711084074 0.011040723204985094 0.075749171102613019 -0.015106621570994655 -0.013016630130853626 0.0063034363384626996 0.013962558194106162
leaf_weight=409.05510322004557 61.531392149627209 22.804193764925003 2.3298779875040045 4.1471594274044064 7.2741366028785697 7.2027582526206961 2.4863962680101386 65.084731787443161 2.1287069618701926 8.3990703970193845 2.7259405106306067 2.6051387339830399 6.9963662177324277 3.1596774011850357 48.903136298060417 2.0961024165153503 9.917169585824011 23.355540469288826 14.886237874627108 1.9659919887781123 103.22451950609684 43.765255406498909 2.211877077817916 32.078831046819687 11.120925560593607 1.6202741116285313 3.639516294002533 4.960955172777175 1.6619304418563832 6.8757447451353064 4.3431423306465149 6.8356450945138931 3.9079069495201093 4.4126382172107679 2.0481600910425186 51.872663639485836 12.832595750689505 1.5988504290580747 151.30117520689964 8.4828113764524442 3.8158616870641699 147.85583616793156 3.2164640575647345 12.913021564483641 4.3685267418622971 48.555078893899918 2.3136357218027115 26.198561683297161 9.8320175707340223
leaf_count=3339 492 160 17 29 49 47 16 495 13 54 18 14 48 21 311 16 62 150 103 14 653 298 14 215 76 10 24 29 10 48 28 43 23 31 13 324 92 10 1068 58 27 924 20 81 23 342 15 178 68
